solver_type L2R_L2LOSS_SVC_DUAL
nr_class 2
label 1 2
nr_feature 16384
bias -1
w
0.002500296777431607 
-0.007357731230816905 
-0.003765117823997823 
0.003240138663920344 
0.007701100058783992 
0.009209134400150122 
0.003539419320587158 
-0.003534932233076313 
0.006168882092492856 
0.0001597932240437608 
-0.008802108111463237 
-0.002960618180110786 
-0.009228524850281961 
-0.005395539237017631 
-0.003764000541325052 
0.007870151667729145 
0.005673310900226018 
9.380122940604426e-05 
-0.007286606275168581 
-0.001189169002044894 
0.004398119366168418 
0.005827257908560634 
0.003291974483495483 
-0.007983352349463827 
0.003022781248299635 
-0.0001034793268624128 
-0.006204058069201318 
-0.0042081029706624 
-0.002483749688773332 
-0.002779455876283258 
-0.003229320134257068 
0.005506249367295189 
0.006428883950638238 
0.002673467148731381 
-0.006431972848884536 
-0.008265696705830727 
0.004802862973543101 
0.003128651254321544 
-0.001151401413008145 
-0.008893697062480154 
0.006724804600206573 
-0.001192257548897134 
-0.005747004215509785 
0.001155154532490441 
-0.006590510647294333 
-0.003902633874667161 
-0.00507700712004557 
0.01589444272216142 
0.008217615258189013 
0.001177792330844381 
0.0004048605224154402 
-0.01002626860851418 
-0.002992729836925556 
-0.000670929009507557 
0.0008559464486503136 
-0.007231783235334074 
0.008117399509868136 
-0.001669581989645808 
0.001226109019146504 
-0.001875716623800687 
-0.001316630802675723 
-0.00229784648051506 
-0.003716218008750303 
0.01553078229185804 
0.002293427525839051 
0.00457680912692799 
0.00109174145338127 
-0.01294538239883653 
-0.008424461829975563 
0.00297455510462333 
0.001684151340514812 
-0.005964519842943182 
0.008632661400031381 
0.0009158062575919902 
0.001478949572736839 
-0.001745655128286637 
0.00232274737696834 
-0.0003158888710964977 
0.00154075564510342 
0.01067935550296633 
0.007723280798290004 
0.0007195739122786525 
-0.001103776039475433 
-0.01944557602536419 
-0.006674199534504224 
0.007091288193516912 
0.003071409514284689 
-0.004630251976928667 
0.01399910473315856 
-0.000922730738636071 
-0.0007798548022027062 
0.000793422499643267 
-0.001504054753687729 
0.0008143469918794259 
-0.001454409633887733 
0.01728306411698859 
0.001510683254993746 
0.001573304391547554 
0.003639622907328131 
-0.01779576721163415 
-0.0003308458962710638 
0.00197616960168205 
-0.002501528927280906 
-0.005626933438755376 
0.01354114066649898 
0.001522923652385837 
0.0007328029517927265 
0.0003888612407634188 
-0.003080855195865408 
-0.0005807875635226217 
-0.001576686041823171 
0.02053102196390528 
0.0009325987448880682 
0.0007718223581408323 
0.0003700261365990951 
-0.01272702433342273 
-0.003155552599243979 
0.0003539338084551006 
-0.0004446046534533181 
-0.003512463075157083 
0.009483964105065598 
0.007038304075423088 
-0.002608459955479367 
0.001396019148594391 
0.001173575273335012 
0.0008543377478895576 
4.533282897584967e-06 
0.01235399435424236 
-0.003127117651881115 
-0.001801161209443671 
-0.0005103005554058346 
-0.01404317865749073 
-0.003164951678149344 
0.003817898724848053 
0.005492263152994315 
0.001911379984730751 
0.00299505361571489 
-0.002874865156468766 
0.001062417935204456 
0.004035494362739528 
0.0005616768850066501 
0.00343044725711935 
0.0009096678334726769 
0.01669354306887281 
0.0009682533934188046 
0.0005961463391307705 
0.002616346580731456 
-0.01905075737707739 
-0.00283329719567199 
0.007924919942552174 
0.0002468225134091961 
-0.001294605854195722 
0.002865803819721769 
-0.001039669253981516 
5.573583589274006e-05 
0.004592676440018167 
-0.002131318231753065 
0.003528264705581834 
0.002032677389731347 
0.01404077653208943 
0.002956374400125518 
0.006163900172643432 
0.002100432808875692 
-0.01653367854517328 
-0.00465931730640414 
0.007686932101327244 
-0.0008274399607501423 
0.0001570705572179632 
0.01618746453760466 
-0.0007191001266091175 
-0.003152543876399191 
0.001811368849385675 
0.0006970540341781102 
0.002817083565118752 
0.005623239329122205 
0.007160422068182132 
0.005850952415245469 
0.004377365796799339 
0.003690644597661189 
-0.02062583145805555 
-0.0002288554310604499 
0.01111311798802796 
0.003745866286545527 
0.007267208559468129 
0.01319826502031143 
-0.001641453080955614 
0.003968519346857373 
-0.001034751533896435 
-0.002157731643215464 
0.003598519961098637 
0.006753972894174923 
0.004934793724014177 
0.00889457139245931 
0.005153287157003816 
0.007276320593030841 
-0.01928845965573366 
-0.0008339802746963245 
0.009211166103076712 
0.001063510751764953 
0.005716074122266526 
0.01027084130613006 
0.0007586529579237746 
0.01061841091120426 
-0.001106822357886365 
0.0004801665207553328 
0.002662470564080339 
0.001592922328503942 
0.008441568522151079 
0.005981383587007115 
0.006936777603912756 
0.004405008803610629 
-0.013661147089478 
-0.005015793016867919 
0.01143179946302799 
0.002844144670952144 
0.00244998232759192 
0.00397263770023101 
0.003559429076339412 
0.008834721031448932 
-0.0006788238567346653 
-0.00317809226464832 
-0.001838390161322915 
-0.001211664051635815 
0.01481953117186034 
0.003912390453669951 
0.009533962967917354 
0.006940701570145037 
-0.004029288263886188 
-0.007526680203593582 
0.008613342815908863 
0.003343689129736235 
0.002063649034348425 
0.01437311100122136 
0.002326130764414683 
0.005512157299827419 
-1.633715483708088e-05 
-0.01127236968577694 
-0.002965891223430652 
-0.0002778445496215883 
0.01739207767571584 
0.01017375865595159 
0.003833060140169755 
0.008462999396233401 
-0.006453730923792724 
-0.005381364252116363 
0.006122334550340276 
0.001419257016695827 
-0.001975224114658984 
0.01298488651578011 
0.001765960400251138 
0.003074940523550626 
0.003140047942924136 
-0.005359308989243715 
-0.0001826693073496889 
0.006780083870998178 
0.005272560407733326 
0.005811100379765921 
0.002652447318385407 
0.006542141889273502 
-0.002829351286965237 
-0.002775202639261818 
0.004585891974441763 
0.002056297174965646 
-0.0002265991960350152 
0.0122177485173877 
-0.002815758019502331 
0.004798740697127039 
0.008912278296780008 
-0.002728798845825388 
0.0001369543388705719 
0.005983611857302466 
0.008468682265803801 
0.001510848371097874 
0.004372653197018002 
0.0004210935973793655 
0.004197956191990461 
-0.009179708268303161 
0.007040648108060842 
0.003486861166035041 
-0.004961387149595997 
0.002678143172106667 
0.003254488436447535 
0.01137481199903518 
0.01155729533457622 
0.0009286253724290356 
-0.002398154671315568 
0.008705029759592618 
0.004093631890567232 
-0.002356196866935728 
0.003570997333874945 
-0.003005265588775144 
0.00424757970929879 
-0.01165256915391899 
0.002132026337504175 
0.006186978413902361 
-0.002037716513360393 
0.001333605349562543 
0.004551527204654378 
0.01247426808491489 
0.006217755676921678 
0.003976725200799494 
0.0009103632481989274 
0.008803109238555842 
0.006944982095189896 
-0.006284107400967297 
0.005115823314335008 
0.001632168209191171 
-0.0106201640124522 
-0.006303077493543874 
0.008178472471155903 
0.003962333687762668 
-0.0001655083183178319 
0.006627206946258873 
0.0009244735924019146 
0.01297335513269865 
0.004270073312169133 
0.003342331492165684 
0.001283134923337984 
0.006930626130025448 
0.005007671671861975 
0.0007643210565837916 
0.00473602850351275 
0.005919016427370151 
-0.01598199392272866 
-0.001320161016160373 
0.004131374019461546 
0.007298818035859056 
0.002841436675597562 
0.01327709904381864 
0.001833139474783467 
0.01061621394213868 
0.005019190999693153 
-0.004795093571273154 
-0.002143351410225545 
0.0045696896553098 
0.003542865555703058 
0.005387869947881498 
0.007784863371076017 
0.005396637458746505 
-0.01531400346306376 
0.004147383093063966 
0.009696036174798696 
0.005817279133992359 
0.00624758643272372 
0.01116786103214003 
0.006493075085579289 
0.01093082099821279 
0.0004857788225574363 
-0.006554331146575202 
0.0006741017078552631 
0.003643201943592938 
0.003663595298255287 
0.005781447621352755 
0.003918574125158755 
0.00244023093802703 
-0.01278292127250178 
0.005313386375877063 
0.01364437289308163 
0.006085179529558976 
0.004955332346620158 
0.009212239154126079 
0.002877064008290652 
0.007927401998804139 
0.001414033942327878 
-0.003064842877739847 
0.00422509251138722 
0.006736092553754552 
0.001756212775233844 
0.004475896898997481 
0.007393371196932389 
-0.0009425217411519165 
-0.001660338815655771 
0.002255711034568684 
0.01441219090397674 
0.003946159586375235 
0.001875062919493813 
0.01439500501372014 
0.001208953716370947 
0.003322707922701632 
-0.002537873955224162 
-0.007573056083403997 
0.006672622445415652 
0.006780386331904347 
0.0001606200023627693 
0.006581559527553717 
0.004862280449669759 
-0.0003963827397046652 
-0.006094488274718118 
0.005204792329667563 
0.01574645197968452 
0.004226030006715232 
0.003285131456220012 
0.005295568343508714 
0.001546582430825384 
0.002248445893698047 
-0.001517912789060927 
-0.004842293566541132 
0.004596665498590224 
0.009142901759509508 
0.00171940116292223 
0.002368635433259446 
0.005795857442645576 
-0.005547337576799804 
0.0007875863904253656 
0.002090437883732206 
0.01328506315966303 
0.005472480732315643 
0.005473653105120778 
0.01131113050302144 
-0.001850485270350701 
0.003236343940226957 
-0.005471170308902338 
-0.001398027571475752 
0.001846540414385086 
0.01087292231152421 
-0.003442631199980022 
-0.004236688264176749 
0.00953319884997387 
5.11523108019814e-05 
0.01015554725351954 
-0.003209283027235763 
0.01028057905721951 
0.002045289908131346 
0.002244379369972383 
0.01352557059466223 
0.002173169912772241 
0.0003223568141081987 
-0.001956051784716713 
-0.000386718592664539 
0.001037904081413965 
0.005358231176146141 
0.002768791296785232 
-0.00201975896644152 
0.01341963922698206 
0.0004443637475198873 
0.002780138415483247 
0.001884999202955938 
0.00476055773095012 
0.001423395642928972 
0.001920486246172825 
0.01736354795303821 
0.002649187871354881 
-0.0009156684992018731 
-0.002317661599554972 
-0.005563452398235363 
-0.002707702181918921 
0.004825207850962413 
0.002848847419777749 
0.001845380128608626 
0.007887421451003265 
0.002719223344082904 
0.0004951721678453558 
0.003757676750930069 
0.008068608325514896 
0.004181384681243895 
0.006446029625497245 
0.007124621570442208 
0.001471827475386988 
0.001975162892221871 
-0.001206281983313091 
-0.006749109249655899 
0.0004187743754858398 
-0.0008843607097551493 
0.00918725827873732 
0.003173202018944378 
0.005602267225978323 
0.003705457232216666 
0.001390103277739954 
0.004082255611477873 
0.005747482957088668 
0.004924740689323489 
0.0109514934092742 
0.01053714782846899 
-0.003443317319432512 
-0.0007242374870250623 
-0.00176115748838977 
-0.009009357685387381 
0.001881083896897528 
0.0008666211425502432 
0.01144241017217823 
0.001757699666289052 
0.006825954228701117 
0.002211627528991988 
-0.007151316105931436 
0.01039858531981656 
0.006408633216036863 
0.00474337653586774 
0.01193416722462302 
0.002453633865185392 
-0.003070361438984582 
0.002141844158475113 
-0.00252732127581183 
-0.004000846257511387 
0.004637233683975108 
0.004810324527125763 
0.008807572995580515 
0.002972487224624861 
0.003587319822213892 
-0.002399227883877557 
-0.003055861172348461 
0.007340243409192246 
0.00629902570831175 
0.003298976320991457 
0.006143482429918392 
0.009495168901218289 
-0.001972552748699241 
-0.003219721464745906 
-0.002387538124911872 
-0.001221749893357904 
0.002459874656986845 
0.0008930320945472667 
0.0002451428553939435 
-0.003748069501084815 
-0.003760644648227242 
0.0007145552682675063 
-0.002950040105691117 
0.004493025344529646 
0.004774868335470321 
0.0003213500791341209 
-0.002458301403448816 
-7.818885686979523e-05 
0.003685557344666306 
-0.0008051762362937796 
0.001979839977941468 
-0.004416807781901949 
-0.006665143482397117 
-0.002499013707767608 
0.002059363704974801 
0.005661160276186944 
-0.002603678942660767 
-0.003638350281800929 
-0.004075177252193187 
0.005947683487753167 
0.003252171206938685 
-0.0009903445628178143 
-0.002668379975074484 
-0.002540351658736008 
0.001572936396362726 
0.0001469878276760183 
-0.001974724178390644 
-0.002143815481429385 
-0.003809626839331917 
-0.007024594588158912 
0.006184871581454879 
0.01134851102579678 
-0.002337774942889892 
-0.002535272050106663 
-0.01223799593952095 
0.008081060963143746 
0.003924921410569335 
-0.002935638412446857 
-0.003861483011134209 
0.004444157737673641 
0.002022214038999295 
0.001488239528151419 
0.000220828674352514 
-0.009672307884752193 
-0.007882862417495464 
-0.004792391574421793 
0.01110750155584814 
0.01131627613635569 
-0.008155108032905489 
-0.0009597741528537664 
-0.007011172571263496 
0.00387116405080314 
0.004166833562717473 
0.001032690885132043 
-0.003875562956559595 
0.001069265690511935 
0.00347567429102244 
0.006345293443532695 
-0.001666916188216004 
-0.002687586067740371 
-0.006097229219609947 
-0.00633182605997902 
0.007779356030890376 
0.007384855766391792 
0.001595804684138154 
0.002318688888852261 
-0.0120327380024041 
-0.002040235823246576 
0.003727957435055554 
-0.001143242221268262 
-0.000996461213185827 
0.005768600737965647 
0.001863164739321426 
0.004503397897836384 
-0.004340741225601131 
-0.0009138539956142829 
-0.005501829079293566 
-0.003662061255628955 
0.01241248579301406 
0.007912522277088841 
0.001090727281283794 
-0.001933827203352124 
-0.01126181497770124 
-0.003662129981147518 
0.008079779025504977 
0.001588272416291359 
0.0006103452302400466 
0.005797481120234163 
0.00184905067672476 
-0.002409510270823315 
0.0013053045917284 
-0.003917682819722449 
-0.001737313829016076 
-0.003712261093280781 
0.01376714922980494 
0.004313726596009183 
0.003531423380194622 
0.004398098376211924 
-0.01368045786588903 
-0.003452067689187247 
0.004267755428708963 
-0.0003440247588144779 
-0.002456023694485695 
0.008779740100530448 
0.0003082672574905457 
0.001857368298381688 
0.003688864149497137 
-0.007613083255535657 
-0.002100859355988744 
-0.003129594060085469 
0.01261713099223995 
0.0007627779937236331 
0.003166152996610955 
0.001928751708472517 
-0.01418635380480187 
-0.002172510865164153 
0.002487493677615037 
0.002098945385591762 
-0.002099708941313832 
0.004980295050823695 
0.00540158732062512 
-0.0005987413253406501 
0.0005657033647763775 
-0.0004948235051314539 
0.0005876648781472441 
0.001208422782165591 
0.01203489946088224 
-0.003503811735373008 
0.002467599083673637 
0.004000352178567618 
-0.01013924278534649 
-0.003461244235887681 
0.008614730613878987 
0.004237626885787533 
-0.003600121766963164 
-0.0004483045638645329 
-0.0009188290323994714 
-0.001033242715302482 
0.0006880553398326475 
0.002163276590138129 
0.002996188004000138 
0.003227673212003569 
0.00803836052232885 
-0.0007105263140076072 
0.006459859967674109 
0.003191730844901991 
-0.005675554984383219 
-0.003057116235153252 
0.008672709347395472 
0.002722894735791816 
-0.006100234890254672 
-0.004311123820410047 
-0.003733603012356943 
-0.001784931226711342 
0.001793108285608795 
-0.003961670274254619 
0.004391560547352881 
0.005775484995718729 
0.008373261752030844 
0.004404653393992434 
0.005573510725195896 
0.00102034229874993 
-0.00180153868732606 
-0.004435128007181936 
0.008384690782846297 
-0.0008362215597535193 
0.0009014960375795651 
0.004119553483687433 
-0.005014367522379434 
-0.000727071485985586 
-0.003169317203245931 
0.0004604564816999751 
0.0007108710094682384 
0.00465661433305724 
0.002797153491851417 
0.002826690532267548 
0.003588430468007899 
0.003820924098270863 
-0.006600958352435011 
0.001013666862135723 
0.008308278028686986 
0.001836865813763129 
0.00300195773036395 
0.001200198096048135 
-0.0006824214036495294 
-0.0003401761220066977 
-0.0003534151556085438 
0.0001733947210025187 
0.003849835477474782 
0.00105156170097945 
0.004417559608735357 
0.005869300225116684 
0.003953468088165405 
0.006755151748850471 
-0.008794967486556941 
0.001887108334457529 
0.008606767306210888 
-0.0007615917070619932 
0.003274950894156018 
0.0003364978227931132 
0.0001319358987096484 
0.002314155048519605 
0.003161280841282473 
-0.008652308389605443 
0.004221020489376504 
0.003630714936747426 
0.005419181302687137 
0.000285380518057256 
0.008954946390001075 
0.0005436076229752433 
-0.003179548246556735 
-0.000819305451790431 
0.008114996982249127 
-0.0008430617281587498 
0.002835216678765155 
-0.004428599836868195 
-0.005399099391344095 
0.007289612893193156 
6.414075514242802e-05 
-0.00643927146287292 
0.004549975701181025 
0.005471852654937128 
0.01340787681987209 
0.0001493413616307946 
0.006340026434781846 
0.004840289282376501 
-0.002630312963969195 
0.002965215383427874 
0.006390595478977508 
-0.002489807514259494 
0.002662966576457299 
0.00608270929803858 
0.0004467100811432603 
0.006497673711665617 
-0.005132049635254209 
-0.007217386720191898 
0.004282265755980785 
0.001527458724414878 
0.00749858393841701 
0.002114356140462448 
0.002803024971502114 
0.006530948807087176 
-0.005920341903746403 
0.003135964700299427 
0.00501058247932218 
0.002209690398338072 
-0.000343019136567396 
0.01055056418592282 
0.002191474657251719 
0.008726859224324623 
-0.004939726103588646 
0.0001137707916276002 
0.00282683936816366 
-0.001456438629069479 
0.0004233262421403663 
0.004866266692961276 
-0.002595936826182399 
0.00199962815126992 
1.566163319011263e-05 
-0.001091949453493518 
0.003833399077073976 
0.001253569123015546 
-0.0003317394833383765 
0.01242281947474951 
0.004380214583553213 
0.006863174875459482 
-0.0009526813989864291 
0.002997914722083779 
-0.001811071446376299 
0.001759189142875614 
0.002293809916623481 
-0.001445270987017279 
-0.001647181287125323 
-0.0006789687065045132 
0.004235220233558151 
-0.001070510991783173 
0.006417314130852675 
-0.000966097321051493 
-0.0004210465433735574 
0.007882814787012707 
0.001340375398707148 
0.007557444910707013 
0.00573396230141295 
0.007203709112392823 
-0.002678919898743318 
-0.0006125871430958202 
0.004105143371321483 
-0.006440445657396724 
0.002658017389880904 
-0.003416679582721757 
0.005277931755449666 
-0.001875927392435556 
0.002552244008751546 
0.002685334588178966 
0.0002136985495504841 
0.002563536687889242 
0.005440407874984936 
0.006509008848227806 
0.000657738347722569 
0.006846701718012849 
0.002676655525202093 
0.009168680423050012 
0.004158732416975354 
-0.006020998170896993 
0.005816382800689011 
0.001337918545410149 
-0.001047916002983389 
-0.001255602908134062 
0.002690447249444419 
0.003348123604005167 
-0.001247030380046719 
0.002447233233217475 
0.001322237221314456 
0.009624292136174431 
0.001195962824135391 
0.0008153737682308953 
0.0025493026931713 
0.008561467297135082 
0.002099397105702696 
-0.001603706545824871 
0.001033313139261391 
0.002943712010989182 
-0.00570568070883527 
-0.000582142622904242 
-0.001747607672443255 
0.004526052516773766 
-0.005330339538392123 
0.005310331188333905 
0.002517953813167227 
0.007840194572619768 
0.003385047591227257 
0.0010057758279247 
-0.0003105566770217859 
0.005329523935863996 
0.008968853055606111 
0.0007886213127049633 
0.003899821036166482 
0.006267492540608317 
-0.01162520055445076 
0.00768405597451105 
0.003627490968593524 
0.0006877283182604221 
-0.001273311663925437 
0.009302160462921259 
0.01004479983870282 
0.007314428088481613 
-0.002209456703817505 
-0.003094263568744797 
0.004092483329571479 
0.003808648292857377 
0.002982393275338908 
0.001956164262617761 
0.0004935689023674242 
0.006222605262704213 
-0.01262669076116017 
0.004359223870878319 
0.009814452249231003 
0.0008047719320047256 
-0.001557271529024537 
0.006608631940184254 
0.007004083537892101 
0.01035416167217298 
-0.004477299552305071 
0.001529497478003348 
0.007777648895761331 
0.003885812988248686 
0.0007270359781736778 
0.001569920888039283 
0.002970134302683686 
-0.003558579936508486 
-0.006347310027167747 
0.007197587457957485 
0.009930142064250285 
0.001995170163865254 
0.001445395269709873 
0.009553207633110584 
0.003139029395726338 
0.0007855630523013738 
-0.003776917964641645 
0.001144541940718356 
0.006310321969353181 
0.00244185347516756 
0.004912764224872442 
0.003392781834605523 
-0.0007487576353147217 
-0.007330496729919376 
-0.008768521749940911 
0.01199549523058868 
0.008449576225107397 
0.001383741563977031 
-0.001852069747123464 
0.009584925291831149 
-0.003100074853131576 
0.003160788551348622 
-0.002804673192646178 
-0.002144207502072887 
0.009925728951073454 
0.006264121168327043 
0.006865715518223149 
0.002092845826647188 
0.00482243211248217 
-0.01149214291019659 
0.001345089475057135 
0.006284033577502545 
0.008361040468704378 
0.0005848357440139627 
0.001201728176602895 
0.01092144167918635 
-0.001116693580341736 
0.002503704917299691 
-0.003322576635163647 
-0.004492612570916566 
0.00567382839045205 
0.00752612891553811 
0.004992961738763353 
0.001008907385574608 
0.008270089802617604 
-0.003278431697228924 
0.008253920736208694 
-0.003595560214154589 
0.009288394302386106 
0.00354667830875528 
-2.142687311421889e-05 
0.0110274967124734 
0.001488157731897839 
0.002161887545042551 
-0.006394732236958102 
-0.001114931195244749 
0.002491141623818659 
0.004674052692843583 
0.002860042735865188 
0.001573909996304702 
0.006294160407346369 
0.0005391955742440687 
0.006403705990744487 
-0.003019869284748933 
0.009706289666083195 
0.001567153064655274 
-0.0006341920997893196 
0.01212691551774209 
0.004046454381579778 
0.00312262395484922 
-0.007315445735130476 
-0.001582025878948169 
0.0009706737867886181 
0.006994193757798515 
0.00415974555180721 
0.004537364121544808 
0.004124954863960106 
0.002635052925493092 
0.009301484562218824 
-0.003030034421863787 
0.006106588550649653 
0.003711353467815488 
0.00227210472439675 
0.0109375784074505 
0.00226358237987153 
0.00156721549324733 
-0.003162168618615335 
0.0009107651260458088 
-0.002155253892615695 
-0.0008741516583406023 
0.005956111007649496 
0.004005474763245518 
0.003565993273565523 
0.001514948903435079 
0.001742115946983869 
0.002640420825713068 
0.005314245221515382 
0.002809548222645763 
0.008123581707433667 
0.008702229267686011 
-0.00172260303429409 
-0.002413832190238428 
-0.003062415250276447 
0.002308554759591456 
-0.002293710375471679 
0.006874380705276152 
0.008358999898884336 
0.002581989232764053 
0.003041927803462018 
-0.0003807187501022804 
-0.006967337927149063 
0.01133310118449312 
0.009783320447513113 
0.004285903112755459 
0.007359244946256817 
0.002542273790191828 
-0.002824932473892752 
0.001531341187355408 
-0.004370366113465611 
0.00257758394130231 
0.002808901834247555 
0.00934116308625875 
0.005919653801062464 
0.002866056786265872 
-0.0008952773993261972 
-0.006840186177015088 
0.000672586546583305 
0.002231924739995609 
0.008687697139934834 
0.003134656260320659 
0.007171691726062556 
0.007780320412626965 
-0.002901738826259805 
0.001021606154921026 
-0.00496559374029636 
0.002911492729353579 
-0.001831025782013751 
0.004809227023134322 
0.002534875134080098 
-0.003009771284542571 
7.34074188779821e-05 
0.002194483889862021 
-0.00711659197792074 
0.002261405016365613 
0.0009506526866857869 
0.0004953443129738969 
-0.00138979428787583 
-0.005157071421330014 
0.005103729822868602 
0.0002621708770562989 
0.004855269195379726 
-0.005144102492305997 
-0.001122174423301788 
-0.0063453356613874 
-0.0002307561152912122 
0.005920607666141821 
0.000129124866689814 
-0.002621581377117876 
-0.004315024373095483 
0.005083568445901961 
0.004156821926021144 
-0.001167711402094538 
-0.001125608754339946 
-0.01204682078112591 
0.00183284726565021 
0.004342245182666678 
0.002326685620417763 
-0.003088282640304365 
-0.004805235297694553 
-0.009049917339248651 
0.004916433184592578 
0.01345723172283654 
-0.00535281743851634 
-0.002965697094153933 
-0.005179528976228271 
0.004038188668129654 
0.002062741563654236 
0.0004629579966304762 
-0.00445428714601266 
-0.000577879711299295 
-0.004172757848825625 
0.008427482185238243 
0.004160905437978717 
-0.00665814499310358 
-0.001649750961599163 
-0.006208482668423318 
0.004322208865759005 
0.01285696522051178 
-0.004616692634157563 
9.264833738406598e-05 
0.003257401657229679 
0.00127789770035901 
0.005343968905408775 
0.0005677764496009625 
-0.004791238791761946 
-0.0003524590685504966 
-0.004837324654352098 
0.006026856256426884 
0.003218520858219789 
-0.001602442077831744 
-0.003408263901752597 
-0.005873498824400528 
0.004330616932344223 
0.0072435109833484 
0.001793565738581026 
0.001658971438044521 
-0.001577787916513513 
0.00228044975555429 
0.006577553085355061 
-0.002554196371228436 
-0.006591677401897572 
0.004156886497897928 
-0.003474874729131964 
0.006621385817075078 
-0.0001272309200339894 
-0.01269677245827841 
-0.001957312880484391 
-0.005019770322757302 
0.00943028464085789 
0.006027620510106038 
-0.001648955706364083 
-0.0002946801433011696 
-0.0009443573558499247 
0.001016914137920127 
0.005676287126995864 
0.001184007113367862 
-0.00100985240102386 
0.003030544694110208 
-0.002895722344113663 
0.0004351769865870406 
0.0005423290407133031 
-0.01010192122004049 
-0.002364211588582393 
0.0008917100151039107 
0.01183800922216879 
0.002955690788293962 
0.001424635135968015 
0.001718809756887618 
-0.0006050307996732244 
-0.004455803550349563 
0.007704262283462743 
0.005781910939141625 
-0.001727344584827689 
0.003320469697705487 
-0.002490422264939836 
0.003178512176023872 
-0.001452718195570208 
-0.01033664010197891 
-0.003488402570508546 
-0.001313375876843509 
0.007873248463308866 
0.001291983122690422 
0.007616713372981687 
0.001886068631106384 
-0.005021155457649927 
-0.001284862517312847 
0.009054479094192545 
0.005497142895814286 
-0.004775432752239754 
0.004958538785024569 
-0.002853027652098942 
0.004468930367312101 
-0.005967890026281485 
-0.006246882243030208 
0.0002651724642255647 
0.003186424816101343 
0.001342252072714587 
-0.003032316766665143 
0.004192862925401749 
0.002573345022816399 
-0.0016224508998072 
-0.002229706654215672 
0.01090317308364363 
0.006823575837924 
-0.003413214031327269 
-0.001312908887511192 
-0.001389532852951124 
0.0004318205820245416 
-0.00405658927898627 
0.001515027541501815 
0.0003976157159358154 
0.00461793328499459 
0.005981485725051064 
-0.002715206598097169 
0.004301476326635741 
0.003585808368007957 
-0.002595489982684471 
-0.0001602174973749989 
0.003451418359147339 
0.005872697939376024 
-0.0007985199411416066 
-0.0015614053403808 
-0.004585191857717107 
-0.001993423202876928 
0.004794800481114919 
-0.0007974836753054981 
0.006281030153568634 
0.003057670187236271 
0.01041236978183903 
-0.003957110549681635 
0.004626968502260699 
-0.000477223781730263 
0.003871260506484357 
0.001003169097374667 
0.01394769061444145 
-0.00309025665619587 
-0.0009112708206302061 
-0.001177360611561507 
-0.002157776879396188 
0.00223355662830876 
0.001086303290831568 
-0.002610888026809728 
0.005347222693037192 
-0.001417066542201659 
0.005699170335951524 
6.534009419315476e-05 
0.0009365607235751474 
-0.0005549806217183864 
0.004300418472347732 
0.002662460030512763 
0.008676887204754067 
-0.0003621214444110924 
0.0006343563750212222 
0.001818157282810624 
-0.0005338060511232547 
-0.000469117251889996 
0.006173054505605429 
-0.003122179684590057 
0.004150133510366979 
-0.001057649130528612 
0.001786491168900065 
0.004052114609734373 
8.201943848189123e-05 
-0.0002759347976612429 
0.001758445753691587 
0.001993838585764295 
0.004334131100818031 
-9.959802387118068e-05 
0.001247187297777884 
0.0007153824690534061 
0.001468069480774256 
0.003068581266409435 
0.003810630873509636 
-0.008260454611402734 
0.003952188823878155 
0.005606533772462373 
0.00519867607824281 
2.906739906040594e-05 
0.005835231118045262 
0.0004048182761451731 
-0.0008400342648207055 
0.003559908323318976 
-0.00158595196745738 
-0.002713294906147297 
-0.003360671582602367 
-0.00168409847276953 
-0.002454405401748645 
0.008658645113325744 
0.003491531276716588 
-0.01317039520110127 
0.004654808512096016 
0.0120029830227724 
0.008856014393851287 
0.001138839435203916 
0.00792962256934469 
-0.002296776495081465 
0.001836307591181117 
0.005674626327318574 
0.001893854107179723 
-0.009606023003848203 
-0.004378393257801011 
0.001010581336528151 
0.0008701426999399482 
0.01205868035921519 
0.003299774768564781 
-0.006281041286550556 
0.004643456502652268 
0.004675617135092044 
0.001950323865020975 
0.001188024460957422 
0.001389649919809781 
-0.004610510073308983 
0.005135864496602983 
-0.0008923324399637814 
0.005089814653319416 
0.00210495129314483 
-0.0004098081816512268 
0.003393820303452934 
0.0003935139689319303 
0.00796663211840028 
0.0005971536574094084 
-0.004262668721520961 
0.004729405041859304 
-0.005284068190660101 
0.007790641358315351 
0.002929412902380056 
-0.002692008015130771 
-0.007678202043368992 
0.004490992241655316 
-0.001055876992636353 
0.003972981501007308 
1.213165007885844e-05 
-0.002404684246713882 
0.006227953320896271 
-0.001515072604739683 
0.008111820476064145 
0.002857455301846876 
-0.001931939593916564 
-0.001685884830792726 
0.001643395447084092 
0.003892519179537307 
-0.004094021181029529 
-0.003432212401099937 
0.001620218782354854 
0.003047547563152529 
-0.003639683281858916 
0.003950988622433304 
-0.00109627767182237 
-0.00120552770456841 
0.003480788677165447 
-0.002514975846280981 
0.008180025382973801 
0.008508489591408246 
-6.720422040648251e-05 
-0.0006761037488883497 
0.002946591280465786 
0.006194926644362642 
-0.003010675263086752 
0.0009452758019618825 
0.00123014789933522 
0.00106732475981476 
-0.001119056099721784 
0.003479102320033474 
-0.002109012099918257 
-0.002964573400409111 
0.002592221485921337 
0.002457933794046139 
0.004405178632834575 
0.006371879950266873 
0.001602666701929277 
-0.000374052477805795 
0.008316357280608179 
0.0006266498146966628 
-0.006874206532315966 
0.005316032091935181 
-0.0005585685240458487 
0.002276827919412496 
0.0009676871073842157 
0.003427294900042504 
0.001983809480976578 
-0.00342129018132886 
0.0005106257928333014 
0.002479895982695272 
0.006631609180284712 
0.00459381543536033 
-0.002125500578704418 
-0.001120442247894406 
0.009272394514275336 
0.004253488648672596 
-0.001640889701893865 
0.001187016978453702 
-0.003441279400936964 
0.003117355853122553 
0.002216996881490562 
0.004519310797690552 
0.002036223329751927 
-0.008736242767201514 
-0.001205974520082368 
0.001730867547441937 
0.008884626184260011 
0.0105169014393002 
-0.004893556260745334 
0.001253216084584614 
0.006935600046215257 
0.00597762996801863 
-0.003469319206172591 
0.001549393916574392 
0.001274106085536322 
0.003790208094699461 
0.001269021751231323 
0.003108291016028749 
-0.001976162156133198 
-0.002529710798215265 
0.005511481474713661 
0.006457492257556168 
0.01055508059093723 
0.006603077410886847 
-0.0008675326399996344 
0.0001160014880597265 
0.00166226072276282 
0.00193093199271378 
-0.002258889444436256 
0.0006986622513515428 
0.001561383108361461 
-0.0006913779849372813 
0.003087162211784615 
0.005684141641830422 
-0.001711490417660172 
-0.001807183360539415 
0.00688125111596993 
0.005189681527237948 
0.01098746803017014 
0.0006331996082812739 
0.002408730850419242 
-0.001983753719453263 
0.004078838836965426 
0.001538929701535694 
-0.002042423955902456 
-0.003436330268219953 
-0.006461485636024731 
0.003739707369717843 
0.00166539930496713 
0.004705835549700953 
0.00189675334361409 
-0.0003390174022811502 
0.003887089210721098 
0.0005397690929838471 
0.00504155429544459 
0.002042421934772509 
-0.0008177037269292885 
0.0003192367740918871 
0.004800237538676174 
0.007403962864260278 
0.0003386518399792839 
-0.008263786889822182 
-0.007006294911546475 
0.009819047054916381 
-0.0006152091717090641 
0.001450706644113224 
0.001100759204522739 
-0.006949264951714439 
0.007214082832094358 
-0.005646104369426487 
0.005573349864050578 
0.00192753980184781 
0.001594626549302773 
0.006491384262473344 
0.002494121976605822 
0.009477166925694129 
0.004643816600696404 
0.0007276766960055409 
-0.003792667826864701 
0.007773339304374263 
-0.002752237434467322 
0.00353612843821402 
0.0007555184107996613 
-0.005784448424118569 
0.006987186421195685 
-0.002303928987910665 
-0.004101633611281898 
0.007915842242305442 
7.467632606363241e-05 
0.006833920245390287 
0.005666532825848157 
0.007369693906521782 
0.004912766511078036 
0.004295739168051122 
-0.003220077959890906 
0.005523877688693916 
0.003003880028008298 
0.00659912164258755 
0.002656750890731494 
-0.003854621310345288 
0.009600224782625734 
-0.0001028285760355142 
0.0007604683736853389 
0.001468728162569709 
-0.001492213437041531 
0.0003598263717494592 
0.005754807223989707 
0.002143598467676032 
0.0013233546772276 
0.001262037246513153 
0.001527872928561024 
0.006678777879051638 
0.0004735024999454523 
0.008782431849913383 
0.002033987067469907 
-0.00481725511661007 
0.01406086106087775 
-0.001430113583049841 
0.005171965633414211 
0.003055423052900755 
0.002516958582082067 
-0.002749782686787403 
0.008870783337066918 
0.00266495942648064 
0.0008585658228574811 
0.008054996334053261 
0.003685863440333017 
-0.0001279105910333592 
0.0003486892564836222 
0.005737344117957763 
0.003552755615963661 
-0.003253525097837761 
0.01210059770151275 
-0.000683633068492774 
0.003893100834002336 
0.004942654226704648 
0.004644864609170048 
-0.01129178685077621 
0.006306874979061763 
0.008520768325581149 
-8.909964546031667e-05 
0.008757050049966518 
-0.0002570561247904139 
0.002145323667142932 
-0.001107613020843558 
0.006594125561266886 
0.007160639339940079 
-0.001809817787459326 
0.01112915845100427 
-0.00214925535528234 
0.005445754985091612 
-0.0004914122500283686 
0.005241371226028358 
-0.008420894135406152 
0.01092563173399237 
0.00572067736170711 
-0.0022050429677201 
0.004950824283046306 
-0.002432829469101414 
-0.003695109013140196 
9.664924037243677e-05 
0.006570703572829018 
0.003406096219915509 
-0.001495421711087558 
0.007887269439247653 
0.00482909758079211 
0.006316250317980432 
0.001632253049397909 
0.007443143305497459 
-0.003863375858360989 
0.002839148069731689 
0.006518764700537556 
-0.003875194934756369 
0.0007784099999766045 
-0.002429749592605908 
-0.002693135141972953 
0.000578865891916046 
0.00751009010970558 
0.001962513695296675 
0.002737946900927646 
0.004061319871915887 
-0.002241280214959053 
0.006417314045240109 
0.004949370631325042 
0.007707439767101882 
-0.006785722524548347 
0.001255351465891844 
0.00212492899392828 
0.000746376986134931 
0.001745253994240644 
0.006304732566068959 
-0.0079335918467636 
0.003871403164605486 
-0.0002538990542996305 
0.0007984583878797843 
-0.00197018090070041 
0.0005961737210744181 
0.0003495688856014869 
-0.002470848412122442 
0.002273886119745386 
-0.002289742648442073 
-0.002750933703032089 
-0.006852029159802688 
-0.004016062552416159 
0.005911960353783443 
-0.0002246275776949695 
0.004097528331694979 
-0.005006458131945586 
-0.0003451652803944359 
0.0022414661018009 
-0.0002400812903065437 
-0.002596780678734945 
-0.002445564488669057 
-0.004839915334176953 
-0.00274773649036589 
0.003509915158741887 
0.0007867009655597894 
-0.005521871468061367 
-0.00696711124882751 
0.002931378497894297 
0.003690943105221721 
-0.004277454280997355 
0.0001805233763450279 
-0.002250591558573821 
-0.002316235106902248 
-0.003047653932576855 
-0.0009473031518452343 
-0.005125560954843333 
0.001442546705023166 
-0.01166214166605076 
0.003345349983823889 
0.005425145250096521 
-0.0008393637679147804 
-0.0005211144869121077 
-0.003857972877805972 
0.009378774492300193 
0.003022927081898593 
-0.001795214482730917 
0.0005822886031378076 
-0.001334671602481092 
-0.0004049115549579763 
1.124585453673917e-05 
-0.00293367243803567 
-0.004284120634097203 
0.007417211168333048 
-0.01257739946491669 
0.003235970986138196 
0.002235239694761649 
0.00167393891688575 
-0.002399683537615486 
-0.0007165366660767739 
0.006562065093062313 
0.006318465337360302 
0.00144121939872606 
0.002055510452336545 
-0.00437289843447564 
0.001170557750908154 
0.002300759791651571 
-0.001726824144464886 
-0.007824310198990745 
0.004827729662028155 
-0.007248999862533658 
-0.001179960644471801 
0.00148087993683858 
-0.007102741067191265 
-0.0004119009318469843 
-0.001063894454231757 
0.005020512904686742 
-0.002621637479075448 
-0.0005274188787356538 
-0.00209861357701489 
-0.002350774528949125 
0.004068972234755691 
-0.004100926286685931 
0.001752610313909141 
-0.0005905680396516563 
0.006314371595335072 
-0.0004528342952100208 
-0.0004671765320217969 
0.0001526704869828013 
-0.006864947319421473 
-0.0004653924289711316 
-0.0004974280130681675 
0.009928898183944466 
-0.001212196470130028 
0.00226648259324075 
0.0006449337205175335 
-0.008166918482930873 
0.001099945461014649 
0.004468652320049725 
0.004150815851401662 
-0.0005752186181650287 
0.005861299824463703 
-0.003608791191136083 
-0.001296218016547848 
0.0004773424894140025 
-0.006400231760355547 
-0.002006524072764485 
-0.0001522359618056945 
0.007449044206343754 
0.001369737847557205 
0.006101370334622025 
-0.001084028496486721 
-0.00548628912743479 
0.002785362499036566 
0.006161517073082476 
0.005694794784497168 
-0.003567796174914608 
0.003361136315192052 
-0.0036890843004457 
0.002273523535303251 
-0.003792013885974005 
-0.004891863313222022 
-0.003857438055622595 
-0.0006295767493375112 
0.005962689831708682 
-0.000982118753915471 
0.008054374586171243 
-0.001343721320152832 
-0.005620013565684497 
0.003930818091657934 
0.003948917866986355 
0.003569254144542191 
-0.006094964043236578 
0.002800530630160739 
0.0001122643380400181 
0.001386463113306977 
-0.00742194886643401 
0.003059286073603337 
-0.002440381408353315 
0.0007627942511541429 
0.008903507576897347 
-0.002020766730118832 
0.006495551686753784 
-0.001009073594864851 
-0.00343850237293449 
0.003320449442027315 
0.008720503188143368 
-0.001474154766106264 
-0.006961032525318295 
0.001330952949671222 
-0.004917161355331959 
-0.0008234233038424705 
0.004141364335989918 
0.001848053480371865 
-0.002210114050995522 
-0.002451304915768153 
0.01273832364851623 
-0.009851434430478043 
0.003781881036342931 
-0.0007434837857907495 
-0.004295732922432377 
0.0009839612860974404 
0.008180872399676025 
-0.005587628425476531 
-0.003712387081627065 
0.001649355097543242 
0.002037426689622479 
0.003215706125526139 
0.00407755032995764 
-0.0006146571428706839 
0.0003105594882684815 
-0.004641244024004195 
0.007974153208771893 
0.0007941027292987995 
0.0004222767935590614 
-0.001685997546112834 
-0.0094652582687534 
-0.002008396435601985 
0.002983628578233863 
-0.003914756884981812 
-0.001721495280080742 
0.008392739168206468 
0.001435339667114823 
0.0007757749530405613 
0.007857435142785869 
0.001179281482892634 
-0.001050892931876803 
0.001355053419758031 
0.001107707512121576 
0.002731798479145565 
-0.002453214312658779 
-0.005113014408830812 
-0.00661226152290142 
0.00109927841691871 
-0.0007263146808758305 
-0.003517534543688061 
-0.0002828255143997038 
0.003037982643346088 
-0.000405598567870832 
0.0001701818778798759 
0.005135101348480785 
0.005438070620845996 
0.0009006857829291281 
-0.001613823692763243 
0.01542438988410819 
-0.001040757932444532 
0.001475823731517767 
0.0008590067457137776 
-0.006803808675786128 
0.0007182244727191656 
-0.0015225831420299 
-0.00286686344478472 
-0.003610663718246917 
0.001910587839154409 
0.0007947697026367237 
0.006809750816585522 
0.0004258229378162732 
-0.001733580552990717 
-0.0001776051687545558 
0.002106760013975837 
0.01589461414890357 
-0.0002593817798075735 
0.004365759379547584 
-0.006737960686542489 
0.001323866764141413 
0.003328630279972054 
-0.007478127886805464 
-0.008412678135266853 
-0.003929807880556587 
0.0007433098858768739 
0.003904643985659357 
0.005319031533877821 
0.005696326252638049 
0.006832532770340003 
0.003735515221342218 
-0.003907938121961084 
0.01140433053202806 
0.001183412251547994 
-0.001523289788976393 
-0.00306985503774894 
0.003276938890722995 
-0.005120626402947702 
-0.003337280390207717 
-0.005573592116103792 
-0.0008282201528885683 
0.002910435436738593 
0.001286670902043621 
0.002185847549161636 
0.01038643888643474 
0.003553380807207585 
0.001756897777005689 
-0.000880565646971866 
0.008110963410747683 
0.0002723420452784025 
0.0009882359942112 
-0.007469654505334772 
0.0004211324376435597 
0.003664318973797314 
0.0006379458739015397 
-0.004909523595343144 
0.0009036454534378882 
0.006547996080458925 
-0.005610600832950913 
0.002453066882899268 
0.01207314287396965 
0.004422042181141248 
0.0005543304760684382 
-0.003537805870801958 
0.006007647426521457 
-0.0007043532980506083 
-0.0004440136897588683 
-0.0008926520028674011 
-0.0007190527380547093 
-0.005253387577991296 
0.004051249636546624 
-0.004256352311438495 
-0.003526675627370859 
0.001945424558831243 
-0.002791882340961126 
0.001274595743438199 
0.01329944743706224 
0.002010662011707629 
0.001322907588534957 
0.003758918313196165 
0.00165020986213484 
0.0008270996376881838 
-0.002882051849299291 
0.0001037569019647848 
-0.0002437725962542273 
0.002514870434291413 
0.004640680281452463 
-0.002925412816512203 
-0.007928934119429864 
0.001178804269400171 
-0.0004872142930274092 
0.003871141253943985 
0.008066817783306104 
0.001605529937999081 
-0.00164097730617279 
0.005992703902447942 
-0.001431308707412124 
-0.00685844462115623 
-0.0009819614432662104 
0.001274773682522091 
0.00376202810501615 
0.003280698877006627 
0.005669001856722009 
-0.003069071405424286 
-0.00857473756551368 
0.0026632636325871 
0.001448467844121592 
0.001099396657651297 
0.006983872290276119 
-0.002007724915727638 
-0.002121056185742828 
0.006699457900524175 
0.001291898717354117 
-0.004569893147007844 
0.00154366575128715 
-0.005546018362178728 
0.003630022421067062 
0.006413186695953028 
0.008284430862647992 
0.0009983842819241886 
-0.01128502133437241 
0.001762622159034157 
-0.002201343992147706 
0.005005754656240078 
0.007804539252581448 
0.003584899100081682 
-0.006581356330678181 
0.005738227849973516 
0.001325489274457086 
-0.005727348914789033 
0.0008799530382466694 
-0.001967182524292183 
0.01142065511902445 
0.00312489581211242 
0.001278949342001639 
-0.001060923799462035 
-0.002790557757077585 
0.004151652791790058 
0.0009941283956705397 
0.00786106088454515 
0.001762242019528453 
0.004784452559667873 
-0.007199935948244931 
-0.0003723448370087001 
0.002028895018560301 
-0.005696825670475898 
0.0009759126118199839 
0.0007692828590114819 
0.004077065731055538 
0.006064972901271474 
0.005762388247151704 
0.001569994060104827 
-0.004729762107372665 
0.004192515837146532 
-0.0006778285407724844 
0.004634527980944051 
0.005043330908402435 
0.003068001738799785 
-0.01171042491651958 
0.006872209545414685 
0.001993223338920872 
-0.006128225194133252 
0.0004981295930738491 
-0.003952819487218087 
0.006696170849238943 
-0.00125253537828941 
0.007481542616401326 
0.005060101597227608 
-0.005986182149169765 
-0.00187667314484074 
0.0007026821039871286 
-0.0001943065107614233 
0.004042752692546068 
0.002196456937428051 
-0.005691784585973896 
0.004155834997862683 
0.008673695497446666 
-0.001660857559850391 
-0.001894582413938357 
-0.004896238835876701 
0.01261573516606875 
-0.006343785845086135 
0.005204803018027611 
0.002694083111463642 
-0.003816980126790639 
0.003418397275079946 
0.0002853967623641309 
-0.003591647591698586 
0.006680787862477615 
-0.001586087087143845 
-0.005341428137268458 
-0.002252203817777864 
0.007988672757853796 
0.00194198746090979 
0.002112807931422031 
0.0003938127338480115 
0.004852288806655331 
-0.002878725939888254 
0.01137868211545524 
0.001265171733197431 
-0.005483064262935637 
0.006085453555095491 
-0.0009812227990489098 
-0.01318974566710002 
0.001645288048664728 
0.005523598877849288 
-0.002715671542978645 
0.003881281830083299 
0.002354060302357532 
0.002879011761556251 
0.004881142970091996 
-0.003177007499625491 
0.0008134946337472937 
0.003462202815053602 
0.01522860683273196 
0.001627993871233136 
-0.004256168079445661 
0.009272273431833469 
6.477727349626792e-05 
-0.0036611404497938 
-0.001453589911616543 
0.004279124231069175 
-0.001629755493689866 
0.003055900899186878 
0.0001407026796575413 
0.002463073236478687 
0.001123000938857375 
-0.0001249319410307208 
0.005490141876137187 
0.004731245541213965 
0.01426586115057405 
-0.002247985733840834 
-0.0005790646266068863 
0.01286239534924398 
-0.0001226094820532348 
0.002359005603946188 
0.006315819413180304 
-0.0003675147478514125 
-0.01038214046117562 
0.004666342741029876 
0.002274689694770014 
0.002554611167715566 
0.00867100111345467 
0.003104278920571001 
-0.003522522158181343 
0.005205792163648158 
0.01202844613008432 
-0.0002444348310424042 
-0.00323342220644228 
0.009256092754686801 
-0.004897968492116619 
0.006261525014030426 
0.008052479429976486 
-0.00475604722061088 
-0.01034994319611712 
0.00379198349491294 
0.004232676282171383 
0.0007661559559346448 
0.00656437766238555 
0.001268551451544551 
-0.001548355079805847 
0.001695431115621849 
0.008483421153106435 
0.0002754255848060723 
-0.004680906086510093 
0.01030899833122603 
0.00127493610182604 
0.004425842938288365 
0.001459683105263016 
0.001555885921214227 
-0.003495458685464251 
0.0004632936290384147 
0.00385383553467225 
-0.003985246388388508 
0.002456274356326258 
-0.001484426132221308 
0.003162143919617917 
-0.001121785512492979 
0.005633498209841117 
-0.00184387870818522 
-0.00325925068471467 
0.007920214020395453 
0.005783376346833739 
0.008946734646208199 
0.002215116859957462 
0.002198478737800588 
0.001049630902465605 
-0.003912841414008151 
0.002214921330982524 
-0.004870187655750057 
0.004617037827268661 
0.004517318361760018 
-0.002767164370078655 
0.002595108537914977 
0.009042338323188877 
-0.001381283213539628 
-0.002517979938708211 
0.002577644535540366 
-0.003997852403791108 
0.005052041446655089 
0.0006618925402701928 
-0.002482035745207264 
-0.005165586074474296 
-0.001807116981464664 
0.002785094158679562 
-0.0002426551913712373 
-0.002852511245413406 
0.002466837193234647 
-0.001072678434025408 
0.002189779713883614 
-0.0005245334271257927 
-0.0001934885420351358 
-5.551371600106321e-05 
0.005053159261503299 
-0.0009562240112418592 
-0.003714054814805891 
0.003130086272271046 
-0.005880553381271191 
-0.001732796630682371 
-0.004606987943068825 
-0.0004737028505911307 
0.004922508765861871 
-0.008127671388310465 
0.001653782036293523 
0.001618257952222058 
-0.0006203409342702972 
0.000474485310583741 
0.0009374284194628772 
-0.0003240275416243488 
0.002211281742704874 
-0.003926828879706799 
-0.008309713002147568 
0.004502486342854265 
-0.007403003699352833 
-0.004568999513827393 
-0.0008701909202508001 
-0.002719931812049649 
-0.002196891214381033 
-0.009762051725371949 
-0.0006281253945604793 
0.003984488789433848 
2.09186525195943e-05 
-0.0004862217704533614 
0.0008141833983592755 
-0.002950102467643469 
0.005245156233149306 
-0.006060850028295093 
-0.00307864245960174 
0.004759128092826158 
-0.00455539706901862 
-0.003179460522053913 
-0.002188570150811483 
0.007728785381169542 
0.004771155425876859 
-0.001150364022344179 
-0.001417884447596954 
0.003210214944861828 
0.001459050958427606 
-0.005713892386299024 
-0.00169447561617976 
-0.005174082310085164 
0.006147834278093053 
-0.00525106277395259 
-0.0003196862604675838 
0.002148521984539261 
-0.006342334771505994 
-0.002708348868251846 
0.003942475658828688 
0.007947444806324977 
0.004837542395684568 
-0.001326964647420223 
-2.224931297194035e-05 
-0.0004311453322157915 
-0.001065659538873821 
-0.00191049820181224 
-0.000436782076036598 
-0.004226666924002882 
-0.0005658828599626418 
0.001046682880617698 
-0.0001289957472303222 
-0.002861712584524524 
-0.002098158160390736 
-0.0009183435606329516 
0.002067274645671296 
0.004637686982702135 
-0.003950866023087414 
0.002563545105968019 
-0.003941211788083087 
-0.005304804380404466 
0.000974192608279052 
-0.000615729663496106 
0.002226396006867231 
-0.004195441263927564 
0.003442379673615845 
0.0002730542897277181 
0.00711234169349615 
-0.001102055596138363 
-0.00443857130253946 
0.0002022236921832687 
-0.001802198623190404 
0.003472813553374152 
-0.0001471714841161322 
0.003182486223874765 
-0.002517501353793469 
-0.006918514136473095 
0.006106916884084831 
-0.001222511370262611 
0.002553432483545893 
-0.008390911835876289 
0.00543073010118037 
-0.005668949383460255 
0.002207739000248352 
0.003353617272306742 
-0.007075969382808532 
0.002020627104737013 
-0.003288505636253858 
0.006436645041161856 
0.002290991858362667 
0.002814694816806639 
-0.004567501280544299 
-0.006728831406788593 
0.006917694938989727 
-0.0003035621752028022 
0.00092663027516214 
-0.004135691292719933 
0.002962038470658216 
-0.003566987405833384 
0.00458523508074631 
-0.001800636338426222 
-0.002967362461247941 
0.0001334549376941932 
-0.003921695708765985 
0.01090438372163025 
-0.00134612720631831 
0.005904814200628837 
-0.003270014549094403 
-0.008063441231457153 
0.009614922949289747 
0.004521011788359141 
-0.0008432373713720656 
-0.005051557056556502 
0.001212463822545047 
0.002330780674046824 
0.006224639030531619 
-0.009530750464726897 
0.0002059723487418037 
-0.0009334154675219825 
-0.0001300433006977345 
0.008706031810962921 
-0.001142349645580024 
0.00264620937678056 
-0.001794728029437936 
0.001265782298179699 
0.004171188062615262 
0.007065204255032619 
-0.00179719402563356 
-0.007347191994112179 
0.002184281974861699 
0.0009365225168601415 
0.001270120258769037 
1.127031392917817e-05 
0.004129187450786232 
-0.005638769047132593 
-0.001757107422520404 
-0.0007612087802284314 
-0.004225618852827179 
-0.003334584450679504 
-0.005812105193095458 
-0.0004138930087841486 
0.001122437795193321 
0.007217887008639705 
-0.003247235974202961 
-0.005376090322576649 
0.007135270103513889 
-0.0001564283996877266 
0.003323633564912262 
0.007117895226860123 
0.004476966502478287 
-0.005238549548527197 
-0.0009171497015691417 
0.00322730913943854 
-0.001130493904284249 
-0.00216245567477736 
-0.006083787274309969 
-0.003171286697186484 
0.005966385530927664 
-0.0004191135563467882 
0.001146743375887143 
6.7957438512591e-05 
0.0101637825377964 
0.002061076740152123 
-0.0007176736877740967 
0.002750173144076204 
-0.004082935648410039 
-0.002943749680880522 
4.508615058631227e-05 
0.001048465440838152 
0.002349278791825892 
0.004799066343575614 
-0.005358388058394835 
-0.006966033334241841 
0.00195169756808276 
0.003081647620859402 
0.0006419710499503706 
-0.001829511129047669 
-0.001139302826065229 
-3.530842063055967e-05 
-0.003304575594669898 
0.001478770481723868 
0.005070186241672935 
-0.004395746367825914 
-0.001865305237678934 
0.0124039175816548 
0.000278601616675582 
3.518270120013975e-05 
0.003687321723320967 
-0.003037062290022195 
0.002927699715375667 
0.003777528562026436 
-0.002249177335251374 
-0.00509818201613454 
-0.0002750861700058025 
0.0008680933786388557 
-0.0005995940753857365 
-0.008959875666936064 
0.007588270275434081 
-0.004945600362736006 
0.001624624037399173 
0.01750067931741687 
0.0005008395102351521 
0.003852763243153872 
-0.003810185284713858 
0.00237202655346505 
0.003244425748464512 
-0.007017087184198256 
-0.001575246012923493 
-0.004355274019513976 
0.003314174010975144 
0.005198001479642974 
-0.002591107564344204 
-0.003590817469973253 
0.008271533230061467 
-0.005166776171364652 
-0.004864008869807158 
0.01289930796413051 
0.001942305755961964 
0.004110128963329115 
0.003441412039273088 
4.320303171632895e-05 
0.0003150043877788229 
-0.007333869028954772 
-0.001999736636926102 
-0.004489463334495554 
0.0003115969330686072 
0.005856509938873385 
0.00147356313938197 
-0.0003521979936217917 
0.001529993277010519 
-0.003405579842678848 
0.00174431860146855 
0.006940809539755685 
0.0007998569599805424 
0.001217798314162537 
-0.003515166714697141 
0.005905811635213029 
0.004830920826120533 
0.001784011472619266 
-0.004448948556342738 
0.0006206100173688063 
0.005529777550814955 
-0.0009860594483381111 
-0.001536958371812671 
0.002680197445219114 
-0.00334665243920938 
-0.0004929788747328285 
-0.002842245188623432 
0.006448856832394741 
-0.001052393943161427 
0.0001984775392526651 
-0.002522709431202359 
0.004293358694606093 
0.001330881349849135 
0.004212128638968766 
-0.0005105472993403374 
-0.005053635392250101 
0.002271274613368332 
-9.696907501131441e-05 
-0.003169355637365475 
0.006106310986851631 
-0.003215203087818642 
0.003007993986668153 
0.001702608504058834 
0.002062570393374854 
0.001045517458553888 
0.002355841834765927 
7.154687358464048e-05 
-0.004449962730631856 
0.0006394533641954676 
0.003685105316617279 
-0.0005380391256806008 
-0.007189991801741169 
-0.0003110100987991917 
-0.001841444607636104 
0.004043527095601654 
0.002616248349795309 
0.0002160479915925961 
-0.001032815306455589 
0.004523434556143376 
0.002046069009472381 
-0.00488771144717898 
-0.002157612537498672 
0.003419566211721324 
0.001978452810083855 
0.005586377254393994 
0.001665104070118509 
0.001589756666322986 
-0.003021065353240004 
0.0002732208620805962 
-0.005709975498200823 
0.003077151428987812 
0.0006955790667317529 
-0.0004568916885104276 
-0.002377678072902402 
0.003780786568506917 
0.002442962762855204 
-0.00625909119604075 
-0.001479050434045626 
-0.0007685383390209226 
0.004853773370678755 
0.003616840169325476 
0.002925694241967683 
0.001152950318884244 
-0.01089861590923649 
0.002474918105638143 
0.001137863941070646 
0.003988642701090944 
0.000302830280214967 
0.004806559979903788 
-0.005705347964808302 
0.001304113109360716 
0.00272382700420506 
-0.002611295468175878 
-0.005804346274145025 
-0.005844122769353499 
0.009565123435519273 
0.003351973066300848 
0.00463068880778146 
0.001410030589803682 
-0.007449079116903993 
0.008435954521754056 
-0.00250715789654235 
0.007389666155727442 
-0.005415300939625467 
0.008021115123217706 
-0.006982362164451589 
-0.001198828751258694 
0.007233866408780614 
-0.004284530954985685 
0.0009904375254074158 
-0.005523023004573848 
0.009693498117327629 
0.002935988423333129 
0.006021599697336713 
0.002768328322741051 
-0.006886986363952591 
0.001973498424690513 
-0.005305584107047126 
0.0005533987715669541 
-0.002175163447682626 
0.001780762739228549 
-0.008491112884238889 
0.00727342085699456 
0.003810255780056621 
-0.005683025213094641 
0.0006933619959209765 
-0.003445747629180477 
0.007702915161514266 
0.0007372994937509048 
0.003809255042570359 
0.001360615855980771 
-0.008309778134108116 
0.004644803170459422 
-0.003469922351354055 
0.001009824474993533 
0.001433802908404264 
0.006301186697028895 
-0.006870474562175527 
0.002256462149627624 
0.01021019445092183 
-0.001810702855488127 
0.002815194668191747 
-0.005334286413104765 
0.01366619969458769 
-0.005166244212953128 
0.00680446020093671 
-0.0007370531142839929 
-0.008617200930079227 
-0.001029571969516729 
0.002664470760251357 
-0.004225686969971213 
0.004493602683427644 
0.005825340814238671 
-0.005882206891311677 
-0.0002694733564561963 
0.00702224201966671 
-0.001744837310182278 
0.004569791728908392 
0.0002279588684972077 
0.006656323632514171 
-0.005704263705443475 
0.008617050326839515 
-0.002939331058788512 
-0.005373438505489545 
0.008491679087211962 
0.000549097828555999 
-0.003697693720354897 
-0.001004626119073356 
0.01002219959081072 
-0.003724754730826139 
-0.002166260743183441 
0.005488719741996835 
-0.0003818551110111205 
0.003955051605392974 
0.001410687801054549 
-0.002461452365398804 
0.006738739365598119 
0.01446335405097858 
-0.0004923735885527833 
-0.00211647425942751 
0.006638347379828565 
0.002365503474681798 
-0.002440449882178692 
-0.003354017851088625 
0.004244247794620844 
-0.002045299643140953 
-0.002112196104110417 
0.005030299412279129 
0.002247139650078236 
0.003118890483020558 
-0.0005307890626017833 
-0.001982020401621682 
0.01084477007591916 
0.01315616188871542 
-0.0005174754845936745 
0.0007008696485397557 
0.005066446390095096 
0.0006669580391607847 
-0.001453063754882665 
-0.005311962771491365 
0.002390591576294555 
-0.006237868080810087 
0.0024265689657206 
-0.0006872149141578561 
-0.001032337950778723 
0.005606292317411098 
0.0005060808036952779 
0.001297535759034074 
0.007923828216056016 
0.01872824277028026 
-0.002428127909219482 
-0.001258752600625643 
0.003708240136851095 
-0.003473289712263968 
0.004266661017743801 
-0.005231279298212715 
-0.009446725232366905 
0.0005381275473524743 
0.004947642546688457 
-0.004354445683337527 
-0.005694754762728435 
0.001653177295792063 
0.004059903805931742 
0.0003808694329963248 
0.005279149566773263 
0.01400599776927357 
-0.003397063042248343 
0.0008142525581505009 
0.004431098678679906 
0.00791757152809658 
0.003415102550884487 
-0.002422366493190332 
-0.003956853831744035 
-0.0005524630714808985 
0.005268617447032428 
-0.003777067733644458 
-0.001814043018555123 
1.985989131491776e-07 
-0.002906687606559928 
0.001403476930794359 
0.006599825367207751 
0.008829746156605303 
-0.0005164125004821255 
-0.006969519506317241 
0.008835845792089011 
0.007344324674289745 
0.003844943481156061 
-0.004452352700012043 
-0.005482868298921747 
0.006881696746841215 
0.00308562934878348 
0.001290619111254687 
0.001425218749801298 
0.003580944699407469 
-0.003854084047728445 
0.009844317509350456 
0.002754184130569764 
0.004132350260843264 
0.0009448581811377665 
-0.008377880404914358 
0.003931105026678768 
-0.0004005217374612956 
0.004237161630009631 
-0.008492867123811114 
-0.006245884100181856 
0.0004330631274138103 
0.00387583519953437 
0.001112660710641478 
-0.001277296433551528 
-0.00800077842489799 
-0.002687827240806033 
-0.002758689393021429 
0.0008470471435143108 
-0.0006895771410173419 
0.004010110733854361 
-0.001297200886598908 
-0.003854611039445107 
-0.002258455741804808 
-3.030628473272926e-05 
0.004656672434262735 
-0.001845862017409289 
-0.001589462861179168 
-0.003741359244328197 
0.001359225540275417 
0.007683408518834581 
-0.008023972643716681 
-0.004577156039056602 
-0.0006635056901011049 
0.002444767350060603 
0.00471970544280668 
0.002220351507334017 
-0.002099363108900494 
-0.005112258670701884 
-0.004451364129530015 
-0.004770093972574081 
0.00450308144877131 
0.0002358903799720644 
-0.007407159108530242 
7.136850927702277e-05 
-0.006126414102848274 
-0.001335774172820872 
-0.003133269328962872 
-0.003511397847982994 
-0.0001445571197520683 
0.005378064826487553 
0.002515520240459221 
0.005474893540078064 
-0.002942509500813694 
-0.003407133124376346 
-0.002162171532235085 
-0.003546197350050544 
0.001152176191683273 
-0.002329795610139076 
-0.004127354942211938 
0.001566455013631954 
0.005756038827103442 
0.005594275802833228 
0.00125069971224266 
-0.002940164726463778 
0.003254602373731164 
0.003464866489494272 
-0.002751095129551912 
-4.096772876127147e-05 
-0.004730437983179062 
-0.0004704826154776841 
-0.002221576738149854 
0.0001318806109564733 
0.003684802319098002 
-0.008410864412774211 
-0.005683739693080672 
0.00344825358969226 
0.002264462789276565 
-0.0001539640920986035 
0.003273608266738492 
0.002292397051748526 
7.328504615552019e-05 
-0.000780953420891378 
0.002752413804993935 
0.0002575965477163011 
-0.004830953816471593 
-0.003200275802288145 
0.003336768023311967 
-0.0006937475511701687 
-0.001612022677553233 
-0.006067541863471545 
-0.003777195305855562 
0.000239356591295798 
0.003842556224954789 
-0.003318621929506393 
-0.002049475954213707 
0.0006331451039451598 
-0.0005798686886870309 
0.003179181969334435 
0.003442281681879499 
0.002166294619430568 
-0.007425444605422812 
0.002126809060118154 
0.001688019159185572 
0.0005293722057382728 
-0.0007778141092996778 
-0.004375819260240115 
-0.00350190850032383 
-0.002254275682277672 
0.004861844616453046 
0.001246764413585447 
-0.006505101585508492 
0.001630553686281305 
0.0001205302776920917 
0.006595520387120522 
-0.001844306368857562 
-0.001381780398408577 
-0.008695629439660206 
-0.0001146269524449123 
-0.001632011793181707 
0.000879829888626432 
0.005417928890978216 
-0.007733578611761185 
0.0001500175049327402 
-0.005458846510443418 
0.006344039807299611 
0.002073438077342091 
-0.002874072674357983 
-0.006162829970353636 
-0.0008291603766536284 
0.004473861960190973 
0.0007921771407312416 
-0.0002430855173947775 
-0.001434109039909 
-0.001446021520903145 
-0.002820089399040831 
0.001500233027420183 
0.005493307477939756 
-0.007863692179319877 
-0.000648584541669993 
-0.001781194651498675 
0.0118456370552707 
-0.003668812416227496 
-0.002741614189355542 
-0.006103236086877187 
-0.001071336201767623 
0.004791297802342241 
0.0008194688723345947 
-0.001039943092912305 
-0.0005590053104122913 
0.0008764967827851332 
-0.002258615223841217 
0.006046285733221096 
-0.003776223351107298 
-0.01020720852574234 
0.003237967764267657 
-0.001097448224900623 
0.01473781885852651 
8.963351488971259e-05 
-0.001145492722065872 
-0.007844343611796482 
0.007923045978015658 
0.01044429228467506 
0.0009398528309203063 
-0.001126691586278868 
-0.004038315272971793 
0.004054948870952264 
0.002882473801073605 
0.004369978739538984 
-0.001625090639241818 
-0.01138611496972885 
-0.004066734641984198 
-0.001988092635436993 
-0.001687430073657476 
-0.001544510972784895 
-0.001749743263531503 
-0.005060506400209466 
0.006118982117635283 
0.004289596891262613 
0.001290674022443375 
-0.0005391348592530433 
-0.006529373638213216 
0.0123410675703055 
-6.651097802498423e-05 
0.004938262743759245 
0.003058354198812987 
-0.009181286640364238 
-0.0007842517849971177 
-0.003987735033299491 
-0.0007775991633554574 
-0.001266016702671982 
0.001101331875751213 
-0.006255774257918655 
0.007542251508166163 
0.001302756140853219 
0.006126021477844084 
0.004616015313186808 
-0.005165290572510486 
0.00663095739495407 
-0.000355624051989047 
0.003891685420639837 
-0.003542123948942393 
-0.006860856070917827 
0.002460016644763098 
-0.001071958869408758 
0.000845448196310949 
0.00354631425773427 
0.006774003490644508 
-0.007388001085517185 
0.004375902601257762 
0.00474714534356697 
0.005397841147276945 
0.00297434275701604 
-0.006205247999802874 
-0.0004003874879891008 
-0.001826623291203644 
0.001271354177370697 
-0.001022925047278432 
-0.007901634754079366 
-0.004399979046562578 
0.001078259069716365 
0.005075362135018362 
-0.0001612146843096234 
0.008132299893846858 
-0.00267047458839745 
0.001364657278575633 
0.01051863550625205 
0.004881356109889963 
-0.002873090640838133 
-0.007516476503522372 
-0.003823269663338563 
0.002332773525589299 
-0.002081559667830584 
-0.002999163161365062 
-0.002603050039932583 
-0.003879501357790759 
0.006797972865286259 
0.01044248277151176 
0.003325488085014435 
0.007805982309216435 
-0.00350194672695644 
0.005368356654842217 
0.01035955430486341 
0.001786375944777046 
-0.001429533976328482 
-0.008436897617251696 
-0.0003075374023300929 
0.004066179553636755 
0.002288747603098788 
-0.007941963764615706 
-0.005280670648603556 
-0.004795125906425644 
0.0009938150501712958 
0.009004814179545439 
0.003037336828174497 
0.00736817220020927 
0.000502388100309968 
0.006932220747944254 
0.009325595911732945 
-0.005819092958128432 
0.002454890724684369 
-0.007196031300513044 
-0.003014485133076798 
0.005604452406257755 
-0.001279612908603608 
-0.007916515603526778 
-0.005304529749766661 
-0.002011979591006012 
0.002194414608146168 
0.007511735247478586 
-0.001792419547816876 
0.00514462088255348 
0.001714496347768097 
0.002104239078590241 
0.003858774246332361 
-0.002274539178405236 
0.0003975715882435264 
-0.001098509143420665 
0.001191793358053101 
0.0005401116221201143 
0.00234727980169818 
-0.007463952492852981 
0.0005151885978693393 
0.002418486224983099 
-0.004437253426531311 
0.009444123705883519 
-0.003376922057072704 
0.0003126505071830438 
-0.0002762001630826782 
0.001209158525092809 
0.002219299081180757 
0.0004291373250308331 
0.00449032877183887 
-0.004496520845353509 
0.004652937787592947 
0.0008280245812290416 
-0.002566532530737975 
0.001335490715057606 
0.002163806303240428 
-0.0004282506757375712 
0.00318038509855574 
0.003373229505392608 
-0.0003522640490007635 
0.003924791803310257 
0.001339706354751562 
-9.213666922517392e-05 
-0.001285349717280415 
0.0005209169955704023 
-0.001241760743495809 
-0.004617992694997611 
-0.002433098440499593 
6.947661108856527e-05 
0.0003622951791848065 
0.001075725156802218 
-0.00116008132736062 
5.038915055553959e-05 
0.001262236900311047 
0.00942089144041262 
-0.006210814215875604 
-0.0002615171179463442 
0.0005160677232346632 
0.004069492763936998 
0.001849007561648145 
0.0006492958621368869 
-0.002412237901450375 
-0.003352957873131794 
-0.001227981445265679 
-0.005202892871529006 
0.003635495124588159 
0.0001149311820546687 
0.002033007696328618 
0.006321249074086086 
-0.001643118087854446 
0.008443157331403495 
-0.004816611377691608 
-0.00358365062825872 
0.0004284451366255927 
0.008240134169136144 
0.005536268166222116 
-0.002275528300647923 
0.0002409272837808977 
0.00137832324750647 
-0.004034504906903932 
0.001592884065284146 
0.004680515232409749 
-0.00416685730104862 
0.002018853835024106 
-0.002225863597961215 
-0.0001558674881231639 
0.0009632812155715931 
-0.003368769394855533 
-0.000442315256893942 
-0.007601481479675632 
0.01354254846600213 
0.0007127169682081317 
0.001497502323291634 
0.005837026251796782 
-0.01017861777667112 
0.002342470325635915 
-0.0004608480741704524 
0.004087108739307382 
0.0002268387990283241 
0.002470619494723535 
-0.002600980234262793 
0.0004693289097314766 
0.002079173800693337 
-0.000835811035032402 
-0.002424586285970022 
-0.005332597072583887 
0.009289025803300608 
0.002302066726305094 
0.00162505511909184 
0.004334523552802497 
-0.007091050608254991 
0.004954442188126792 
-0.00871311031526357 
0.0007461160394395018 
0.003048585318709373 
-0.002513891029114715 
0.0001941547534544561 
0.005469445008320938 
-0.001338870484036315 
-0.002604350026203745 
-0.004661706657286726 
-0.001066012709702881 
0.006013281670948199 
0.002918602894455647 
0.002493279850904069 
-0.001800615546217163 
-0.005350612994717129 
0.005343639095824771 
-0.003464147348270229 
-0.002992399598429728 
0.006169609949660161 
0.004989503725664332 
-0.001629448072868806 
0.002054505816664921 
-0.0001253750868236886 
-0.002356253209855848 
6.358551134801304e-05 
-0.001309214640148121 
0.007953287619408608 
0.0004800405200562388 
0.01040554187422761 
-0.006657710325826819 
-0.006437782263751195 
-0.008007160873788754 
-0.0001745723355631783 
0.002091722922094517 
0.004693315674511967 
0.003967070523735378 
-0.0005793521365254249 
0.0003814033782878143 
0.003842803766079344 
-0.001674652989907902 
0.007772231715408328 
0.002046653912394663 
-0.001058987218401169 
0.002620923818982908 
0.002628438015353595 
-0.006757975739493567 
-0.00413641138519401 
-0.0009618690268068008 
-3.624894903209767e-05 
0.001910113885645792 
-0.002379414134797883 
0.007286090441418534 
0.002818952925158684 
-0.002625556302311661 
0.002370717776037925 
-0.006485860233063107 
0.001159835695308909 
0.003654722270580209 
-0.007772910610335947 
0.007715259837610449 
0.005645804914174502 
-0.003076243125724731 
-0.0003451880194418854 
0.003857751030066044 
0.006024722510594898 
-0.0007115638298194938 
-0.00641353016290662 
0.01029786127839293 
-0.00494733152186883 
-0.00247214075680785 
0.00651376785575121 
-0.005587069795842657 
0.005330740676743513 
0.002250641800841337 
-0.00517465042486492 
0.009859148471521305 
0.006641182806377388 
-0.001283534592921323 
-0.003296165196513814 
0.005620645873085447 
0.003676155136641892 
-0.004476757544238818 
-0.005486859411672308 
0.003634075410331315 
-0.005701189986555133 
0.0009513484643695264 
0.001541755621789239 
-0.007212880942332385 
0.0001450406711957727 
-0.001286576570127954 
-0.003353126738202042 
0.01021478099616699 
0.01202661541829766 
-0.003797405713482487 
-0.0009678394077689482 
0.005783349804116912 
0.0045051027855522 
0.002471320637238328 
0.001134144499836216 
-0.0110372471224256 
-0.0007057722872168506 
0.002134196081931214 
0.0002100440058216968 
-0.01049485105397025 
-0.003250131212496241 
-0.00111545207184999 
-0.001662051906343323 
0.006592812374682211 
0.01167233523063579 
-0.003971538664558631 
0.003659514051570754 
0.008632152570823472 
0.009883373189041566 
0.002592174431075987 
0.002829592692493489 
-0.01249842067818216 
-0.003268731428820583 
0.00867836041481255 
-0.004890051107130509 
-0.00361988555993559 
0.001859789769303106 
-0.00144082349586536 
-0.001744707818140102 
0.007150681032926599 
0.01006854738261647 
0.005571713819217178 
-0.006623899347915083 
0.007684754291352332 
0.005971245923545631 
0.001079248119229054 
-0.005099750593485128 
-0.007596134910093713 
0.002181511358707388 
0.007167828022499618 
0.0004545697877000745 
-0.001939316285696404 
-0.0002300458815451194 
-0.003532959204039116 
0.0008562930618001823 
0.009383093013696719 
0.002905185679970038 
0.002486511683714447 
-0.003373685254566989 
0.002347288244734885 
0.002188298420697795 
-0.00139151059936284 
-0.009594929601522114 
-0.004316796488743484 
0.004597926439957804 
0.00568605498766673 
0.001239701690010617 
0.003620766903795729 
-0.005898382619214214 
-0.001744294631052781 
-0.003550764332316113 
0.00292005723606257 
0.001006956273663503 
0.001182942395539579 
-0.005853278554064589 
-0.005675481311241997 
-0.0008020863635789606 
-0.002887269838627657 
0.001844738533826522 
-0.001123001258162765 
0.0007417982366615904 
-0.001178077298396618 
-0.001775048632025903 
0.008586471219592957 
-0.004117512526669506 
-0.001386547601467898 
-0.002239473943685791 
0.001614976788795178 
0.004526279858849762 
0.001152880867700929 
-0.005269087750416098 
-0.006784031113444456 
-0.0009599500053025421 
-0.00145237766640521 
0.001851907759144172 
0.001650904435792801 
-0.003352721952262498 
-0.00133477014833671 
-0.003852860714357174 
0.00211196385987328 
6.121760243950904e-05 
-0.005819609236927482 
-0.0006732115666081826 
0.003870118402045195 
0.004256078722641063 
0.0006706410710903993 
-0.00554809074416257 
-0.005453951795433109 
-0.0003747530680976049 
0.001374866403092792 
0.003117148648732923 
0.004575321767845642 
-0.005018794880391339 
0.0037232090425746 
-0.005406123427167169 
0.002152032188173033 
0.0008555353326484083 
5.851214660223254e-05 
-0.001953362039661466 
0.003732729985669262 
-0.001946896449645285 
0.0004858774459340987 
-0.009159606021769365 
-0.002691854710085021 
-0.001518494844308624 
0.002087649078610569 
0.00504814106729125 
0.0004488538523890657 
-0.0038333386163278 
0.0007360975270343833 
0.002099976278832307 
-0.001574706162880796 
0.002704216574893066 
0.001171050648310988 
0.0001102569249235617 
-0.001551866989136485 
-0.001606958396218864 
-0.0002069986133710713 
-0.006381027053432205 
0.003386615484827926 
-0.007493247453662938 
-0.001055890857001043 
0.003468084629186548 
-0.002308834895380998 
-0.001058125585860534 
-0.0006534162728128076 
0.004586249331175778 
-0.0038537689987641 
0.0003340210975866722 
0.0007807311842787033 
0.001975458618735764 
0.002049807345642608 
0.0009498342651994579 
-0.003653608812577098 
-0.007171727383554603 
0.008926976487158502 
-0.004346661708893291 
0.004764003329486842 
-0.004638210875893885 
-0.001973951920565833 
-0.000579470416141535 
-0.003596796069261339 
5.928682291464261e-05 
-0.002705385870261627 
-0.005552204460523754 
-0.002537483432839716 
0.001449365633452802 
0.003122395706868969 
0.005873960773966622 
-0.004436907647536661 
-0.001429564123785231 
0.003237597868101322 
-0.002477146086235831 
0.001355874938757588 
-0.00311545001591811 
-0.0007428219370578595 
0.001441910905029607 
-0.005977249232386044 
0.00649869196825449 
-0.001206433869810247 
-0.006648132876356074 
-0.006360497681058262 
-0.003483550062562877 
0.004942793683463964 
0.000296267519551062 
0.001570133688075471 
2.403920299031402e-05 
-0.001158273085254292 
0.002053412786285131 
-0.00332484932575555 
0.001010498744701549 
-0.0005927202174797541 
-0.001615263470658851 
0.0007834405656468196 
0.01595611219629062 
-0.0008131401444342123 
-0.0001687828696522942 
-0.002065433276507887 
0.0005617122779927499 
-0.0004730690896096295 
-0.001449634993554923 
-0.002177327039410466 
0.001965008187208211 
0.00455835725811713 
-0.001205849825970967 
-0.002507899507954576 
0.002946179104802272 
-0.008971598465115849 
0.001951646598264112 
-0.003813245364731285 
0.01980816608379038 
-0.001365782588205524 
0.0008206237539390328 
-0.002872415657169931 
-0.00982871462123234 
0.002660527085008482 
0.0001457469647444375 
-0.002011745896995608 
-3.199765216176276e-05 
0.01013205772279296 
0.0006850055215884038 
0.003279905919046039 
-0.001252143909571243 
-0.005853940571082671 
-0.001581719922759981 
0.001891134557337682 
0.006824663677124753 
-0.00145822771632287 
-0.0003365734506890335 
-0.002101595897778193 
-0.005292544879385232 
0.003159931866383177 
0.003393420159201 
-0.001014442463818399 
-0.0008986331061846319 
0.01235477518734117 
-0.005539158562166831 
0.004852431984906732 
-0.00252760117162631 
-0.00588953580038515 
0.00176092587298651 
-0.003253652032285694 
0.006905074084337012 
0.0006861024721327494 
0.00354050647339762 
-0.004955570146373828 
-0.0006645179294093917 
0.005558927238294199 
0.004099921536170464 
0.002307090728964647 
-0.005757644590137754 
0.00889023406216192 
-0.002559560713993068 
0.003389141595085827 
-0.004832906317043626 
-0.008110584110867521 
-0.0003091561959075338 
-0.0004418566806092849 
0.007367156027585945 
0.00197877162861049 
0.001939324346898533 
-0.003186015764181252 
0.002903313349668092 
0.007026547993872094 
0.003456541107091417 
0.0007266215535383676 
-0.008434653479846206 
-5.410958541670825e-05 
-0.001364815822234361 
0.005062549115715447 
-0.001238118630235769 
-0.01086500844031108 
-0.004349962459652705 
-0.0003298792336531681 
0.01419078706815765 
0.006103044567075702 
0.005703834928750712 
-0.007265497098354946 
0.003930825888267336 
0.01010138221144546 
0.007817231053083702 
-0.004481028066873094 
-0.006769602369951653 
-0.006766866366546358 
0.001907374194047943 
-0.001368573645447054 
0.006328346811496732 
-0.01342276385654454 
-0.005324346415658895 
0.002391336061433982 
0.0139291268794231 
0.0009257752404939082 
0.002462564834928254 
-0.004550463834384286 
0.004839647920673021 
0.005245836276130476 
0.005294500615856924 
-0.003199685665224883 
-0.003006480200451478 
-0.002228400094313709 
0.005665227670932155 
0.0005799514698979277 
0.001440532646810927 
-0.01432991706937696 
-0.001032263971122586 
0.0008149811590385702 
0.01459875120210268 
0.001671272723950868 
0.003970885611460088 
-0.01122909120228963 
0.00507983043483821 
0.008086962358864556 
0.003282725216409559 
0.0001554823966524209 
-0.004122847688056634 
0.004874377429606331 
0.006279703456444518 
-0.002706822449085715 
0.004061925431284293 
-0.006250027935694693 
-0.00769020152694031 
-0.0006655241269919004 
0.009562427922151803 
-0.001288302031736708 
-0.0001305237204399084 
-0.004517932627622756 
-0.001785132744657135 
0.004070874254235626 
0.002720779604873822 
0.001541216038837592 
-0.00290184523769745 
0.00909793433388687 
0.003320487560768923 
0.003451933099172623 
-0.0008444659266917199 
0.003979205230195638 
-0.001928703678936122 
-0.002607827327132804 
0.005549758226274319 
0.0006065408516922068 
0.003250113083400935 
-0.001496398161563337 
-0.01228613392291274 
0.002547834813941132 
0.005538119405583047 
0.0003435595835280914 
-0.002384643274133041 
0.00917531291149566 
0.003299345334568331 
0.001858403424811202 
0.0010532526035778 
0.004271093092310962 
-0.005602359111682321 
-0.0002884922054459188 
0.005899909089518956 
-0.002595396955126812 
0.001443211617226518 
-0.003718751031462962 
-0.002331059556148219 
3.331493861602267e-06 
0.002430551639276753 
-0.004235268701628263 
1.836982800972542e-05 
-0.00129622443394049 
0.001062745535199479 
0.003794552875481955 
0.0008853632875114887 
0.003794554054273804 
-0.001140366068282806 
0.001051853253261102 
0.01193822154768084 
-0.007451687143500296 
-0.001547079786238794 
-0.0004077167600387404 
0.0006545273361390252 
-0.002720105694978565 
-0.001576935364377331 
-0.005029668003188568 
-0.009633782395408862 
0.001510441872771926 
0.001267272610074556 
0.004495246634399338 
0.0006004155960552968 
0.006634570640412969 
0.005358852704358606 
0.0005045933869605515 
0.009771111804836145 
-0.001381825121647658 
-0.005697055994852309 
0.001832535987145053 
0.003548937506948995 
-0.0004829390835888122 
-0.001695482292234091 
-0.0007455029251415222 
-0.001755098170226746 
-0.003553323100903848 
0.00224329742653075 
0.007076629899575059 
-0.0004678246273501477 
0.002822136920914126 
-0.001768877795860791 
0.003225615366831877 
-0.0001866589203809439 
-0.002994576372648731 
0.005401834007891178 
3.242841143604885e-05 
0.009641212686166512 
-0.004758553193244005 
0.00028656213917035 
0.005112616652987611 
-0.00765825040240658 
0.002311813725767312 
0.0005276981265283543 
-0.002075244636673546 
0.004072415428386942 
-0.003795095376628124 
-0.002942721149843575 
0.005522189651229675 
-0.002543231442826875 
-0.002226919110745103 
0.003806414382502852 
-0.004589637862536713 
0.003289303803465491 
0.002258890951317986 
0.003340219232047572 
0.004537952317940813 
-0.006718102037004362 
0.01045759598003317 
-0.008395244551586342 
0.0002000567226934508 
0.001627767156973102 
-0.00799839211822821 
-0.002298690197067462 
0.006073990377994005 
-0.002418644522931982 
-0.006645835427231576 
-0.002278045560147826 
-0.00119205412435449 
0.008019930226556986 
0.004078729911446183 
0.005488122378147828 
-0.0008903708526788483 
-0.002721913757457865 
0.009503665233327937 
-0.01274652898958498 
1.128909014866565e-05 
0.00460297357167779 
0.002720081309805651 
-0.005326860886426719 
0.00298295766231454 
-0.002922462660978087 
-0.001867545392798269 
-0.002611727303325582 
0.002824479453997836 
0.008243814639418869 
0.00314418069064401 
0.008703131473178041 
-0.001007248878557813 
-0.002722732089072057 
-0.0009971103829243108 
-0.005990797592679918 
0.005166152361058346 
0.002154061794019087 
-0.003328128720945283 
-0.00278317104888223 
0.001690275107668576 
0.003508953154397341 
-0.003356144167722579 
0.006299091924757016 
0.002114368034770408 
0.000746343654244223 
0.00257312380261492 
0.01021547497746902 
-0.005635810789140618 
-0.009266924595002012 
0.005315564422170975 
-0.001593286900065358 
0.004614390295474536 
-0.002109743179086848 
0.002469353787172778 
0.004306593207906789 
-0.002847435616060347 
-0.001321776336649218 
-0.003916074108059045 
0.002701173013064509 
0.003445059943439991 
-0.005946356504055565 
0.0007978215670354553 
0.003450149921884115 
-0.004084273273942484 
-7.557618533338972e-05 
0.004385498240135878 
0.003953805954540846 
0.005164072421534249 
-0.003155188211504779 
0.003666173824254903 
-0.001745628782833843 
-0.0008374924501075152 
0.0007338720512079577 
-0.002499145979065988 
0.006223917672410133 
-0.001544848097284394 
-0.01408724525717941 
0.005300717936365893 
0.004827292633400389 
0.00242836141177036 
0.002158945373961672 
0.008581198743081589 
0.004385898826619767 
0.004303639582967316 
-0.001149838562053661 
-0.00106522360850628 
-0.004651499753950328 
0.0003895582203964668 
-0.0006938545194386316 
-0.005952462819378122 
0.0001534612192407304 
-0.001560395992372025 
-0.008590648788239109 
0.007273326867248332 
0.008891494850375894 
-0.000222594238510398 
-0.0052614618660258 
0.003929267832720664 
0.00683215530520058 
0.006332216339644517 
0.007025496511282583 
-0.006289239754693068 
-0.001976410186937233 
0.0009500624771379835 
0.002511160926671187 
-0.008684805618389267 
0.004013831167349069 
-0.001695440864091109 
-0.0005084620361131709 
0.005235941979446732 
0.00616710286168819 
-0.002545796051517288 
-0.0006434863076969524 
0.006684858012747207 
0.003506678678440771 
0.007095752891032802 
0.003401883943586334 
-0.01399809838146623 
0.004314698443867537 
0.002215406049416298 
-0.003776301961792717 
-0.004349513181725963 
0.002242214472415802 
0.002902790836910223 
-0.002106087175940422 
0.002837572479047616 
0.007540515972996689 
0.002424174851488286 
-0.003611752797058129 
0.005184319184488387 
0.002053700741672351 
-0.000117045401612053 
-0.001113512700726569 
-0.004420669565220942 
0.003399122943132565 
0.001856322936695532 
0.003696782146534916 
-0.005830592181512644 
0.003398681173582073 
0.003726176749524151 
-0.003936489658889759 
0.005083844508489812 
0.002799446552084605 
0.004529530902534912 
-0.003021367497859128 
0.002445318473658076 
0.002273516771515551 
-0.00214101811310163 
-0.003851097004399755 
-0.008758640230318712 
-0.0009558564082784437 
0.001553182789737904 
-0.0005340042082585872 
0.006928354163165612 
-0.00432667886172886 
-0.003042204132193126 
-0.002860759304958434 
0.004073587210557996 
0.005567266874466879 
-0.001392122753655039 
-0.005035363352406523 
-0.004745801773778296 
-0.001745515032269653 
-0.001199401696400524 
-0.002640270958764142 
-0.004468048577711146 
-0.001876956370700696 
-0.002563714306850331 
0.002208310505161921 
0.006126309166748362 
-0.004279765747447219 
-0.001711724433677542 
0.003101172049763091 
0.0006694908352303991 
0.004281675024662897 
0.001008542310090627 
-0.002700974826295738 
-0.004661879228364623 
-5.907455573810101e-05 
-0.0004760755649535132 
-0.002377083348295201 
0.001554085205750961 
-0.003769127378607707 
-0.001729667881519463 
0.00122277025747051 
0.003680558269641687 
-0.002656052866162029 
-0.00383763702668701 
0.0007685284851991294 
0.002687485139246165 
0.01093918421838893 
-0.002978610479137868 
-0.004987525004670854 
-0.002807440561493472 
-0.001134993322967144 
0.004138608959722494 
0.001479848725972989 
0.001891242095944089 
-0.006026506127572156 
-0.002765968715362017 
-0.005809326500412616 
0.002852678790501609 
-0.002050315818514956 
0.0002103754113951447 
0.001398899995982002 
0.001942887165889579 
0.004334863806925018 
0.002010565806620208 
-0.008651582708719255 
-0.004178605457431786 
-0.003228715766004428 
0.007645356771479686 
-0.0003044440233372867 
-0.004311204256387303 
-0.003518562967475835 
-0.004853667984206889 
0.006070904742740276 
-0.001196812066382139 
0.004459800321404694 
-0.002514401681417265 
0.004885911528935642 
-0.002501372595853361 
-0.0005163083003082012 
0.001569860030721578 
-0.006829620885592375 
0.001101047479236039 
-0.01106294171161483 
0.001425594013921858 
-0.000947965625969672 
-0.00153483067668468 
-0.003575265060869745 
0.0003713553062506581 
0.003043041696247636 
-0.004290542941219559 
0.005648859073875717 
-0.001186846468033465 
0.004803295907043081 
-0.001023045767608555 
0.00187237028589049 
-0.002847847254932554 
-0.00648223095834226 
0.01339822483177398 
-0.009436506279572958 
0.01066890829389132 
-0.005771627282660091 
-0.007248658069908842 
0.002903864909660901 
-0.008408301064143767 
0.001910649831737918 
-0.008755806299264925 
-0.00229929604975294 
-0.00421186008498575 
0.003635476234389947 
-0.002504659781661117 
0.004640582086484876 
-0.004785606443270922 
-0.0001063412548369379 
0.01349385116571826 
-0.006603740502715114 
0.00708468888803603 
-0.006720284925163126 
-0.002845469432862657 
-0.001460372083211942 
-0.0056059184053622 
0.008959826722339701 
-0.01142394555432381 
-0.00200437491118259 
-0.003619615828154975 
-0.00226445586005487 
0.004432004981439831 
0.001439598621263237 
0.0008625542634223585 
-0.0008683383146949507 
0.004679789393081609 
-0.002452682785093958 
-0.001383785788715569 
-0.006050494045551595 
0.003026132559497725 
-0.0006853751802106558 
-0.000170780086382195 
0.01500617433601931 
-0.002941659795701847 
-0.002446225910043405 
-0.002705743600630956 
-0.004105696856186359 
-0.004381620027863098 
0.002027160236712299 
-4.093743187780297e-05 
0.0005246209441823502 
0.00530890975584232 
-0.002448874806094576 
-0.004980063327912608 
-0.005129680556706082 
-0.002590164390197316 
0.001303710562461198 
0.001825795504707844 
0.01626902829049672 
-0.006289002042063943 
-0.000161380461731854 
-0.003941816270055571 
-0.01019520301159451 
-0.0001091555507606527 
0.00772685550278999 
0.0001000409686204372 
0.0008390450895432966 
0.008885921458731695 
6.350540832048509e-05 
0.002596156026594722 
-0.01051508941406376 
0.00394773827439627 
-0.001108081454497065 
0.002806459074542398 
0.00646564174791797 
-0.00451313609615929 
-0.002027531644928398 
0.0003385427929263059 
-0.01096213866994843 
0.004127049124861674 
0.007404762692517814 
-0.002612888136377235 
0.001524329900174533 
0.004190673115358923 
0.0004378315473788545 
-0.001495637748457797 
-0.008461088255148351 
-0.0004766622287072503 
-0.0004753939309066649 
-0.0001417218141342771 
0.008997566113449281 
-0.002036273733204066 
0.006330533255852086 
-0.0002861456394858172 
-0.006097613528807496 
0.004405151118831285 
0.006751151893905548 
-0.003913616800201017 
-0.006403339043798385 
0.001463360496173343 
0.003017723160741907 
0.001478501507780008 
-0.004504180890799551 
-0.005092257721866543 
0.001253387282701372 
-0.002433383708215684 
0.008101582753250954 
-0.0004897846622451573 
0.006329292471928405 
0.002767778575302769 
-0.00282269787679869 
0.004797440799025094 
0.0005652711162371256 
-0.002931624139510198 
-0.01071356815886458 
-0.001567439040228808 
0.004805400341853079 
0.001753425280639244 
-0.003574730137749164 
-0.004522084334291194 
-0.001584299151716064 
-0.003153460901484312 
0.01368593711701255 
0.006089025188574615 
0.005362720553941651 
-0.002315649446403424 
0.004542868662732984 
0.007343534110057 
0.005778782836983819 
-0.008919073788930044 
-0.007951106415822924 
-0.004221258814422857 
-0.002264707129033769 
0.004504317826362775 
-0.001681337481349436 
-0.004544365989926755 
-0.001736873651909984 
-0.001956817546375045 
0.01016777743842296 
0.001448710662337908 
0.002372736925339188 
-0.002247659420273169 
-0.000477820185346624 
0.004402726242158575 
0.008224589841794375 
-0.006828399442043889 
-0.0009812621715621394 
-0.0032091247920645 
0.001317983270756132 
0.003531675358041837 
0.001965922566573509 
-0.0002533405867756312 
-0.008028130989242934 
0.001785766680101399 
0.006769363202015535 
-0.0005073563284838944 
0.005301468133304016 
-0.009693371979206555 
-0.007297889992491283 
0.009721587288398366 
0.007800338102009392 
-0.000736567719766979 
-0.005362538195904937 
0.003603302257546217 
0.002800087073819543 
0.00300088439805846 
0.00144576915159329 
0.0007526600751724752 
-0.004839106449694991 
-0.006948726445706322 
0.005985086863963815 
0.004284749993397586 
-0.002341462020924098 
-0.007950417307399845 
-0.00737510372836921 
0.004547371883183116 
0.0117195729889224 
-0.000879687611312164 
-0.001281137554271695 
0.00612364200090838 
-0.001473162340166993 
0.00856190150320542 
-0.002490032914777437 
0.00133304338206514 
-0.005722754769733115 
-0.001537487264884099 
0.001111341574114098 
0.003166989534873237 
0.001127968657596884 
-0.003710515710273419 
-0.01474271127637299 
0.003146366000853076 
0.01071437653359825 
0.0003872388816164196 
-0.003491038784386276 
0.001074047055522455 
0.00111596221232495 
0.00219836030779871 
0.002753003130340428 
0.0006593002813820618 
-0.0005669603691108239 
-0.00334474568949148 
0.005585779755554452 
-0.001782593234039955 
0.001785278799687826 
-0.003232995425354136 
-0.004655461876688979 
0.0004300040589574372 
0.007637773085616011 
0.0002136499455182844 
-0.0008306041619335908 
-0.001509807351502585 
0.003490247399355454 
0.005171639440920014 
-0.0094174408940399 
0.003146184163221805 
-0.001139820746748992 
0.002233361540219793 
0.00540749553671951 
-6.42285393824943e-05 
-0.0001059360151948342 
-0.0003832255273974987 
-0.0009316961584615018 
-0.002755448903637093 
0.0005956042250363935 
-0.000676944504355583 
-0.008238014189910227 
0.001266517483601065 
0.002721326886341503 
0.004542359178959696 
-0.005934611689468134 
0.004289550598739176 
-0.0008840030851418796 
0.001485430284060611 
0.002688593134778883 
0.002538099019955326 
-0.0007311558366779572 
-0.002393502966707282 
0.003764820111276485 
-0.001663285899888588 
0.00456009282465948 
-0.004206246554826653 
-0.005561561220891941 
-0.002267022197184263 
0.005261360104310627 
0.004190231307185046 
-0.007901777438315879 
0.0003984509372379666 
-0.0004368528682798189 
0.007991769070462267 
0.0007615433105823165 
-0.001889259017031103 
0.005639716187490989 
3.467089571279335e-05 
0.002778873267950259 
-0.002127737604548975 
0.004812862832243447 
-0.001235837879820674 
-0.004525328850252425 
0.009179259566090944 
0.000375797497521158 
-0.004377694770029367 
-0.006501676514382447 
-0.003166876523755036 
-0.004564068971305828 
0.006761722039910811 
-0.003258228318934975 
-0.0008622349431889951 
0.0008017503587573824 
-0.004506989407847624 
0.002800301955525638 
0.003127693011837098 
-0.002665890141102005 
0.001630786103235832 
-0.001941950313837788 
0.00119421383588243 
-0.006323842878609452 
0.001801056445226141 
-0.003190601613040474 
-0.0004454993538890037 
-0.002526236519161691 
0.004754742346246744 
0.002527561984565504 
-0.007041271239301396 
0.002179004903524 
-0.004180982238791014 
0.003178621471164825 
0.006528724201945038 
0.007225844421871628 
-0.001840402829618824 
0.001784393532927996 
0.00466063771053053 
-0.01088274672074515 
0.005998596023005049 
-0.00588398270673319 
-0.001268802024719979 
-0.003478317033717697 
0.001885269722090351 
0.0008482559033395709 
-0.003143743034249396 
-0.0003422712980909228 
-0.0004194406099959353 
-0.007326713034302756 
0.008829134507315784 
0.0054007572716492 
-0.0008643631945021513 
-0.002193141742161472 
0.002849096806842553 
-0.004671012785688208 
0.006013886139250839 
-0.002394912413101204 
0.0007891172715823191 
-0.00136367967933959 
0.003731496809528398 
0.003491857099414513 
-0.004394159938726733 
0.007687399345350446 
-0.004803905182096621 
-0.007296751790662247 
0.002642607641621088 
0.01346723245240699 
-0.004970230560041877 
-0.007551459402338805 
0.007050463674162432 
-4.984321258177539e-05 
0.006098902940408583 
-0.001202025799137412 
0.005575040174542663 
0.003041208088549416 
0.0004485867663382756 
-0.005642353257401225 
-0.004403234351200221 
-0.00105157621365771 
-0.001186330513263232 
-8.770001934248766e-05 
-0.004108267005539863 
0.01280721017299406 
-0.001654172718971404 
0.001590202635873787 
-0.004358180552488895 
-0.002108273326753193 
0.003712419103000953 
0.001897102445549367 
0.006636696928630561 
0.005511820840063845 
0.001986962303958235 
-0.002396574585228808 
0.00199911647986208 
0.00491754172348155 
-0.007919944258284127 
-0.008936630747372708 
0.004782115309834698 
0.007198679693226196 
0.0002158881479471258 
0.005547241492549221 
0.002841636713635931 
-0.001034706130199773 
0.0107024053446475 
-0.004627548165121884 
0.006947423625319473 
-0.001352616699810491 
0.001638278444840881 
-0.004266089456077394 
-0.003264722129452442 
0.003928280307989739 
-0.00460453208517957 
-0.005192000031809601 
0.005971523187955773 
0.008163535368009074 
-0.00277917671823417 
0.00156058445968912 
0.008420524460859204 
-0.002814047061700214 
0.008923336452484689 
-0.0009660296667459169 
0.0004016828371935708 
0.000569504622462144 
-0.001441337382631595 
-0.0004551362511212446 
-0.003847803762094512 
0.008134128603688002 
0.001535508108451689 
-0.003578806721001318 
0.008581442461777028 
0.006057534847177221 
-0.001978711929555844 
0.006143842792640401 
-0.0001895899146338982 
-0.001457879153822883 
0.002755964150919128 
-0.003263037994926507 
0.001230341158851097 
-0.0007093465595679049 
-0.004727624378683109 
-0.0002729675372284505 
-0.004322071513524995 
0.008682101413365648 
0.002694018155901885 
0.001826155641821096 
0.004137102707750002 
0.007702686766550786 
0.002918513926833403 
-0.000148432251796053 
0.005407218607275655 
-0.002140921590568838 
0.0006864097348002903 
-0.005379404136634488 
-0.0008181279071817283 
-0.003245087017823122 
-0.003373314758523782 
0.00707415771137605 
-0.00662123094831907 
0.008503610418466709 
-0.0003561178419051166 
0.0008689128028252441 
0.004958710795384022 
0.002051795558925847 
0.002961474645079269 
-0.005619415909509117 
-0.001091407698355894 
-0.0006750488909154205 
-0.003620833300726662 
-0.002649701258123189 
0.0006085718954889104 
-0.007699635460697608 
-0.002670605482288554 
0.002543931586690875 
0.004666033911337657 
-0.002242022913495757 
-0.0005892254363363731 
-0.00185426562119352 
0.002439926422935806 
0.00340074910197626 
-0.000486195731242677 
0.0006387819314715793 
-0.006035428665559495 
-0.005460947032372423 
0.002053650101182932 
-0.002405808038951089 
-0.009976670416946007 
-0.0007188112119731381 
0.001755739047762049 
0.005806103321157428 
0.003644440227581148 
-0.005232687904004299 
-0.001712432644497517 
-0.0006476109579601457 
0.0008365202592021579 
0.003034277866712013 
0.001861314439889902 
0.001062971401048719 
-0.008248338145031687 
-0.005742818647791072 
0.004570125482063782 
-0.003611056807418121 
-0.002466281595472962 
-0.001505793227567243 
-0.00453206318155439 
0.006563340141979726 
0.003255216800649564 
-0.003731811814170948 
-0.0008843032259501582 
0.004306532710624039 
-0.0002771824946916237 
0.01227741335751309 
0.001845991281945601 
-0.003199838851096259 
-0.002252807692740767 
-0.007077183737499409 
0.008936237899042873 
-0.005518031455925948 
-0.002772119087039949 
-0.004705978283190145 
-0.009517832326644734 
0.002739071500252898 
0.003012032339329109 
0.0005368118632679716 
-0.0004047739942657517 
-0.00116263967396419 
0.002112055201948088 
0.005602063028220381 
0.00202032806831903 
-0.00167293881078631 
-0.007846710339724998 
-0.006892486240230379 
0.006653332385660015 
-0.004478181010781583 
-0.004268418907327768 
0.0001448508269465432 
-0.008826068652782156 
0.003211218451779376 
0.002986283876673542 
0.001120599792490886 
-0.004219877394620303 
-0.0004847489259169082 
0.002048929930740043 
0.0008217457250646822 
-0.003393878831964954 
-0.001059355951254236 
0.0003189811227014467 
-0.009956623848155708 
0.00227438608930702 
-0.007862721518484763 
0.001613801022054333 
-0.0009915915899774911 
-0.000369872489887778 
0.0009772798742283999 
-0.0002085517849002218 
-0.002592653750517297 
0.0002722965680987416 
-0.002916031278772534 
0.003089541920783683 
0.0003403067282705172 
0.0002448044152170937 
0.0002083051362116542 
0.007249653280627817 
-0.006753694076263754 
0.006172177677834076 
-0.006519482744814603 
-0.004854225610816033 
0.0004060670592003442 
-0.001587326110506591 
-0.004867572640538063 
-0.008893183862561367 
-0.006225212675019761 
-0.003194115832448497 
0.009190468860804251 
0.0004147297396917404 
-0.0002815759842557344 
-0.001584271982382314 
0.0007712051264942988 
0.006335819754831223 
-0.006094404823909895 
0.001690490905120613 
-0.006103087625614123 
-0.002446185927204229 
-0.0009509278852282714 
-0.004241737543721792 
0.004458724181205509 
-0.01224041096804717 
0.00159545680881871 
0.0001113787248558885 
0.005711990958013156 
0.00359288569555809 
0.00584743036220058 
-0.0005575186446396989 
-0.001244449075241067 
0.002281776385165391 
-0.008721466135824594 
-0.003072091122727993 
-0.01123327444726845 
0.003295626141819832 
-0.0007157166704410355 
-0.0003687748201104146 
0.006723939706696799 
-0.009249766502793393 
0.003553316974451427 
-0.0008267752931088337 
0.0002650866078457843 
-0.002070176855548246 
0.004574386207883949 
0.001222494275070718 
-0.003345012668366051 
0.007471412550663421 
-0.01140688877490114 
-0.005096158936155662 
-0.006949710047600761 
0.003651124638586633 
0.001189609770469024 
0.00312208547236493 
0.009683324542314031 
-0.006021655777953596 
-0.002054701006208701 
0.0001227205471927033 
0.002877654245047834 
-0.005989828238964622 
0.007176589226523511 
-0.003916147543712723 
-0.003234146325721642 
0.007318246815025567 
-0.0003745673350586369 
0.0004873301513676635 
-0.01124529993469724 
0.003557442300376884 
0.0003811255943686028 
-0.002237654996084739 
0.005309055251670557 
-0.004618728505961366 
-0.002352413637452026 
0.003535575214507993 
0.0003679246880702485 
-0.002641868103712202 
0.008101232071773568 
-0.00617187506569699 
0.0005841662271941023 
0.001740433573870487 
0.006582116107417386 
-0.004683507005606213 
-0.001841293425691257 
-0.00817931428400299 
0.001273571562185324 
-0.007408121318861974 
0.01206465946120465 
-0.003424722094920781 
0.006512297461165215 
0.000829337939385746 
-0.000312888520429705 
-0.004218647947363647 
0.008334676201235656 
-0.001464832341688739 
-0.0007232264993796015 
0.0009794699543367658 
0.0006209051581027199 
-0.0001326550106608136 
0.005399066761550999 
-0.01332207329769813 
0.002246636070127265 
-0.007622151001640555 
0.01032970839878959 
-0.00106882926395306 
0.006216705967580654 
-0.0007284822023819038 
0.004488329760381442 
-0.003244400485454004 
0.00113224653684254 
-0.001166624273843972 
-0.005657556443010846 
-0.005582358756987505 
0.002886585315117468 
0.004213139553908026 
0.001515822001816827 
-0.01122000987532832 
0.003419746427887691 
-0.0004878489681253071 
0.01076443128512841 
0.0008367269048480994 
0.0113764196783745 
-0.002922264746912687 
0.007811650173279737 
-0.001106617797730311 
-0.001149927794605259 
-0.007229410029500532 
-0.01045642837756405 
0.002616758867790564 
-0.002857815018414478 
0.005270757779591604 
0.003403422499260531 
-0.003087781819752454 
0.002090600177463572 
0.001389626570328941 
0.007367328358688128 
0.00486491152067024 
-0.0005479363811379273 
0.001784201514068501 
0.001172132396726981 
0.002323926086636661 
0.004188796960370727 
-0.003532861667019726 
-0.004885111125031288 
0.001023642617460134 
-0.002006694514464113 
0.00761815696674609 
0.001370971135485002 
0.004753127092081141 
-0.003441990695360308 
0.0009394579173890409 
0.003027498286015545 
-0.0004015985445626291 
7.231192262867872e-05 
0.001885372815343497 
-0.006272437241033811 
0.006115985774240845 
0.00980309578966377 
-0.0009903681307355085 
-0.005397780390040061 
0.007397864107698702 
0.0003889124042273071 
0.006325485878553299 
-0.0003512964346304801 
-0.0001591086570228087 
0.006947561776861269 
-0.006740338462653581 
-0.00302233753464284 
0.001379004508324369 
0.0009107465466389729 
0.002156811455791538 
-0.001321874424809674 
0.002231288836806402 
0.007944025590429751 
0.003931530694145561 
-0.001993103748631446 
0.006118221789475905 
-0.004474019492098356 
0.003783166165371548 
-0.003639732578232061 
-0.000588750849280762 
0.001902344979158306 
-0.00466569822495907 
0.003040088946141989 
0.001919931652257821 
-0.004228174091848057 
0.007049413484280177 
-0.007935580707853138 
0.005971193916024986 
0.00660174825293161 
0.005210333520125732 
-0.001955097057875425 
0.005496052468897655 
-0.002390123302152445 
-0.0002548690343084377 
-0.004502743953665106 
-0.01210879912652071 
0.006081345987063939 
-0.002694051066406789 
0.007801980044169618 
-0.001907018005642382 
-0.002075980894266348 
0.001846153166167336 
-0.0006454348629683996 
0.003731315299370167 
0.009295971682671635 
0.002688528990630741 
-0.003130126514270579 
0.003433654502839566 
0.00150017094802252 
-0.002506555961926218 
-0.01019448170941579 
-0.007868415875572561 
0.0002746014732523449 
0.002448569968908292 
0.006176687273330993 
-0.00182681446730235 
0.002915702357550355 
0.001726988202336445 
0.01119888864607273 
-0.003744614055260776 
0.003977638116784621 
0.0005326351041824227 
-0.002988186117367285 
0.002903319241932012 
0.004185974712432277 
-0.0005543822607577858 
-0.006684959153747965 
-0.002855383712528117 
-0.001158752961708887 
0.001212003172499317 
-0.003083627921266962 
-0.003619430916478058 
0.000229470527849158 
-0.002754494311389987 
0.006724352628530652 
0.001302908353673493 
0.004697176763374597 
-0.004529997796150062 
-0.001774435523459797 
-0.0002216904272044042 
0.002386446482139307 
1.270513524543493e-05 
-0.005365779289030194 
0.000250451158878842 
0.001567078020957627 
0.007610794595894583 
0.00224628071216347 
-0.00130802543770726 
-0.001211663743897544 
-0.001068617330751798 
0.002518053947041789 
0.002694794164722205 
0.0007444914597340247 
-0.001912614202364486 
-0.002915809533714188 
0.006531023180673251 
0.0003488015728076675 
0.004251981648236362 
-0.01050609674871961 
-0.003446414550880411 
-0.002802250857080813 
0.005119223926194304 
-0.001551846005354203 
-0.001679873094004452 
-0.00688533899731484 
-0.001323120537420013 
0.008060865318277318 
