solver_type L2R_L2LOSS_SVC_DUAL
nr_class 2
label 1 2
nr_feature 400
bias -1
w
-0.07009556576400604 
-0.06289273378334519 
0.08635322334751686 
-0.03721543931236244 
-0.08612426488070557 
-0.08234567000553712 
0.01517081892467268 
-0.03752073410339984 
-0.0239027229808052 
-0.03967256489577809 
-0.07517005637779123 
-0.05625129295646884 
0.05183233823902676 
-0.07967028307922798 
-0.04924438219518777 
-0.01498255060127662 
-0.002598724364664263 
-0.0596928903677609 
-0.02826261083889926 
-0.04238992014710521 
-0.02780765042677903 
-0.05052280236548985 
-0.002490602891735942 
-0.06059273413041386 
-0.05038900765124805 
-0.02591619543808387 
-0.02455979271972502 
-0.04578706410946705 
-0.02022420910043493 
0.02693867091781948 
-0.03495846987505433 
-0.04186727789187323 
0.06741711810735675 
-0.08070773643998219 
-0.07305994066708998 
-0.03517878773880881 
0.01347203191003284 
-0.03300245126427877 
-0.01043668420976564 
0.01564713091490253 
-0.03660070696955223 
-0.05738404169712553 
-0.02450142140681592 
0.01222507821654806 
-0.04433016266942847 
-0.0260594748574017 
0.001592637398945421 
-0.0283200113138853 
0.00383098003475502 
0.04503614963941305 
-0.05179032656948284 
-0.0367715664294834 
0.005387539025751452 
0.0170964118157238 
-0.03822333111445168 
-0.06722009399571829 
-0.03821184790750232 
-0.01556643408858085 
-0.002751453146107939 
-0.005965608138350971 
0.002365233848256393 
-0.04183578545972878 
-0.02406217302964721 
-0.0144408218691567 
0.03554665284537697 
-0.03655543659901216 
-0.02655707388163393 
-0.08079898504044601 
-0.03046269947290116 
0.004770335663216664 
-0.04141987642221184 
-0.0386686821043191 
0.01331503864954371 
-0.02257524141265438 
-0.02060526456393359 
-0.002856189627940628 
-0.02654789175194296 
-0.02002122447171678 
0.02446744461183839 
0.05557717458203899 
0.001687674445768694 
-0.01685528680936842 
-0.08238806493398121 
0.009099154817149034 
-0.04534437121390514 
-0.003390704713671895 
0.01660250335384046 
-0.01987394925550776 
-0.002469256859735697 
0.01513104243766727 
-0.02882695000777641 
-0.06785469486857645 
-0.07237128685143876 
0.1179393521141785 
-0.01755743865245312 
-0.04900288001041736 
-0.05652269960555357 
-0.08076155904908072 
0.1121171977221236 
-0.0164665292312149 
0.05378198317183363 
-0.08704976770217822 
-0.1347945799416969 
-0.04818286421768929 
0.1289727264412565 
0.02920757808449878 
-0.09635377032674566 
-0.146695351934108 
-0.06584820377413382 
0.09829235786729901 
0.01287920219865841 
-0.01822838039393004 
-0.06534908587150118 
-0.01884020874701997 
-0.01438725806299803 
0.02839515683897985 
-0.000698422086503489 
-0.03392366472285942 
0.007977350691230801 
0.05974117755924461 
-0.0173512615796681 
0.003617511792222874 
-0.03051882305845818 
0.01022549238338423 
-0.001635659350896232 
0.02956592621819817 
0.03928934735301891 
0.03136414766715164 
0.02593231064416784 
0.05130358652903576 
0.02547964809642904 
-0.01357523237600634 
-0.06289383873126603 
0.0489608009514881 
0.05028198686990169 
-0.02449291971527553 
-0.04524382368073448 
-0.09102803085374128 
0.01468484129189903 
0.00214122840608582 
0.1103158399580348 
-0.07666214835350479 
-0.1364176830307412 
-0.07485591594371485 
0.1169529147202481 
0.05239400297882008 
-0.07597170319407938 
-0.1432369357025971 
-0.07087999505894371 
0.09304838387873365 
-0.005864157071189841 
-0.01113676218999776 
-0.03328596483104664 
0.001120232986603384 
0.03189432044558502 
0.02889063477763621 
-0.001049490132379649 
0.01721551541211547 
0.004643885278513381 
0.0498543995858088 
-0.01286322266008938 
0.006170081015328221 
0.002200388786407737 
0.01600100913572416 
-0.04604678355111932 
0.03037696813078603 
0.03117879873502043 
-0.029433425227533 
0.01994597821612581 
0.07261873048421665 
0.0910867274869183 
-0.004066825511859802 
-0.06726284624664762 
-0.01989306225819457 
0.01826774290441598 
0.02913695187632501 
-0.02385165005177222 
-0.08445294705176505 
0.01909410780849849 
0.01159692727020374 
0.08374866509057409 
0.0005897886917896328 
-0.1027526629267927 
-0.04610036014228955 
0.06865897170946744 
0.07380004192311276 
-0.03502534288897006 
-0.1593074089295383 
-0.04731738557433359 
0.05305608617166178 
-0.002708659499415351 
-0.007334989247793741 
-0.01621889463042944 
0.04697980472217547 
0.06931215530414681 
0.03879292331753272 
-0.0008686056761342551 
-0.03911575011778613 
-0.02405784114163688 
0.03561699077945297 
0.05442868202901191 
4.481878888309572e-07 
-0.0143700047161276 
0.001245276067336856 
-0.02036548923056841 
0.01724184989800015 
0.01396769669501371 
-0.03988508350180166 
-0.008194335032418005 
0.05869103440887401 
0.06839293298669903 
-0.02494942119801738 
-0.07290884332788188 
-0.01062552434666526 
0.01631071788954146 
0.08098788501610833 
-0.01744159220741227 
-0.0552074112551435 
-0.0113482370295004 
0.02232893155024167 
0.104237283318114 
-0.02579453693977069 
-0.07956411505787758 
-0.01846343007224984 
0.04313694678146812 
0.09875533100451811 
-0.02955248502144629 
-0.1260150571117291 
-0.054380568775301 
0.08156328407784572 
-0.01008271019713606 
0.02570222940200518 
-0.01353721396424749 
0.02567477621299029 
0.1065831932090197 
0.07486611701814733 
-0.02243117348859698 
-0.06221844112966714 
-0.01702409026679676 
-0.02567326476207294 
0.04102909159940767 
2.796440031732549e-14 
-0.01393125906444089 
0.02722060451086346 
-0.01789884485959395 
0.02607433948786165 
0.01324529541449421 
-0.008295835865791662 
-0.009495428640864802 
0.02752175931909638 
0.05556458333540143 
-0.03586126601093691 
-0.07277637024993081 
-0.04079499553713731 
0.004131536043934183 
0.1033467938727216 
-0.04389535416370662 
-0.05935214507700651 
-0.03617635990341576 
-0.01877943311073898 
0.1127484505647821 
-0.05286026884481553 
-0.1615695225346841 
-0.0519843705729885 
0.02471269147115355 
0.03143157379927075 
-0.05716745161431977 
-0.08817436942866 
-0.0390648808391457 
0.08674876132045642 
0.002512831993599514 
0.03362353821698229 
-0.06527595880497949 
-0.03635613888723693 
0.04460659551539612 
0.04583602746555241 
-0.006714608057742277 
-0.0331045657194002 
-0.03989725749735366 
-0.01689578320370678 
-0.01564914316221824 
0.008857409561253369 
0.01659488052837866 
0.03026490900910367 
-0.02402733691316312 
-0.03427760132081014 
-0.03203280421688698 
0.02912106031291056 
-0.02140026411338239 
-0.001898783777085596 
0.01384375959893845 
-0.002953649733102748 
-0.05848070554395535 
-0.05971882227565974 
0.009823838234199337 
0.02295497837160574 
-0.02324989419581208 
-0.009177051430018374 
-0.06503986655773675 
-0.01566351662758598 
0.07204316477602286 
-0.02158836963348321 
-0.03188438053942211 
-0.0280304275461199 
0.03785898123633669 
0.02935507976339344 
-0.06156830745467443 
-0.006346892263821203 
-0.07534064837749159 
0.07944503606443765 
0.01164876912138315 
0.03714459886870184 
-0.009545489298426423 
0.01571970970736165 
0.01221733676704921 
0.05933329382627206 
0.0186936686335299 
0.08307672247276307 
0.0005346491658165528 
0.00336793602790893 
-0.04573796479624787 
0.002421603027437809 
-0.01179371156000105 
0.04113658960922287 
0.007719966773340073 
0.005757630339279475 
0.01574048752440408 
0.006592599553899066 
0.01708183898817585 
-0.02436479451612738 
0.01778449695887569 
0.01367780686086598 
-0.03945273905371446 
0.01777173051712061 
0.009728743489629675 
0.04311765750669554 
-0.005339492030785145 
-0.01615178479575623 
-0.02124180524840261 
-0.008455439727641201 
0.08863481629592918 
-0.01761296290060092 
-0.09237477163650581 
-0.003214053427878302 
0.06931023055383431 
0.05335870379973144 
-0.04291666274374861 
-0.05748997634284878 
-0.03678457824032089 
0.04449907490309203 
0.03372349514270939 
-0.01061507209130877 
-0.00989183845688874 
0.01966498723814717 
-0.01362619183807055 
0.01083492399571264 
-0.03296035387741823 
0.008908066777855302 
-0.0427820575163241 
-0.01118936468811755 
-0.01444157405784268 
8.258567469207248e-08 
0.02182738433879457 
-8.278018093539918e-08 
-0.01180287049942359 
-0.0375084694088569 
0.003205503955960416 
0.03497009382336042 
0.007610796584982179 
-0.0421083372232447 
0.01549358319778641 
0.02734507677864653 
-0.005391533865035043 
0.00419355680019741 
0.01210433312637939 
-0.009377958524224338 
-0.004024137909380375 
0.006226119256467123 
-0.01300086353730316 
0.01055769485082275 
0.03297171684544633 
0.02987967287932236 
-0.04823620984550956 
-0.03188946394011492 
-0.01600566003461217 
-0.01261378406462941 
-0.04880376892936928 
-0.06217068939284851 
-0.07139142703701627 
-0.05208123376368058 
-0.004956912472527778 
-0.01286915773109853 
-0.05301134844726085 
-0.01872393935519 
-0.05871395440324961 
-0.09036494229901766 
-0.05252111174485137 
-0.008352067278591155 
-0.05303480650954064 
-0.05201105120664979 
