solver_type L2R_L2LOSS_SVC_DUAL
nr_class 2
label 1 2
nr_feature 40960
bias -1
w
0.0002268064643472687 
-0.001056261036870166 
0.0007321017600060517 
-0.002727660159089972 
0 
-0.005013591325013101 
-0.0007321017600060517 
-0.002727660159089972 
-0.0002268064643472687 
-0.001056261036870166 
0.0009061847446820813 
-0.001108533084207557 
0.0007579852190033158 
-0.002633487798541303 
0 
-0.00416056772805562 
-0.0007579852190033158 
-0.002633487798541303 
-0.0009061847446820813 
-0.001108533084207557 
0.0008589375096269412 
-0.0009731311877677086 
0.0009260196749470906 
-0.00246576196158552 
0 
-0.004052577702761921 
-0.0009260196749470906 
-0.00246576196158552 
-0.0008589375096269412 
-0.0009731311877677086 
0.0009153220242028586 
-0.002573135539019358 
0.0006475671289094877 
-0.005967943815181859 
0 
-0.008744169671168733 
-0.0006475671289094877 
-0.005967943815181859 
-0.0009153220242028586 
-0.002573135539019358 
0.001831188271136076 
-0.001557049675816214 
0.001662276907517576 
-0.00489858564894895 
0 
-0.007445773339694184 
-0.001662276907517576 
-0.00489858564894895 
-0.001831188271136076 
-0.001557049675816214 
0.001125500924033579 
0.0003670851898244824 
0.001996115292943218 
-0.00222506256169399 
0 
-0.004615356089987703 
-0.001996115292943218 
-0.00222506256169399 
-0.001125500924033579 
0.0003670851898244824 
0.001865480043262403 
-0.001329164959607802 
0.001515962002374465 
-0.004582716625953511 
0 
-0.006569449553278765 
-0.001515962002374465 
-0.004582716625953511 
-0.001865480043262403 
-0.001329164959607802 
0.001704433268319721 
-0.001071184499587197 
0.002307681125652855 
-0.004712403948666058 
0 
-0.008318105941591665 
-0.002307681125652855 
-0.004712403948666058 
-0.001704433268319721 
-0.001071184499587197 
0.001133923738330122 
0.0003951388574186252 
0.0008084799774523129 
-0.00061020174413431 
0 
-0.0002368838787704949 
-0.0008084799774523129 
-0.00061020174413431 
-0.001133923738330122 
0.0003951388574186252 
-0.0002373262399605614 
-0.001105376963101249 
-0.001518394997382309 
-0.0005397433769207258 
0 
0.001350231890504391 
0.001518394997382309 
-0.0005397433769207258 
0.0002373262399605614 
-0.001105376963101249 
-0.000514833816350235 
-0.0006782104421898885 
-0.001169436619908685 
-0.0001370133941663209 
0 
0.0009190041651199161 
0.001169436619908685 
-0.0001370133941663209 
0.000514833816350235 
-0.0006782104421898885 
0.001154028705720212 
0.0001101998076955073 
0.001373353936602488 
-0.001346507334827162 
0 
-0.002521483851537339 
-0.001373353936602488 
-0.001346507334827162 
-0.001154028705720212 
0.0001101998076955073 
0.0008881125789860082 
-0.001169317115396085 
-0.0001352222396276957 
-0.002728152202016932 
0 
-0.002383943334020758 
0.0001352222396276957 
-0.002728152202016932 
-0.0008881125789860082 
-0.001169317115396085 
0.001877824156983245 
-0.00173685120521321 
0.001749607060018978 
-0.004944151110631451 
0 
-0.007737528317702154 
-0.001749607060018978 
-0.004944151110631451 
-0.001877824156983245 
-0.00173685120521321 
0.0006313910829641588 
-0.0004037094876067217 
0.0003602878453755488 
-0.001471251909982601 
0 
-0.001727789422796074 
-0.0003602878453755488 
-0.001471251909982601 
-0.0006313910829641588 
-0.0004037094876067217 
0.00119426828976648 
0.001119536133072631 
0.0005917500656457773 
0.002495633053619693 
0 
0.004785695937701354 
-0.0005917500656457773 
0.002495633053619693 
-0.00119426828976648 
0.001119536133072631 
-0.0002907132757765641 
0.0002241217770653382 
-0.001000286934440398 
0.001607905010930277 
0 
0.00368973913138448 
0.001000286934440398 
0.001607905010930277 
0.0002907132757765641 
0.0002241217770653382 
-0.0009550890349705728 
-0.0008206487777545043 
-0.003471356212017348 
0.001444830051292497 
0 
0.006806035460663296 
0.003471356212017348 
0.001444830051292497 
0.0009550890349705728 
-0.0008206487777545043 
0.0004883796095315207 
-0.0006137237801722739 
0.0003965949062389696 
-0.001606711041146633 
0 
-0.002250917209247683 
-0.0003965949062389696 
-0.001606711041146633 
-0.0004883796095315207 
-0.0006137237801722739 
-0.0006879318926249024 
-0.002618730518924147 
-0.001470085467626406 
-0.004064646761666437 
0 
-0.004749758104144386 
0.001470085467626406 
-0.004064646761666437 
0.0006879318926249024 
-0.002618730518924147 
0.0007186506723905765 
-0.001647848750841747 
-9.393799870491431e-05 
-0.00283422133933257 
0 
-0.003248181898485057 
9.393799870491431e-05 
-0.00283422133933257 
-0.0007186506723905765 
-0.001647848750841747 
-0.0005731376157507071 
-0.0004878466833054021 
-0.001551631120130906 
0.0004208168236116463 
0 
0.002713406547775538 
0.001551631120130906 
0.0004208168236116463 
0.0005731376157507071 
-0.0004878466833054021 
-0.0002806732513555213 
-0.001182853040672899 
-0.001464778446626532 
-0.0007688183034901714 
0 
0.0009531200388506081 
0.001464778446626532 
-0.0007688183034901714 
0.0002806732513555213 
-0.001182853040672899 
0.0005359430586574813 
-0.001232374572946008 
-2.258736948561409e-05 
-0.00237436876932536 
0 
-0.002469767358472927 
2.258736948561409e-05 
-0.00237436876932536 
-0.0005359430586574813 
-0.001232374572946008 
0.0003956432433576873 
-0.0002363692067355499 
4.205640169315079e-05 
-0.0005124622476140752 
0 
-0.0001255878776115162 
-4.205640169315079e-05 
-0.0005124622476140752 
-0.0003956432433576873 
-0.0002363692067355499 
-0.0008285729942764046 
-0.001024718925077989 
-0.002404352149600284 
0.0003377603651208373 
0 
0.003425317296238959 
0.002404352149600284 
0.0003377603651208373 
0.0008285729942764046 
-0.001024718925077989 
-0.001013976095885589 
0.0005829540765905706 
-0.00145658430706665 
0.002279101397347425 
0 
0.004764996800055388 
0.00145658430706665 
0.002279101397347425 
0.001013976095885589 
0.0005829540765905706 
2.492477503105044e-06 
-0.0006596162259531481 
9.505908575736762e-05 
-0.001536249160430454 
0 
-0.00248658570596012 
-9.505908575736762e-05 
-0.001536249160430454 
-2.492477503105044e-06 
-0.0006596162259531481 
-0.0004895126046685342 
-0.0008295270835800474 
-0.00136977917125259 
-0.0005164968662650593 
0 
0.0004886295142971198 
0.00136977917125259 
-0.0005164968662650593 
0.0004895126046685342 
-0.0008295270835800474 
-0.001600943653486319 
0.000542869986617369 
-0.002353013844774741 
0.003267691994161598 
0 
0.006648569029257687 
0.002353013844774741 
0.003267691994161598 
0.001600943653486319 
0.000542869986617369 
0.0008904586829442986 
-0.001982821218354085 
-0.0004685787463506012 
-0.003745308634257994 
0 
-0.003421847826464333 
0.0004685787463506012 
-0.003745308634257994 
-0.0008904586829442986 
-0.001982821218354085 
-0.0001112940543295164 
0.003126202745106035 
-0.001113891066940715 
0.007315249970977032 
0 
0.01302011085140137 
0.001113891066940715 
0.007315249970977032 
0.0001112940543295164 
0.003126202745106035 
0.0007697934365890302 
-0.001016780741712947 
0.0006079908001493064 
-0.002213258552752696 
0 
-0.003388547670417759 
-0.0006079908001493064 
-0.002213258552752696 
-0.0007697934365890302 
-0.001016780741712947 
-0.0006653151920385287 
-0.001237542382336981 
-0.00329979143769087 
0.000720019883940568 
0 
0.005655003753413984 
0.00329979143769087 
0.000720019883940568 
0.0006653151920385287 
-0.001237542382336981 
-0.000617065464756767 
0.0001580699172299588 
-0.00117280165820584 
0.001165927209409043 
0 
0.003023180698553348 
0.00117280165820584 
0.001165927209409043 
0.000617065464756767 
0.0001580699172299588 
-0.001021581209895017 
-0.00196260221241278 
-0.002520662336382725 
-0.001609654684448106 
0 
0.0001434286688822846 
0.002520662336382725 
-0.001609654684448106 
0.001021581209895017 
-0.00196260221241278 
0.0002507463872646419 
-0.00140636219008648 
-0.0009981783751811934 
-0.001665442009124298 
0 
-0.0007674566036118494 
0.0009981783751811934 
-0.001665442009124298 
-0.0002507463872646419 
-0.00140636219008648 
-0.000620181290603118 
-0.0002270151703994674 
-0.002536667702745665 
0.001278567775342124 
0 
0.005447606661467756 
0.002536667702745665 
0.001278567775342124 
0.000620181290603118 
-0.0002270151703994674 
-0.0002473659676751367 
-0.0007735846508412518 
-0.0009720601035539686 
-0.0009742739022221757 
0 
-2.408818503718843e-05 
0.0009720601035539686 
-0.0009742739022221757 
0.0002473659676751367 
-0.0007735846508412518 
-0.0002977263984318795 
-0.0006358532777048332 
-0.0004480021146569738 
-0.0008831241036824515 
0 
-0.0009375832835012302 
0.0004480021146569738 
-0.0008831241036824515 
0.0002977263984318795 
-0.0006358532777048332 
0.0002551432423587075 
0.0002716967678220612 
-0.0005160465006298142 
0.0005286971245429492 
0 
0.002367294359932072 
0.0005160465006298142 
0.0005286971245429492 
-0.0002551432423587075 
0.0002716967678220612 
0.0008092743500055832 
-0.001411597379151307 
-0.0005475762378962266 
-0.001964038400118139 
0 
-0.0009863597291517143 
0.0005475762378962266 
-0.001964038400118139 
-0.0008092743500055832 
-0.001411597379151307 
-0.00182129366179268 
-3.658939148632726e-05 
-0.00371120912795162 
0.002985644841587334 
0 
0.008235631773426672 
0.00371120912795162 
0.002985644841587334 
0.00182129366179268 
-3.658939148632726e-05 
0.0001930683191106309 
-0.0001919176140821982 
3.181947306677479e-05 
-0.0003046432165110444 
0 
-0.0001887404076791566 
-3.181947306677479e-05 
-0.0003046432165110444 
-0.0001930683191106309 
-0.0001919176140821982 
-0.0009534978612953934 
0.0004749300874119761 
-0.002205854426870887 
0.002474889314684331 
0 
0.006005083780242397 
0.002205854426870887 
0.002474889314684331 
0.0009534978612953934 
0.0004749300874119761 
-0.0007418210491688864 
-0.00065554228589193 
-0.002297191458308607 
0.0009276035837677227 
0 
0.004245889888110018 
0.002297191458308607 
0.0009276035837677227 
0.0007418210491688864 
-0.00065554228589193 
-0.0007972660368201658 
-0.0007504328747317012 
-0.002327102832414035 
0.000874517176677782 
0 
0.004070484667319238 
0.002327102832414035 
0.000874517176677782 
0.0007972660368201658 
-0.0007504328747317012 
0.0006928035250545139 
-0.001705358867072124 
-0.0009668752381886724 
-0.00252791511928486 
0 
-0.001254898224680048 
0.0009668752381886724 
-0.00252791511928486 
-0.0006928035250545139 
-0.001705358867072124 
0.0004208983524554234 
-0.001143664881346525 
0.0003745336789420502 
-0.002281267681601671 
0 
-0.00361686536722134 
-0.0003745336789420502 
-0.002281267681601671 
-0.0004208983524554234 
-0.001143664881346525 
-0.001052464770529503 
-0.001011320600885564 
-0.003863727714492589 
0.001398086817744472 
0 
0.007373856611738181 
0.003863727714492589 
0.001398086817744472 
0.001052464770529503 
-0.001011320600885564 
8.237011706030947e-05 
-0.0005393684967495414 
-0.0007778391702568169 
-8.672390205469105e-06 
0 
0.00133409813419345 
0.0007778391702568169 
-8.672390205469105e-06 
-8.237011706030947e-05 
-0.0005393684967495414 
-0.0009611384475093196 
-0.00217837518475602 
-0.00287369989247208 
-0.002347085362769453 
0 
-0.0003550436815342396 
0.00287369989247208 
-0.002347085362769453 
0.0009611384475093196 
-0.00217837518475602 
0.001411812534678587 
-0.001005252825464251 
0.000778682425774453 
-0.002911606176346236 
0 
-0.003619939637571539 
-0.000778682425774453 
-0.002911606176346236 
-0.001411812534678587 
-0.001005252825464251 
-0.001174815955117092 
0.0002874128007485983 
-0.001940148693399727 
0.001902359528366409 
0 
0.004687868129267749 
0.001940148693399727 
0.001902359528366409 
0.001174815955117092 
0.0002874128007485983 
0.000591705753789118 
-0.0003775059137430836 
-0.0002923608883159928 
-0.001145365555869637 
0 
1.34509319278534e-05 
0.0002923608883159928 
-0.001145365555869637 
-0.000591705753789118 
-0.0003775059137430836 
0.0006661523634180575 
-0.001006633572824422 
0.0004863726172470259 
-0.002304330320802492 
0 
-0.003380117135864738 
-0.0004863726172470259 
-0.002304330320802492 
-0.0006661523634180575 
-0.001006633572824422 
-0.0005437943030764135 
0.0008503831072889575 
-0.00039297324523333 
0.00155221495393728 
0 
0.002395283210509645 
0.00039297324523333 
0.00155221495393728 
0.0005437943030764135 
0.0008503831072889575 
-0.0003022163330828685 
-0.001463700405533255 
-0.001724740174848452 
-0.001334046111038242 
0 
0.0002956605380810443 
0.001724740174848452 
-0.001334046111038242 
0.0003022163330828685 
-0.001463700405533255 
-0.001285618195702518 
-0.001604697304504582 
-0.00270431871189718 
-0.000666737977966121 
0 
0.001507517685227093 
0.00270431871189718 
-0.000666737977966121 
0.001285618195702518 
-0.001604697304504582 
0.001008463030473979 
-0.0007058909134058664 
0.0007336274583511037 
-0.00219758292263561 
0 
-0.003168680327631532 
-0.0007336274583511037 
-0.00219758292263561 
-0.001008463030473979 
-0.0007058909134058664 
6.468652839358003e-05 
0.001216777270872137 
0.0003363322904523078 
0.00188856945700202 
0 
0.002522238818068648 
-0.0003363322904523078 
0.00188856945700202 
-6.468652839358003e-05 
0.001216777270872137 
-0.001004364370382153 
-0.0009193000696599252 
-0.002923379963297072 
0.001131579691942096 
0 
0.004878946303980733 
0.002923379963297072 
0.001131579691942096 
0.001004364370382153 
-0.0009193000696599252 
-0.0009905531517957083 
-0.0002745714404602422 
-0.002924684375376903 
0.001984159340916624 
0 
0.006653317846770507 
0.002924684375376903 
0.001984159340916624 
0.0009905531517957083 
-0.0002745714404602422 
-0.0007206935974415552 
-0.0005941564254043792 
-0.001677507851128707 
0.0003260336105202963 
0 
0.002292781204983665 
0.001677507851128707 
0.0003260336105202963 
0.0007206935974415552 
-0.0005941564254043792 
-0.000309193096254209 
-0.0009318703269715372 
-0.0004209980883761435 
-0.001185745988853723 
0 
-0.001642961797026515 
0.0004209980883761435 
-0.001185745988853723 
0.000309193096254209 
-0.0009318703269715372 
-0.00187504604030462 
-0.0008863180586314686 
-0.004749245518122683 
0.002761284066264784 
0 
0.009417225281960824 
0.004749245518122683 
0.002761284066264784 
0.00187504604030462 
-0.0008863180586314686 
-0.000193511479963931 
-0.0007464166913379132 
-0.001170725026680772 
-0.0004678802660490901 
0 
0.001003175946155908 
0.001170725026680772 
-0.0004678802660490901 
0.000193511479963931 
-0.0007464166913379132 
-0.001910368088422479 
-0.0005323983396119849 
-0.002825881151606 
0.0009237322497946404 
0 
0.003296623758528349 
0.002825881151606 
0.0009237322497946404 
0.001910368088422479 
-0.0005323983396119849 
-0.0004152934040085449 
-0.0009760755792542548 
-0.001487966898642037 
-0.001006835932080965 
0 
0.000368622234900818 
0.001487966898642037 
-0.001006835932080965 
0.0004152934040085449 
-0.0009760755792542548 
-0.002007485949879934 
-9.984501715157589e-05 
-0.003595370764939679 
0.002929855944021247 
0 
0.00781947807353048 
0.003595370764939679 
0.002929855944021247 
0.002007485949879934 
-9.984501715157589e-05 
-0.0001565489932961774 
-6.556620671706613e-05 
-0.000693227347066608 
0.0003213726423126313 
0 
0.001394481319690503 
0.000693227347066608 
0.0003213726423126313 
0.0001565489932961774 
-6.556620671706613e-05 
0.000538678915116126 
-0.0003602388721753738 
0.0002047101024733491 
-0.001245626370693234 
0 
-0.001413431705662377 
-0.0002047101024733491 
-0.001245626370693234 
-0.000538678915116126 
-0.0003602388721753738 
-0.001812539295978355 
0.0007630412698661296 
-0.002414831644262357 
0.003431267165053366 
0 
0.006718250870236146 
0.002414831644262357 
0.003431267165053366 
0.001812539295978355 
0.0007630412698661296 
3.590231117589833e-05 
5.148579770547916e-05 
-7.257290838314499e-05 
0.0002624060742769297 
0 
0.0004710266952457842 
7.257290838314499e-05 
0.0002624060742769297 
-3.590231117589833e-05 
5.148579770547916e-05 
-0.001457196226729149 
0.0002130358320967523 
-0.003164781285286927 
0.003219794322952491 
0 
0.00821788900782165 
0.003164781285286927 
0.003219794322952491 
0.001457196226729149 
0.0002130358320967523 
0.0005038262397109202 
-0.001353300885400378 
0.0004248150315849998 
-0.003021695848518132 
0 
-0.004543516146399112 
-0.0004248150315849998 
-0.003021695848518132 
-0.0005038262397109202 
-0.001353300885400378 
-0.0008791268726734565 
-0.000627813944906802 
-0.001680198404916564 
-0.0005679878447843596 
0 
0.0008552535601766231 
0.001680198404916564 
-0.0005679878447843596 
0.0008791268726734565 
-0.000627813944906802 
-0.0004533530324012695 
-0.0004036521890703826 
-0.001630141943297253 
0.0007345161926458996 
0 
0.003205684916560419 
0.001630141943297253 
0.0007345161926458996 
0.0004533530324012695 
-0.0004036521890703826 
-0.002191548837075652 
-0.0007449823968340458 
-0.004541442664035838 
0.003206098267749711 
0 
0.009064348273513835 
0.004541442664035838 
0.003206098267749711 
0.002191548837075652 
-0.0007449823968340458 
-0.001409405392739698 
-0.0003628589377685824 
-0.002576804424197995 
0.001263276966940094 
0 
0.004447871142611744 
0.002576804424197995 
0.001263276966940094 
0.001409405392739698 
-0.0003628589377685824 
0.0004031487940353529 
-0.001554614878836469 
-0.0007364677513844708 
-0.002196641624662212 
0 
-0.001564045900336911 
0.0007364677513844708 
-0.002196641624662212 
-0.0004031487940353529 
-0.001554614878836469 
-0.001666184327183659 
-0.001264470959825793 
-0.004425824515684508 
0.001777720239438311 
0 
0.007668120931781236 
0.004425824515684508 
0.001777720239438311 
0.001666184327183659 
-0.001264470959825793 
-0.001656735575543089 
-0.0006730045237393334 
-0.003136750465074901 
0.001848183452523606 
0 
0.005546533998635631 
0.003136750465074901 
0.001848183452523606 
0.001656735575543089 
-0.0006730045237393334 
-0.001712248024390858 
-0.001573814809265373 
-0.003056370735464025 
-0.0009464350371039876 
0 
0.00118481928525157 
0.003056370735464025 
-0.0009464350371039876 
0.001712248024390858 
-0.001573814809265373 
-0.0006509528940106509 
-0.000840578951691466 
-0.00143028637926966 
-0.0001346719010826036 
0 
0.001103871843925629 
0.00143028637926966 
-0.0001346719010826036 
0.0006509528940106509 
-0.000840578951691466 
-0.0007510727316765767 
0.001230409037756393 
-0.001820704154769664 
0.003410959988121483 
0 
0.007570632097635355 
0.001820704154769664 
0.003410959988121483 
0.0007510727316765767 
0.001230409037756393 
-0.0002515396239303578 
-0.001451312767732365 
-0.001517530394194284 
-0.001283481411986488 
0 
0.0004064963628336298 
0.001517530394194284 
-0.001283481411986488 
0.0002515396239303578 
-0.001451312767732365 
5.852069872343455e-07 
0.0003768542643022453 
0.0003458692756050593 
0.0001701249996815139 
0 
-0.0001482014306218822 
-0.0003458692756050593 
0.0001701249996815139 
-5.852069872343455e-07 
0.0003768542643022453 
-0.0005694008047732271 
0.0005165135260432667 
-0.0009030280518926976 
0.0009317164269496886 
0 
0.002454167954940622 
0.0009030280518926976 
0.0009317164269496886 
0.0005694008047732271 
0.0005165135260432667 
4.819985931925428e-05 
-0.001070989512310549 
-0.001517781390776309 
-0.0005512447119807025 
0 
0.001727258960191214 
0.001517781390776309 
-0.0005512447119807025 
-4.819985931925428e-05 
-0.001070989512310549 
-0.0008466093416305949 
-0.0004370199350015239 
-0.001886667663736192 
0.0009480086076279343 
0 
0.003442506373902121 
0.001886667663736192 
0.0009480086076279343 
0.0008466093416305949 
-0.0004370199350015239 
0.001563840216370885 
-0.0006679800738194241 
0.002086891982424406 
-0.003705814323818044 
0 
-0.006807998780451473 
-0.002086891982424406 
-0.003705814323818044 
-0.001563840216370885 
-0.0006679800738194241 
-0.0003402350509145896 
-0.000390393443620998 
-0.0008942136786180257 
0.0001769238674242423 
0 
0.001288700056705913 
0.0008942136786180257 
0.0001769238674242423 
0.0003402350509145896 
-0.000390393443620998 
0.0005595307277803845 
-0.001243742039866498 
-0.0002155101813575097 
-0.002284656656314191 
0 
-0.002376781260044455 
0.0002155101813575097 
-0.002284656656314191 
-0.0005595307277803845 
-0.001243742039866498 
-0.0001486702859066712 
-0.0005599493945683499 
-0.0009530992477284498 
-0.0005878393972692444 
0 
0.0006781295614514286 
0.0009530992477284498 
-0.0005878393972692444 
0.0001486702859066712 
-0.0005599493945683499 
-0.001998325639779409 
0.001105946686867732 
-0.002624826426332748 
0.004666032392700574 
0 
0.008843649173207157 
0.002624826426332748 
0.004666032392700574 
0.001998325639779409 
0.001105946686867732 
-0.0006523671706808021 
-0.0009257171645855738 
-0.001804592830007467 
-7.121043017890452e-05 
0 
0.00186104045043603 
0.001804592830007467 
-7.121043017890452e-05 
0.0006523671706808021 
-0.0009257171645855738 
-0.001458209067136944 
-0.001019317224338725 
-0.003652145226933523 
0.001771161085365027 
0 
0.006565755078061689 
0.003652145226933523 
0.001771161085365027 
0.001458209067136944 
-0.001019317224338725 
-0.0002946666458254697 
-0.001266408402843597 
-0.001886063826569814 
-0.0003730610331459169 
0 
0.001943786031468052 
0.001886063826569814 
-0.0003730610331459169 
0.0002946666458254697 
-0.001266408402843597 
-0.001681766555906616 
-0.001299253875348711 
-0.003612064635429028 
0.0001173848959804257 
0 
0.003525848571812142 
0.003612064635429028 
0.0001173848959804257 
0.001681766555906616 
-0.001299253875348711 
-0.001460268329416901 
-0.0008075077373192919 
-0.002795510754950659 
0.0009982742853081007 
0 
0.004039244713118667 
0.002795510754950659 
0.0009982742853081007 
0.001460268329416901 
-0.0008075077373192919 
-0.001032118701135268 
1.168153963368885e-05 
-0.002372235697254068 
0.00214626328103241 
0 
0.005877236829543299 
0.002372235697254068 
0.00214626328103241 
0.001032118701135268 
1.168153963368885e-05 
-0.0004306912518637861 
-0.001007530493350407 
-0.001123002130872121 
-0.0005504242725902943 
0 
0.0004126521650611693 
0.001123002130872121 
-0.0005504242725902943 
0.0004306912518637861 
-0.001007530493350407 
4.29121601302533e-05 
-0.0002917576785399171 
0.00032739185973629 
-0.0007115192547287462 
0 
-0.001581666622352128 
-0.00032739185973629 
-0.0007115192547287462 
-4.29121601302533e-05 
-0.0002917576785399171 
-0.0006642176340907882 
0.0007930055969936822 
-0.001347142700714954 
0.002236138724841047 
0 
0.004950390444144467 
0.001347142700714954 
0.002236138724841047 
0.0006642176340907882 
0.0007930055969936822 
0.0007124551534469953 
-0.001245748905421915 
0.0001512885050427129 
-0.002579810751406439 
0 
-0.003189371077268854 
-0.0001512885050427129 
-0.002579810751406439 
-0.0007124551534469953 
-0.001245748905421915 
-0.001165930940862901 
-0.0009195853277561459 
-0.001590863825999676 
0.0001302361907443706 
0 
0.0008660527047854951 
0.001590863825999676 
0.0001302361907443706 
0.001165930940862901 
-0.0009195853277561459 
-0.0007481629377605734 
0.0005208695905609003 
-0.0007873202602829295 
0.001582255015973455 
0 
0.002729673066947248 
0.0007873202602829295 
0.001582255015973455 
0.0007481629377605734 
0.0005208695905609003 
-0.001464583478356026 
-0.0003420249609900866 
-0.001823636374462732 
0.000896360063912596 
0 
0.001957308491589219 
0.001823636374462732 
0.000896360063912596 
0.001464583478356026 
-0.0003420249609900866 
-0.0008580118694363868 
-0.0005473570908450134 
-0.002087892287065965 
0.001080521828335997 
0 
0.003840882492833369 
0.002087892287065965 
0.001080521828335997 
0.0008580118694363868 
-0.0005473570908450134 
-0.0009654294210094456 
-0.0007771337265204539 
-0.002540360026296211 
0.001041464791096132 
0 
0.004497557113881546 
0.002540360026296211 
0.001041464791096132 
0.0009654294210094456 
-0.0007771337265204539 
-0.001132226159882434 
0.0004595900391565728 
-0.001886469775882732 
0.002441604031526306 
0 
0.00541791892647354 
0.001886469775882732 
0.002441604031526306 
0.001132226159882434 
0.0004595900391565728 
-1.082047592105526e-05 
-0.001332054107036186 
-0.0007782064743583849 
-0.00183999997114743 
0 
-0.00166450933946655 
0.0007782064743583849 
-0.00183999997114743 
1.082047592105526e-05 
-0.001332054107036186 
-0.001497887305387273 
8.612478912649812e-05 
-0.002698211724310812 
0.001992007923932174 
0 
0.005641789699596514 
0.002698211724310812 
0.001992007923932174 
0.001497887305387273 
8.612478912649812e-05 
-0.001678321745748421 
3.849734889318734e-05 
-0.002936979644969925 
0.003133567956874671 
0 
0.007095212967816495 
0.002936979644969925 
0.003133567956874671 
0.001678321745748421 
3.849734889318734e-05 
-0.001931016408236684 
-0.001624151487765532 
-0.004389216380150007 
0.0009491351935086767 
0 
0.005550318879771073 
0.004389216380150007 
0.0009491351935086767 
0.001931016408236684 
-0.001624151487765532 
0.0006508369155664029 
-0.0009619146041791593 
0.000537613448185754 
-0.002651590108421455 
0 
-0.003984310406487894 
-0.000537613448185754 
-0.002651590108421455 
-0.0006508369155664029 
-0.0009619146041791593 
-0.002209567907777294 
0.001087821833291594 
-0.003245870708995737 
0.00460923052396403 
0 
0.009744627205009827 
0.003245870708995737 
0.00460923052396403 
0.002209567907777294 
0.001087821833291594 
0.0003931098251155293 
-0.0006402974555311718 
0.0001931804045710064 
-0.001257450140336003 
0 
-0.001770488068632942 
-0.0001931804045710064 
-0.001257450140336003 
-0.0003931098251155293 
-0.0006402974555311718 
2.83384848640655e-05 
-0.002632991575967388 
-0.0005930695212132209 
-0.004387933201619211 
0 
-0.005854039002208263 
0.0005930695212132209 
-0.004387933201619211 
-2.83384848640655e-05 
-0.002632991575967388 
-0.0009220497329506797 
-0.0005990801821668624 
-0.002492423350301123 
0.001523887468988565 
0 
0.005112751664235492 
0.002492423350301123 
0.001523887468988565 
0.0009220497329506797 
-0.0005990801821668624 
-0.0006299415521193828 
-0.0008267375201951234 
-0.002061697381557023 
0.0003525887764193744 
0 
0.003028894274587055 
0.002061697381557023 
0.0003525887764193744 
0.0006299415521193828 
-0.0008267375201951234 
-0.001169069549337945 
0.0004111532531732961 
-0.001927068917046128 
0.002369819061419235 
0 
0.005123379626026687 
0.001927068917046128 
0.002369819061419235 
0.001169069549337945 
0.0004111532531732961 
-0.0007007290546835474 
-0.0005387688775958188 
-0.001209812152453018 
0.0001660275426290421 
0 
0.001198570000091819 
0.001209812152453018 
0.0001660275426290421 
0.0007007290546835474 
-0.0005387688775958188 
-0.001782486484205902 
-0.0003588133420971389 
-0.002662714135702581 
0.002212137956218938 
0 
0.004904807920964511 
0.002662714135702581 
0.002212137956218938 
0.001782486484205902 
-0.0003588133420971389 
0.0002373588812176451 
-0.001904527519185045 
-0.001095387350286837 
-0.002193635070668052 
0 
-0.001367435698143907 
0.001095387350286837 
-0.002193635070668052 
-0.0002373588812176451 
-0.001904527519185045 
-0.0004185535989487719 
0.0005476900906993816 
-0.000938088406379236 
0.001986254145880127 
0 
0.003998057027220655 
0.000938088406379236 
0.001986254145880127 
0.0004185535989487719 
0.0005476900906993816 
-0.001643880930325789 
0.001116114603426702 
-0.002238439459483639 
0.004300962510588569 
0 
0.007690350309724636 
0.002238439459483639 
0.004300962510588569 
0.001643880930325789 
0.001116114603426702 
0.0003696396321236733 
-0.00140524472304201 
-0.0003610172632809288 
-0.00249839264982674 
0 
-0.002735555280955082 
0.0003610172632809288 
-0.00249839264982674 
-0.0003696396321236733 
-0.00140524472304201 
-0.001795632938833286 
3.618736121145266e-06 
-0.003156471830713409 
0.00276214018862099 
0 
0.006844766073644711 
0.003156471830713409 
0.00276214018862099 
0.001795632938833286 
3.618736121145266e-06 
-0.0001117260723501608 
-9.382159345069905e-05 
-0.001195348340119667 
0.0008160903401802018 
0 
0.003122419611034028 
0.001195348340119667 
0.0008160903401802018 
0.0001117260723501608 
-9.382159345069905e-05 
-0.0007431429406759094 
0.001309122099878337 
-0.001416888204908138 
0.00329838746973684 
0 
0.006109201728796462 
0.001416888204908138 
0.00329838746973684 
0.0007431429406759094 
0.001309122099878337 
0.00066306226276149 
-0.002083598154182826 
-0.0003406369567746373 
-0.003728557765393152 
0 
-0.004237328088578854 
0.0003406369567746373 
-0.003728557765393152 
-0.00066306226276149 
-0.002083598154182826 
0.0004066480654498319 
-0.0007084321768709272 
-0.0008730899553722946 
-0.001030405789960103 
0 
0.0005343171227853118 
0.0008730899553722946 
-0.001030405789960103 
-0.0004066480654498319 
-0.0007084321768709272 
-0.0003546822254591041 
-0.001484401373497485 
-0.002179916267563909 
-0.0006229320807011038 
0 
0.002064561532917542 
0.002179916267563909 
-0.0006229320807011038 
0.0003546822254591041 
-0.001484401373497485 
-0.0005472204177818635 
-0.0004963467122964644 
-0.002069565882254126 
0.0009038897660160087 
0 
0.004020132049559488 
0.002069565882254126 
0.0009038897660160087 
0.0005472204177818635 
-0.0004963467122964644 
-0.002291084941393244 
0.000540089304957703 
-0.003796824170509921 
0.004192942195779884 
0 
0.009510593459837357 
0.003796824170509921 
0.004192942195779884 
0.002291084941393244 
0.000540089304957703 
-0.0001782022383819955 
-0.0006100417834473905 
-0.001370827423568187 
0.0001823499612488624 
0 
0.002349590506664658 
0.001370827423568187 
0.0001823499612488624 
0.0001782022383819955 
-0.0006100417834473905 
-0.0005983889339293023 
-0.0007242586735980158 
-0.002297189083493998 
0.00101280725533534 
0 
0.004389870768029517 
0.002297189083493998 
0.00101280725533534 
0.0005983889339293023 
-0.0007242586735980158 
-0.0003935138037395945 
-0.001671512841015544 
-0.0009182689918837803 
-0.002161098590146542 
0 
-0.002524330962242313 
0.0009182689918837803 
-0.002161098590146542 
0.0003935138037395945 
-0.001671512841015544 
-1.236738347967246e-05 
0.001226774840420355 
4.541323028240375e-05 
0.002080268073107058 
0 
0.00324349201095377 
-4.541323028240375e-05 
0.002080268073107058 
1.236738347967246e-05 
0.001226774840420355 
0.0005437762777092221 
-0.00270583880114225 
-0.0006516701177295373 
-0.003951319080084486 
0 
-0.004428358082887583 
0.0006516701177295373 
-0.003951319080084486 
-0.0005437762777092221 
-0.00270583880114225 
-0.0003917180850822815 
-0.001082987092542615 
-0.002583534381519663 
0.0001587549736487409 
0 
0.003999950882475719 
0.002583534381519663 
0.0001587549736487409 
0.0003917180850822815 
-0.001082987092542615 
-0.001146154598348419 
0.0004025762519173857 
-0.002068397621308247 
0.002520916988895419 
0 
0.005718281358770798 
0.002068397621308247 
0.002520916988895419 
0.001146154598348419 
0.0004025762519173857 
-0.0001859471604661534 
-0.001388320542778608 
-0.0008664773913365728 
-0.001786882136160729 
0 
-0.001635476203489008 
0.0008664773913365728 
-0.001786882136160729 
0.0001859471604661534 
-0.001388320542778608 
-0.0005880030839486433 
0.0001227865260232802 
-0.001490154303532094 
0.001286612371258109 
0 
0.00386881119386418 
0.001490154303532094 
0.001286612371258109 
0.0005880030839486433 
0.0001227865260232802 
-0.0007684312677789205 
-0.0004572565276999113 
-0.001800871175049485 
0.0007862380533897825 
0 
0.003001583258904092 
0.001800871175049485 
0.0007862380533897825 
0.0007684312677789205 
-0.0004572565276999113 
-0.00117193986933495 
0.0006327815988605 
-0.002429535631210619 
0.003642194566773674 
0 
0.007750508861974774 
0.002429535631210619 
0.003642194566773674 
0.00117193986933495 
0.0006327815988605 
-0.0004260681653010473 
-0.001307570132814856 
-0.001059977868712272 
-0.001991634448479352 
0 
-0.0018763228918341 
0.001059977868712272 
-0.001991634448479352 
0.0004260681653010473 
-0.001307570132814856 
-0.0005196660316818603 
-0.001191586806602531 
-0.001668991175958668 
-0.0003372739576964443 
0 
0.001307116324222899 
0.001668991175958668 
-0.0003372739576964443 
0.0005196660316818603 
-0.001191586806602531 
0.000958153842899185 
-0.001440396258563819 
0.0001129457205978744 
-0.003028448796203882 
0 
-0.003540652980755175 
-0.0001129457205978744 
-0.003028448796203882 
-0.000958153842899185 
-0.001440396258563819 
0.0002282179622444811 
-0.0007367670991417437 
-0.0002314190468020502 
-0.001014763621215133 
0 
-0.0008982512086088732 
0.0002314190468020502 
-0.001014763621215133 
-0.0002282179622444811 
-0.0007367670991417437 
-0.001795142883859013 
0.001344895074740583 
-0.002795216293544294 
0.005053992075571586 
0 
0.009756684953788926 
0.002795216293544294 
0.005053992075571586 
0.001795142883859013 
0.001344895074740583 
-0.0005934024450213451 
-0.0004007894550799932 
-0.001920358528232678 
0.001039295081879971 
0 
0.003899851390120115 
0.001920358528232678 
0.001039295081879971 
0.0005934024450213451 
-0.0004007894550799932 
-0.001302628469111449 
-0.0007166799740532538 
-0.002869712466592005 
0.001506448310388163 
0 
0.005143738487474843 
0.002869712466592005 
0.001506448310388163 
0.001302628469111449 
-0.0007166799740532538 
-0.0005257893916705907 
0.0009940125864284775 
-0.0001079497718337825 
0.001613609161227231 
0 
0.001874585585291845 
0.0001079497718337825 
0.001613609161227231 
0.0005257893916705907 
0.0009940125864284775 
-0.0009544821765155634 
0.0002445734152995575 
-0.0009325713093872716 
0.0008031742874286239 
0 
0.001322092544717578 
0.0009325713093872716 
0.0008031742874286239 
0.0009544821765155634 
0.0002445734152995575 
0.0007317193194301898 
-0.001574166373029424 
0.0002621233872210679 
-0.00301712105437116 
0 
-0.004067298880308442 
-0.0002621233872210679 
-0.00301712105437116 
-0.0007317193194301898 
-0.001574166373029424 
-0.000613973274142608 
-0.0005277571387496797 
-0.002264745710750927 
0.001070705153357548 
0 
0.004621839252909998 
0.002264745710750927 
0.001070705153357548 
0.000613973274142608 
-0.0005277571387496797 
-0.001752874325064243 
-0.0006999326278364404 
-0.003186312544081121 
0.001362553131353669 
0 
0.004853511660576276 
0.003186312544081121 
0.001362553131353669 
0.001752874325064243 
-0.0006999326278364404 
-0.000771021477591689 
-0.0009603628192477841 
-0.001923282475539321 
9.075854016735547e-05 
0 
0.002133976068173435 
0.001923282475539321 
9.075854016735547e-05 
0.000771021477591689 
-0.0009603628192477841 
-0.001028751431144264 
-0.0008471451183957934 
-0.002772583830653411 
0.000880733615464783 
0 
0.004452784600351978 
0.002772583830653411 
0.000880733615464783 
0.001028751431144264 
-0.0008471451183957934 
-0.0004312272712177137 
-0.001725244446228609 
-0.002130021573538201 
-0.001189369410364157 
0 
0.0009996194016107301 
0.002130021573538201 
-0.001189369410364157 
0.0004312272712177137 
-0.001725244446228609 
-0.002247436912741612 
0.000124615475057425 
-0.002935124910495945 
0.002728379537069089 
0 
0.005713195641727665 
0.002935124910495945 
0.002728379537069089 
0.002247436912741612 
0.000124615475057425 
-0.0007863935582696401 
-0.0005442568604856899 
-0.001232745167898529 
0.0002700984539192058 
0 
0.001100463566183821 
0.001232745167898529 
0.0002700984539192058 
0.0007863935582696401 
-0.0005442568604856899 
-0.002312882395313424 
3.440028732630498e-05 
-0.003769568034593202 
0.003679309319214137 
0 
0.008647938148362636 
0.003769568034593202 
0.003679309319214137 
0.002312882395313424 
3.440028732630498e-05 
-0.0007897696603509059 
-0.0003601309014411921 
-0.001850388729735789 
0.0009503514201647429 
0 
0.003457021162015978 
0.001850388729735789 
0.0009503514201647429 
0.0007897696603509059 
-0.0003601309014411921 
-0.0009332136792268014 
-0.0007462387137316776 
-0.00207437290037168 
0.000810316667981737 
0 
0.00312263973879625 
0.00207437290037168 
0.000810316667981737 
0.0009332136792268014 
-0.0007462387137316776 
-0.002132712664496191 
0.0001355757075556357 
-0.003740482605063022 
0.003699029822189707 
0 
0.008996114277249898 
0.003740482605063022 
0.003699029822189707 
0.002132712664496191 
0.0001355757075556357 
-0.0009206903406483818 
-0.0008731799176792949 
-0.002359900965433456 
0.0008693637967275487 
0 
0.003788407069700069 
0.002359900965433456 
0.0008693637967275487 
0.0009206903406483818 
-0.0008731799176792949 
-0.001086048237294948 
-0.0006874925975635217 
-0.002594341692923087 
0.001265671368030126 
0 
0.00450934111829884 
0.002594341692923087 
0.001265671368030126 
0.001086048237294948 
-0.0006874925975635217 
-0.0004045915599659733 
-0.0003394456849641508 
0.0001618887846065609 
-0.0007389526903662398 
0 
-0.002040776910324049 
-0.0001618887846065609 
-0.0007389526903662398 
0.0004045915599659733 
-0.0003394456849641508 
-0.002248669329805656 
-0.0003505596989389023 
-0.002906623191080944 
0.001644506406878873 
0 
0.004097208803162744 
0.002906623191080944 
0.001644506406878873 
0.002248669329805656 
-0.0003505596989389023 
-0.0007980506124199315 
-0.001106911408068328 
-0.001950923259052163 
-2.771354985847393e-05 
0 
0.002088315707835227 
0.001950923259052163 
-2.771354985847393e-05 
0.0007980506124199315 
-0.001106911408068328 
-0.002153602959150198 
-0.000502994504235428 
-0.003504678221857263 
0.002501768386450855 
0 
0.006432063288930181 
0.003504678221857263 
0.002501768386450855 
0.002153602959150198 
-0.000502994504235428 
-0.001554702702524259 
3.960688658072057e-05 
-0.002040672069308618 
0.0016831549459483 
0 
0.003815944403562456 
0.002040672069308618 
0.0016831549459483 
0.001554702702524259 
3.960688658072057e-05 
0.0004325740698758084 
-3.766313155658996e-05 
8.835712387629383e-05 
-0.0004080806518520827 
0 
8.496155086147279e-05 
-8.835712387629383e-05 
-0.0004080806518520827 
-0.0004325740698758084 
-3.766313155658996e-05 
-0.001044403476845824 
-0.001029592520449192 
-0.003447041464278898 
0.0007286441790183856 
0 
0.005382865566393999 
0.003447041464278898 
0.0007286441790183856 
0.001044403476845824 
-0.001029592520449192 
0.0003066416852125193 
0.0002379406373316447 
-0.0001877975868212631 
0.000116386959575687 
0 
0.001095123252412392 
0.0001877975868212631 
0.000116386959575687 
-0.0003066416852125193 
0.0002379406373316447 
-0.001706734326248313 
-0.0007855271421783407 
-0.002736050271731554 
0.000231385624967625 
0 
0.002355919170994515 
0.002736050271731554 
0.000231385624967625 
0.001706734326248313 
-0.0007855271421783407 
0.0008940508628879374 
-0.0009452194070116951 
0.0007719928511512 
-0.002799005925832162 
0 
-0.004267876863921145 
-0.0007719928511512 
-0.002799005925832162 
-0.0008940508628879374 
-0.0009452194070116951 
-0.001251529133419798 
-0.0002786912488744355 
-0.002784592689501343 
0.001929089939393637 
0 
0.005778462684210102 
0.002784592689501343 
0.001929089939393637 
0.001251529133419798 
-0.0002786912488744355 
-0.001031352769515828 
-0.0009109675230492192 
-0.002746232068775715 
0.0009735462981830447 
0 
0.004522645736587245 
0.002746232068775715 
0.0009735462981830447 
0.001031352769515828 
-0.0009109675230492192 
-0.0006402226720502426 
-0.001440659786248135 
-0.001858047614669673 
-0.0006739783402992331 
0 
0.0009978613619580207 
0.001858047614669673 
-0.0006739783402992331 
0.0006402226720502426 
-0.001440659786248135 
-0.001377160901920939 
-0.0003517204722836478 
-0.003262594880709024 
0.001574838025700902 
0 
0.006057932567670261 
0.003262594880709024 
0.001574838025700902 
0.001377160901920939 
-0.0003517204722836478 
-0.0004420624659874011 
-0.001401891848980911 
-0.001538460883012466 
-0.001459163049546144 
0 
-0.000262105598888435 
0.001538460883012466 
-0.001459163049546144 
0.0004420624659874011 
-0.001401891848980911 
-0.0007595143405964278 
-0.0002068175258603639 
-0.002018765197390172 
0.001333839842076772 
0 
0.004319471521726371 
0.002018765197390172 
0.001333839842076772 
0.0007595143405964278 
-0.0002068175258603639 
-7.920206608057365e-05 
-0.0006453192607578471 
0.0004815850967060788 
-0.00170097136860881 
0 
-0.003645335879944204 
-0.0004815850967060788 
-0.00170097136860881 
7.920206608057365e-05 
-0.0006453192607578471 
-0.001419628699742741 
0.0002762575040552928 
-0.001975776095108234 
0.002428037748892997 
0 
0.004754670569891012 
0.001975776095108234 
0.002428037748892997 
0.001419628699742741 
0.0002762575040552928 
-0.0005897894532156082 
-0.0005286746485957016 
-0.001884834436786051 
0.0005529352516927778 
0 
0.003336526647772387 
0.001884834436786051 
0.0005529352516927778 
0.0005897894532156082 
-0.0005286746485957016 
-0.002246547592238048 
-0.0002815043784482089 
-0.003961169589194915 
0.003022216995826342 
0 
0.008115320070975868 
0.003961169589194915 
0.003022216995826342 
0.002246547592238048 
-0.0002815043784482089 
-0.002381895394756019 
0.002482719726374669 
-0.003068860977226662 
0.006686064304933823 
0 
0.01235327577881226 
0.003068860977226662 
0.006686064304933823 
0.002381895394756019 
0.002482719726374669 
-0.0009285639489664173 
-0.0003748222648741112 
-0.002049255506902693 
0.001201402232952884 
0 
0.004040276218580754 
0.002049255506902693 
0.001201402232952884 
0.0009285639489664173 
-0.0003748222648741112 
-0.0007539419921095415 
-0.001902828947224317 
-0.002676764293682807 
-0.00146852173305022 
0 
0.001280847027046292 
0.002676764293682807 
-0.00146852173305022 
0.0007539419921095415 
-0.001902828947224317 
-0.0003666664520314479 
-0.001239412643123708 
-0.002990801600362422 
-9.061401942488448e-06 
0 
0.004751510679756936 
0.002990801600362422 
-9.061401942488448e-06 
0.0003666664520314479 
-0.001239412643123708 
2.540005979077213e-05 
-0.001646620537867196 
-0.001464120658443242 
-0.002297548719588155 
0 
-0.001037414248433975 
0.001464120658443242 
-0.002297548719588155 
-2.540005979077213e-05 
-0.001646620537867196 
-0.0002040212213530357 
-0.0008065521729387101 
-0.0008631789677016541 
-0.001067435871273048 
0 
-0.0002914572306338143 
0.0008631789677016541 
-0.001067435871273048 
0.0002040212213530357 
-0.0008065521729387101 
7.503346691389443e-05 
-0.0009593831397156645 
-0.001844092755616662 
-0.0003343616696106742 
0 
0.002775724160847713 
0.001844092755616662 
-0.0003343616696106742 
-7.503346691389443e-05 
-0.0009593831397156645 
-0.0007900588344717681 
-0.001099426110586246 
-0.002135463839523112 
7.386878489687875e-05 
0 
0.002550997232836433 
0.002135463839523112 
7.386878489687875e-05 
0.0007900588344717681 
-0.001099426110586246 
-0.0002656066792432595 
-0.001571119398427637 
-0.001545107831661154 
-0.001528180537578077 
0 
-0.0002212904162329934 
0.001545107831661154 
-0.001528180537578077 
0.0002656066792432595 
-0.001571119398427637 
-0.0009219182145876862 
-0.0007034566806797526 
-0.003068889754152436 
0.001586669390047174 
0 
0.00599426824845222 
0.003068889754152436 
0.001586669390047174 
0.0009219182145876862 
-0.0007034566806797526 
2.080398231653332e-05 
-0.001576494130024621 
-0.001701885111418399 
-0.001687800225125037 
0 
0.0003056389548733126 
0.001701885111418399 
-0.001687800225125037 
-2.080398231653332e-05 
-0.001576494130024621 
-0.001715311051699167 
0.0001871725314467011 
-0.003025121805163772 
0.003158617945276074 
0 
0.007373138115327347 
0.003025121805163772 
0.003158617945276074 
0.001715311051699167 
0.0001871725314467011 
0.0009346159252707066 
-0.0002864085931809851 
0.001292182278367451 
-0.002115239382016464 
0 
-0.003959552661810347 
-0.001292182278367451 
-0.002115239382016464 
-0.0009346159252707066 
-0.0002864085931809851 
-0.001745347699908653 
0.0001975458426472609 
-0.002464144745569285 
0.002953735142903546 
0 
0.005992162796860544 
0.002464144745569285 
0.002953735142903546 
0.001745347699908653 
0.0001975458426472609 
0.0006819313082779481 
-0.001432429913750816 
-0.0006197267800432412 
-0.002212599063389636 
0 
-0.00135703577349583 
0.0006197267800432412 
-0.002212599063389636 
-0.0006819313082779481 
-0.001432429913750816 
-0.002205197757526407 
-0.0008244148572062055 
-0.004406955450138101 
0.002311759376801025 
0 
0.007786461359745675 
0.004406955450138101 
0.002311759376801025 
0.002205197757526407 
-0.0008244148572062055 
-0.001094441403374124 
0.002255886976710518 
-0.001494240997873436 
0.005130122171328444 
0 
0.009405875728338118 
0.001494240997873436 
0.005130122171328444 
0.001094441403374124 
0.002255886976710518 
-6.90593817665485e-05 
-0.00193265970486099 
-0.001976639699386303 
-0.002124555136688727 
0 
-7.623576288296019e-05 
0.001976639699386303 
-0.002124555136688727 
6.90593817665485e-05 
-0.00193265970486099 
-0.001333374517654079 
-0.0009365437458399528 
-0.003531950358626022 
0.001194721241264338 
0 
0.005973205491660115 
0.003531950358626022 
0.001194721241264338 
0.001333374517654079 
-0.0009365437458399528 
0.0001940157836836078 
-0.001459411315720267 
-0.002009868049945347 
-0.001450309768303205 
0 
0.001611404760801209 
0.002009868049945347 
-0.001450309768303205 
-0.0001940157836836078 
-0.001459411315720267 
-0.001551775403087155 
-0.001985164121887138 
-0.004148517644443931 
-0.0001826108043344889 
0 
0.004125879157461478 
0.004148517644443931 
-0.0001826108043344889 
0.001551775403087155 
-0.001985164121887138 
0.0006964906544614349 
-0.0004267330984010798 
0.0005377269382013809 
-0.001228453154751186 
0 
-0.001675496228610847 
-0.0005377269382013809 
-0.001228453154751186 
-0.0006964906544614349 
-0.0004267330984010798 
8.104836418331879e-06 
-0.001597987106627054 
-0.002765038374015242 
-0.0005805635773624661 
0 
0.003688179180542959 
0.002765038374015242 
-0.0005805635773624661 
-8.104836418331879e-06 
-0.001597987106627054 
-0.0003515876448545574 
-0.0001454391437485603 
-0.001015132134133919 
0.000562020832050808 
0 
0.002227464405399214 
0.001015132134133919 
0.000562020832050808 
0.0003515876448545574 
-0.0001454391437485603 
-0.0002959641150571775 
-0.00133504885911245 
-0.001418588090799919 
-0.0009503088715412859 
0 
0.0003448835233346231 
0.001418588090799919 
-0.0009503088715412859 
0.0002959641150571775 
-0.00133504885911245 
-0.0002438540911406676 
-0.0004907207952772278 
-0.002214206260492067 
0.0006822893243741575 
0 
0.004498305418956803 
0.002214206260492067 
0.0006822893243741575 
0.0002438540911406676 
-0.0004907207952772278 
-0.000787263697818865 
-7.598736617883547e-05 
-0.001670768966917626 
0.001444760337101607 
0 
0.003864217053158057 
0.001670768966917626 
0.001444760337101607 
0.000787263697818865 
-7.598736617883547e-05 
-0.001221780879486929 
-0.001263822262404135 
-0.003445165563388297 
0.0007938086647037311 
0 
0.005206262399612411 
0.003445165563388297 
0.0007938086647037311 
0.001221780879486929 
-0.001263822262404135 
0.0002214906483462647 
-0.002597037384707189 
-0.0001479073966998081 
-0.005012763515699404 
0 
-0.007274779419541976 
0.0001479073966998081 
-0.005012763515699404 
-0.0002214906483462647 
-0.002597037384707189 
0.000500798503143352 
0.001360243224225358 
0.0004789841988012381 
0.002406249911869854 
0 
0.003984033660934312 
-0.0004789841988012381 
0.002406249911869854 
-0.000500798503143352 
0.001360243224225358 
-0.0001612373947700843 
-0.00205989257652508 
-0.001310611085428353 
-0.002334274028297227 
0 
-0.001797153788455287 
0.001310611085428353 
-0.002334274028297227 
0.0001612373947700843 
-0.00205989257652508 
-0.0009714897896633164 
0.0002805448875482145 
-0.001998145203583108 
0.002592149730693173 
0 
0.005856414635669383 
0.001998145203583108 
0.002592149730693173 
0.0009714897896633164 
0.0002805448875482145 
-0.001226603327697555 
0.002426712740957552 
-0.001704455848833385 
0.005973725018862888 
0 
0.01046480451261303 
0.001704455848833385 
0.005973725018862888 
0.001226603327697555 
0.002426712740957552 
0.001660398836409739 
-0.001170958250027115 
0.000827227620829551 
-0.003524152557834655 
0 
-0.004073625608589265 
-0.000827227620829551 
-0.003524152557834655 
-0.001660398836409739 
-0.001170958250027115 
0.0002948534250113196 
-0.001122670605763689 
-0.001338851741044176 
-0.001730673181667272 
0 
0.0001851925494502835 
0.001338851741044176 
-0.001730673181667272 
-0.0002948534250113196 
-0.001122670605763689 
0.0001483201210389536 
-0.001242252387396507 
-0.00089827713570494 
-0.002093022747732172 
0 
-0.001231322132520004 
0.00089827713570494 
-0.002093022747732172 
-0.0001483201210389536 
-0.001242252387396507 
-0.001357392600419123 
-0.002317140417206071 
-0.003382443306871282 
-0.001846687660040914 
0 
0.0008378805432098494 
0.003382443306871282 
-0.001846687660040914 
0.001357392600419123 
-0.002317140417206071 
-0.000714300613866963 
0.00103831653429952 
-0.0015811558249123 
0.003578950528913678 
0 
0.007143173684144105 
0.0015811558249123 
0.003578950528913678 
0.000714300613866963 
0.00103831653429952 
-0.0007421928103584495 
-0.0001411610323565345 
-0.002077200180571368 
0.00131394775310508 
0 
0.004721313838880655 
0.002077200180571368 
0.00131394775310508 
0.0007421928103584495 
-0.0001411610323565345 
-4.580753521517362e-05 
-0.0009043985411634542 
-0.001420098937568427 
-0.0008074914623758331 
0 
0.00127836491536339 
0.001420098937568427 
-0.0008074914623758331 
4.580753521517362e-05 
-0.0009043985411634542 
-0.001038094017160755 
0.001776722705797965 
-0.001788600283932505 
0.005161618691646603 
0 
0.009382201222457994 
0.001788600283932505 
0.005161618691646603 
0.001038094017160755 
0.001776722705797965 
-0.001793714861289498 
0.001243277655124169 
-0.003246498567900929 
0.004936886328803103 
0 
0.01060826088135314 
0.003246498567900929 
0.004936886328803103 
0.001793714861289498 
0.001243277655124169 
-0.0005974207172702524 
-0.001291169167643507 
-0.001543791765737583 
-0.001070394667600422 
0 
-4.543342132732598e-05 
0.001543791765737583 
-0.001070394667600422 
0.0005974207172702524 
-0.001291169167643507 
0.0004321759732859728 
-0.001013790446466768 
-0.0007310535277832979 
-0.001211496241517915 
0 
1.364442767621386e-05 
0.0007310535277832979 
-0.001211496241517915 
-0.0004321759732859728 
-0.001013790446466768 
-0.0008291128744806176 
0.0002540036075417313 
-0.001262695597196969 
0.001233955672534274 
0 
0.002957962589935944 
0.001262695597196969 
0.001233955672534274 
0.0008291128744806176 
0.0002540036075417313 
-0.00214843593023199 
-0.0004910383502123325 
-0.00368790509525821 
0.00212380998418527 
0 
0.00614370093771093 
0.00368790509525821 
0.00212380998418527 
0.00214843593023199 
-0.0004910383502123325 
-0.000401384112937447 
-0.0004794854183765641 
-0.0009980389779123688 
0.0004978067254508486 
0 
0.001598355352846254 
0.0009980389779123688 
0.0004978067254508486 
0.000401384112937447 
-0.0004794854183765641 
-0.00144327474340964 
-0.001035109075957524 
-0.003438818169527478 
0.001631894498493738 
0 
0.006054301059942505 
0.003438818169527478 
0.001631894498493738 
0.00144327474340964 
-0.001035109075957524 
0.0002344022655948027 
0.0009514059414748388 
-0.0007051744907497472 
0.002007716290755172 
0 
0.005114062953619943 
0.0007051744907497472 
0.002007716290755172 
-0.0002344022655948027 
0.0009514059414748388 
0.0001785942654443485 
-0.001235045500496437 
-0.0004371116266061122 
-0.001591462550958367 
0 
-0.001570465516707523 
0.0004371116266061122 
-0.001591462550958367 
-0.0001785942654443485 
-0.001235045500496437 
0.0005777532030101256 
-1.352259496270765e-05 
0.0006823517782058374 
-0.0006215417481656796 
0 
-0.001021067503142727 
-0.0006823517782058374 
-0.0006215417481656796 
-0.0005777532030101256 
-1.352259496270765e-05 
0.001048247186724901 
-0.001716735126992259 
-0.0001223924486300477 
-0.003720401016186889 
0 
-0.003683705151929379 
0.0001223924486300477 
-0.003720401016186889 
-0.001048247186724901 
-0.001716735126992259 
0.001017547467027444 
-0.003032749140291667 
0.0005103774958274179 
-0.006301218715902775 
0 
-0.009189905446086683 
-0.0005103774958274179 
-0.006301218715902775 
-0.001017547467027444 
-0.003032749140291667 
-0.0003866324749764752 
-0.001347454861873117 
-0.000784653962024759 
-0.001794865810278786 
0 
-0.002125960610433512 
0.000784653962024759 
-0.001794865810278786 
0.0003866324749764752 
-0.001347454861873117 
-0.0002971640936599343 
-0.001013074062002643 
-0.001115726136714115 
-0.000703221529260759 
0 
0.0002365381868498517 
0.001115726136714115 
-0.000703221529260759 
0.0002971640936599343 
-0.001013074062002643 
-0.0004288715731988342 
-0.0002564496703945472 
-0.001135369730071842 
0.0006033202339918293 
0 
0.002152627188257282 
0.001135369730071842 
0.0006033202339918293 
0.0004288715731988342 
-0.0002564496703945472 
0.0004091981831971699 
0.001573309706719688 
0.001033373141854015 
0.002123329648643486 
0 
0.002343890434037818 
-0.001033373141854015 
0.002123329648643486 
-0.0004091981831971699 
0.001573309706719688 
-0.0002410217696642493 
0.003068586005053686 
-0.0007014513733261275 
0.007159792150766422 
0 
0.01224432424035658 
0.0007014513733261275 
0.007159792150766422 
0.0002410217696642493 
0.003068586005053686 
0.001169509360568579 
-0.0007443639164654487 
0.001324231527390557 
-0.00304561454702323 
0 
-0.004942312692186725 
-0.001324231527390557 
-0.00304561454702323 
-0.001169509360568579 
-0.0007443639164654487 
0.0006570599377562051 
-0.001342812931461974 
-8.334955802435016e-05 
-0.00291313169807042 
0 
-0.003368232471671353 
8.334955802435016e-05 
-0.00291313169807042 
-0.0006570599377562051 
-0.001342812931461974 
0.0002697188462523534 
-0.0002659557716026856 
1.518608007958803e-05 
-0.0008599228915048697 
0 
-0.000794062410866285 
-1.518608007958803e-05 
-0.0008599228915048697 
-0.0002697188462523534 
-0.0002659557716026856 
0.0001554502922514479 
-0.0008347940423159025 
-0.0002769908256233167 
-0.001051212092019028 
0 
-0.001121897224958674 
0.0002769908256233167 
-0.001051212092019028 
-0.0001554502922514479 
-0.0008347940423159025 
-0.0006384040241825721 
4.047680372323685e-05 
-0.0009984340828739903 
0.0009961974650162947 
0 
0.002325918687685948 
0.0009984340828739903 
0.0009961974650162947 
0.0006384040241825721 
4.047680372323685e-05 
-0.00119264994403563 
-0.000980250881082964 
-0.003174890504861853 
0.001094277638352892 
0 
0.005191506695611493 
0.003174890504861853 
0.001094277638352892 
0.00119264994403563 
-0.000980250881082964 
0.0004574702813033255 
-0.001346019185658746 
-0.0001749689200635204 
-0.002695326822053912 
0 
-0.003229078172680372 
0.0001749689200635204 
-0.002695326822053912 
-0.0004574702813033255 
-0.001346019185658746 
0.0008657406074598953 
-0.000680055379811672 
0.001586567448901498 
-0.002617516240241464 
0 
-0.005357817640011513 
-0.001586567448901498 
-0.002617516240241464 
-0.0008657406074598953 
-0.000680055379811672 
-9.88542125539795e-05 
-0.001435632897850492 
-0.001234441864273866 
-0.001411355070413975 
0 
-0.0003609470919411328 
0.001234441864273866 
-0.001411355070413975 
9.88542125539795e-05 
-0.001435632897850492 
0.0007495986881650746 
-0.001328833936012163 
0.0009084959960384869 
-0.002984509797521166 
0 
-0.005131090411998097 
-0.0009084959960384869 
-0.002984509797521166 
-0.0007495986881650746 
-0.001328833936012163 
0.0003195388125428111 
-0.0005598991973417933 
0.0007813653812415594 
-0.002244655043746172 
0 
-0.004069024820029504 
-0.0007813653812415594 
-0.002244655043746172 
-0.0003195388125428111 
-0.0005598991973417933 
-0.0001837458749574858 
0.0007532572227605268 
0.0004554061501774039 
0.0008604929401286507 
0 
0.0003605920592397474 
-0.0004554061501774039 
0.0008604929401286507 
0.0001837458749574858 
0.0007532572227605268 
-6.021788703328274e-05 
-0.0005127537621538732 
0.0001946955983269935 
-0.001508194977038736 
0 
-0.00281060025799119 
-0.0001946955983269935 
-0.001508194977038736 
6.021788703328274e-05 
-0.0005127537621538732 
0.0006617689846126773 
-0.002119917369110377 
-0.0008667880079378306 
-0.003981085297438598 
0 
-0.003512572601015536 
0.0008667880079378306 
-0.003981085297438598 
-0.0006617689846126773 
-0.002119917369110377 
0.002258146387025065 
-0.001949817597410414 
0.002411560152997557 
-0.006136262198615536 
0 
-0.01003896912158636 
-0.002411560152997557 
-0.006136262198615536 
-0.002258146387025065 
-0.001949817597410414 
0.0006567624264123852 
-0.001318961818935472 
0.0005346035321023658 
-0.003322668287059246 
0 
-0.00536002495493969 
-0.0005346035321023658 
-0.003322668287059246 
-0.0006567624264123852 
-0.001318961818935472 
0.0005294142606800279 
-0.001551932557947244 
-0.001005414700631703 
-0.002404699222010262 
0 
-0.001063554744241468 
0.001005414700631703 
-0.002404699222010262 
-0.0005294142606800279 
-0.001551932557947244 
-9.914880982369175e-05 
-0.0004948457690519075 
-0.001498689414749803 
0.0002039994574490983 
0 
0.002825180418040852 
0.001498689414749803 
0.0002039994574490983 
9.914880982369175e-05 
-0.0004948457690519075 
0.0009975652939291433 
-0.0007775239373861935 
0.0008148048627724285 
-0.00229268870635072 
0 
-0.003366670897135121 
-0.0008148048627724285 
-0.00229268870635072 
-0.0009975652939291433 
-0.0007775239373861935 
0.0008221589135833872 
0.0003213606817751314 
0.0005188115364623458 
-0.000169483468059066 
0 
6.313077674676218e-05 
-0.0005188115364623458 
-0.000169483468059066 
-0.0008221589135833872 
0.0003213606817751314 
-0.0003511949456295209 
-0.0008249013126896885 
-0.001433020270192312 
-0.0002618988482366851 
0 
0.001527489018425351 
0.001433020270192312 
-0.0002618988482366851 
0.0003511949456295209 
-0.0008249013126896885 
-4.756969063105403e-05 
-0.001953269702920718 
-0.001037305999674589 
-0.002772924599373236 
0 
-0.002641807460616752 
0.001037305999674589 
-0.002772924599373236 
4.756969063105403e-05 
-0.001953269702920718 
0.001788430669572456 
0.00158076228655486 
0.001766762178105122 
0.001679672425236619 
0 
0.002289390358328474 
-0.001766762178105122 
0.001679672425236619 
-0.001788430669572456 
0.00158076228655486 
0.0001962944684929981 
0.001464848995874593 
0.0005227748413136775 
0.002282038508453095 
0 
0.003035561264034213 
-0.0005227748413136775 
0.002282038508453095 
-0.0001962944684929981 
0.001464848995874593 
7.078959132657577e-06 
0.0002444078445059643 
8.619233392711036e-05 
4.331265223965151e-05 
0 
0.000316998550168128 
-8.619233392711036e-05 
4.331265223965151e-05 
-7.078959132657577e-06 
0.0002444078445059643 
0.0002791594790648334 
-0.0007089730548227442 
0.0003842034851650653 
-0.001653896545995548 
0 
-0.002874785496974668 
-0.0003842034851650653 
-0.001653896545995548 
-0.0002791594790648334 
-0.0007089730548227442 
-0.0008152964475240159 
-0.003256270656076934 
-0.002146458939962289 
-0.004462856704974587 
0 
-0.004448038539750799 
0.002146458939962289 
-0.004462856704974587 
0.0008152964475240159 
-0.003256270656076934 
0.0007307822198963065 
-0.0005194559190306765 
0.001589303564332726 
-0.002559197719678293 
0 
-0.00539962035220002 
-0.001589303564332726 
-0.002559197719678293 
-0.0007307822198963065 
-0.0005194559190306765 
-0.001057217988769285 
-0.0003823955036898859 
-0.001778599202814984 
0.000798640405265602 
0 
0.002681326782673487 
0.001778599202814984 
0.000798640405265602 
0.001057217988769285 
-0.0003823955036898859 
0.0004010437501535174 
-0.001203782765950964 
-0.0004465371626208676 
-0.002485731624198357 
0 
-0.002295230621883739 
0.0004465371626208676 
-0.002485731624198357 
-0.0004010437501535174 
-0.001203782765950964 
0.001473408063078928 
-0.0009611623960160114 
0.002138720474112255 
-0.004112749579069599 
0 
-0.007559221255831466 
-0.002138720474112255 
-0.004112749579069599 
-0.001473408063078928 
-0.0009611623960160114 
0.0001197793309024189 
0.001990790629357332 
-0.0001836057612002503 
0.003464466138787832 
0 
0.006375924919062537 
0.0001836057612002503 
0.003464466138787832 
-0.0001197793309024189 
0.001990790629357332 
0.0002135362868133213 
-0.001908916950226271 
-0.001671278683734518 
-0.001957541785182427 
0 
4.594315790478518e-05 
0.001671278683734518 
-0.001957541785182427 
-0.0002135362868133213 
-0.001908916950226271 
-0.0007254689139882572 
0.0001001751143655773 
-0.002399138653668634 
0.001922148457980331 
0 
0.006009539420815309 
0.002399138653668634 
0.001922148457980331 
0.0007254689139882572 
0.0001001751143655773 
0.0008855138753291023 
-0.001718206799819877 
0.0004599514618494348 
-0.003565127523861226 
0 
-0.005132188612201308 
-0.0004599514618494348 
-0.003565127523861226 
-0.0008855138753291023 
-0.001718206799819877 
0.0007274636847183712 
0.0009843428174531534 
0.0007582675051793556 
0.0005232559315554299 
0 
0.0008843546637641672 
-0.0007582675051793556 
0.0005232559315554299 
-0.0007274636847183712 
0.0009843428174531534 
0.0006664929044576804 
-0.001955214692670233 
-0.0003922195693064942 
-0.003334161679242503 
0 
-0.003412248428175293 
0.0003922195693064942 
-0.003334161679242503 
-0.0006664929044576804 
-0.001955214692670233 
-0.0007433291687640302 
-0.00204763015173924 
-0.002216369970636312 
-0.002327184110708462 
0 
-0.001052282586701367 
0.002216369970636312 
-0.002327184110708462 
0.0007433291687640302 
-0.00204763015173924 
0.0003674064450932688 
0.001799197976921115 
-0.0007223293909384782 
0.003700691866703149 
0 
0.007620582531964611 
0.0007223293909384782 
0.003700691866703149 
-0.0003674064450932688 
0.001799197976921115 
0.001252603802352031 
-0.001276027487923542 
0.001502118745440862 
-0.00394559628127442 
0 
-0.006691883772606642 
-0.001502118745440862 
-0.00394559628127442 
-0.001252603802352031 
-0.001276027487923542 
0.0003277765772867257 
-0.001416444441003235 
-0.001339592499345541 
-0.001584289101288173 
0 
0.0002342916753288918 
0.001339592499345541 
-0.001584289101288173 
-0.0003277765772867257 
-0.001416444441003235 
-0.0002344395822357647 
-0.0003604113224438888 
-0.001610816051896339 
0.0007636387121468686 
0 
0.003454002982060146 
0.001610816051896339 
0.0007636387121468686 
0.0002344395822357647 
-0.0003604113224438888 
-2.894280669654667e-05 
0.0006811488305448372 
-0.0003602442682890223 
0.001549121942454026 
0 
0.003043901231601649 
0.0003602442682890223 
0.001549121942454026 
2.894280669654667e-05 
0.0006811488305448372 
0.00120974125838112 
-0.001698395333999438 
0.0003284284957292486 
-0.003295808749388663 
0 
-0.003846318110293146 
-0.0003284284957292486 
-0.003295808749388663 
-0.00120974125838112 
-0.001698395333999438 
-0.0009067376548836859 
-0.0001948771374336243 
-0.001854424140845876 
0.0006672042511138463 
0 
0.002951001643554624 
0.001854424140845876 
0.0006672042511138463 
0.0009067376548836859 
-0.0001948771374336243 
-4.740990191086266e-05 
-0.0008682681627082362 
-0.0009128276275467192 
-0.001314125802283011 
0 
-0.0003181882235400488 
0.0009128276275467192 
-0.001314125802283011 
4.740990191086266e-05 
-0.0008682681627082362 
0.001297415029516673 
-0.000524454199485294 
0.001878750828224583 
-0.002737946515035042 
0 
-0.00538156118243596 
-0.001878750828224583 
-0.002737946515035042 
-0.001297415029516673 
-0.000524454199485294 
-0.000690284592577422 
-2.102379473980388e-05 
-0.002082193873691254 
0.001905447996921165 
0 
0.005254662631226069 
0.002082193873691254 
0.001905447996921165 
0.000690284592577422 
-2.102379473980388e-05 
-0.0008989074947576771 
-0.001188641884248165 
-0.002300414982539677 
-0.0003695441688173593 
0 
0.002109347012552049 
0.002300414982539677 
-0.0003695441688173593 
0.0008989074947576771 
-0.001188641884248165 
-0.001990135781081909 
2.384901702997713e-05 
-0.004205649838875107 
0.004109416970294491 
0 
0.01026022544193509 
0.004205649838875107 
0.004109416970294491 
0.001990135781081909 
2.384901702997713e-05 
0.0004552263204669306 
0.001097243895398303 
0.001210778212114151 
0.0009048068008430735 
0 
0.0001508507185079366 
-0.001210778212114151 
0.0009048068008430735 
-0.0004552263204669306 
0.001097243895398303 
-0.00023230142115614 
-0.002475756212633808 
-0.001409825413421264 
-0.004236118652457654 
0 
-0.004649105638411386 
0.001409825413421264 
-0.004236118652457654 
0.00023230142115614 
-0.002475756212633808 
-3.743542205428971e-05 
-0.0006629144980451442 
-0.000476384518612822 
-0.001246299881642695 
0 
-0.000958983811743618 
0.000476384518612822 
-0.001246299881642695 
3.743542205428971e-05 
-0.0006629144980451442 
-0.000181677856224964 
-0.0008343426573526473 
-0.001535983289554557 
-0.0006462318614263844 
0 
0.001515763366036669 
0.001535983289554557 
-0.0006462318614263844 
0.000181677856224964 
-0.0008343426573526473 
-0.0008848111022052108 
-0.0002766411691270634 
-0.001823758179974644 
0.0006507943778649418 
0 
0.003065694933940316 
0.001823758179974644 
0.0006507943778649418 
0.0008848111022052108 
-0.0002766411691270634 
0.0001767647458303111 
-0.0007563077772730103 
-0.0003903650101169828 
-0.001224011167407064 
0 
-0.0009123080442519748 
0.0003903650101169828 
-0.001224011167407064 
-0.0001767647458303111 
-0.0007563077772730103 
-0.0009547496378777673 
-0.002002205737936922 
-0.00413341840385645 
-0.0004502060108640257 
0 
0.004917941034355139 
0.00413341840385645 
-0.0004502060108640257 
0.0009547496378777673 
-0.002002205737936922 
0.00024762689358556 
-0.0005829739045705521 
-0.001352802137974129 
-9.557096963069535e-05 
0 
0.002520360986285039 
0.001352802137974129 
-9.557096963069535e-05 
-0.00024762689358556 
-0.0005829739045705521 
-0.001321205592223328 
-0.001369817793812689 
-0.002119519483721104 
-0.000956483072624143 
0 
4.227068259091497e-05 
0.002119519483721104 
-0.000956483072624143 
0.001321205592223328 
-0.001369817793812689 
0.0002415281021400865 
-0.002121328030103455 
-0.0007678680078086614 
-0.002854126724160207 
0 
-0.002851574263800013 
0.0007678680078086614 
-0.002854126724160207 
-0.0002415281021400865 
-0.002121328030103455 
-0.001840708038591187 
0.0004558402621593599 
-0.003706040430966994 
0.004060498996875774 
0 
0.009700120637694855 
0.003706040430966994 
0.004060498996875774 
0.001840708038591187 
0.0004558402621593599 
-0.0006828568179747328 
-0.001056808408723993 
-0.002461393135959919 
0.0002145387780340078 
0 
0.003398203484159961 
0.002461393135959919 
0.0002145387780340078 
0.0006828568179747328 
-0.001056808408723993 
0.0008181313444685349 
-0.001703295397152137 
0.001200514335122277 
-0.004202863136220895 
0 
-0.007321212105607476 
-0.001200514335122277 
-0.004202863136220895 
-0.0008181313444685349 
-0.001703295397152137 
-0.00119116875739076 
-0.0001109067910664183 
-0.00173575040764658 
0.0006815949356515383 
0 
0.00217537095536715 
0.00173575040764658 
0.0006815949356515383 
0.00119116875739076 
-0.0001109067910664183 
0.0002041713049513914 
-0.00251936712031839 
-0.002195923995805879 
-0.002860040021962736 
0 
-0.0005887285570136094 
0.002195923995805879 
-0.002860040021962736 
-0.0002041713049513914 
-0.00251936712031839 
-0.001265381080738418 
0.002342756571329714 
-0.0009577963153091074 
0.004867430670327189 
0 
0.007498884204258407 
0.0009577963153091074 
0.004867430670327189 
0.001265381080738418 
0.002342756571329714 
0.0002733263717692515 
-0.00110132591046546 
0.0004241174487633342 
-0.00213395443532116 
0 
-0.003665972182110124 
-0.0004241174487633342 
-0.00213395443532116 
-0.0002733263717692515 
-0.00110132591046546 
-0.0008185893674329895 
-0.0002675669400494929 
-0.0008341632501884394 
0.0004150408874448945 
0 
0.0006819060884214888 
0.0008341632501884394 
0.0004150408874448945 
0.0008185893674329895 
-0.0002675669400494929 
0.000224441304869825 
-0.0006027013241534563 
-0.0001313386711936884 
-0.001029315736133078 
0 
-0.001115925751829902 
0.0001313386711936884 
-0.001029315736133078 
-0.000224441304869825 
-0.0006027013241534563 
-0.0008920681645697137 
-0.001613303272475267 
-0.003209812144452449 
-0.0001477380055394695 
0 
0.003776807054400249 
0.003209812144452449 
-0.0001477380055394695 
0.0008920681645697137 
-0.001613303272475267 
-0.002270307058078498 
-0.0003745628988191154 
-0.004993982851391084 
0.00411410803212801 
0 
0.01111678691940225 
0.004993982851391084 
0.00411410803212801 
0.002270307058078498 
-0.0003745628988191154 
0.0001281054588776165 
-0.001427456282863803 
-0.0004132883965109142 
-0.002422977784722333 
0 
-0.002779500176722533 
0.0004132883965109142 
-0.002422977784722333 
-0.0001281054588776165 
-0.001427456282863803 
-0.0009614449781454212 
-0.001155444563934139 
-0.002840388542368286 
0.0005322295358625337 
0 
0.004086258115494636 
0.002840388542368286 
0.0005322295358625337 
0.0009614449781454212 
-0.001155444563934139 
0.001130559484453129 
-0.002224855825983084 
-0.0002888639908920723 
-0.003850812697338655 
0 
-0.003751571086767392 
0.0002888639908920723 
-0.003850812697338655 
-0.001130559484453129 
-0.002224855825983084 
-0.0001933727361205291 
-4.202945566579203e-05 
-0.0007448883667182778 
0.0007172918865759629 
0 
0.002192299626565667 
0.0007448883667182778 
0.0007172918865759629 
0.0001933727361205291 
-4.202945566579203e-05 
0.0009049291573542802 
-0.001476976643127629 
0.0006352506679997269 
-0.003214504582430987 
0 
-0.004684723740089519 
-0.0006352506679997269 
-0.003214504582430987 
-0.0009049291573542802 
-0.001476976643127629 
3.721798087235656e-05 
-0.001900475696182963 
-0.00181879196614545 
-0.001739526107049416 
0 
0.0002648180927134645 
0.00181879196614545 
-0.001739526107049416 
-3.721798087235656e-05 
-0.001900475696182963 
-0.0006901102074555467 
-0.001080008132812965 
-0.002175497239486367 
-0.0001426450213241283 
0 
0.002522610028801863 
0.002175497239486367 
-0.0001426450213241283 
0.0006901102074555467 
-0.001080008132812965 
0.001217650084671104 
-0.0005517229776440619 
0.0008354058530240645 
-0.00193052539094258 
0 
-0.002531096500698845 
-0.0008354058530240645 
-0.00193052539094258 
-0.001217650084671104 
-0.0005517229776440619 
4.141409560383192e-05 
8.615308525605954e-05 
-0.0006641253696935769 
0.0006206661489994752 
0 
0.002132453258649086 
0.0006641253696935769 
0.0006206661489994752 
-4.141409560383192e-05 
8.615308525605954e-05 
0.0005813450758845209 
-0.0007304696865134773 
0.0001001591350043802 
-0.001699761581172301 
0 
-0.001803669876960634 
-0.0001001591350043802 
-0.001699761581172301 
-0.0005813450758845209 
-0.0007304696865134773 
-0.001395281173482048 
0.000495983828562054 
-0.002305894079240361 
0.002924811014082793 
0 
0.006383059325205532 
0.002305894079240361 
0.002924811014082793 
0.001395281173482048 
0.000495983828562054 
0.000929471954427033 
0.0001828851293743386 
0.001582608195956441 
-0.001136397918526635 
0 
-0.002957114783944536 
-0.001582608195956441 
-0.001136397918526635 
-0.000929471954427033 
0.0001828851293743386 
0.0001200302039914779 
-0.0009734968050936451 
-0.0005301019060887744 
-0.002576509020693846 
0 
-0.003027358301130902 
0.0005301019060887744 
-0.002576509020693846 
-0.0001200302039914779 
-0.0009734968050936451 
0.000123211888179383 
-0.001369722551228509 
-0.001250963234570796 
-0.00174169581752315 
0 
-0.0004543748587602561 
0.001250963234570796 
-0.00174169581752315 
-0.000123211888179383 
-0.001369722551228509 
0.0004889471767245523 
-0.001932518932026028 
-0.001017271377814295 
-0.002316888025935653 
0 
-0.00141946302010204 
0.001017271377814295 
-0.002316888025935653 
-0.0004889471767245523 
-0.001932518932026028 
-0.0008614716614267262 
-0.0003328893636484974 
-0.001914105491519616 
0.0005960131299887006 
0 
0.003029943558457655 
0.001914105491519616 
0.0005960131299887006 
0.0008614716614267262 
-0.0003328893636484974 
0.0002765709722536959 
-0.0005585691562773803 
0.0003171422523601405 
-0.001577860517243006 
0 
-0.00252283973527587 
-0.0003171422523601405 
-0.001577860517243006 
-0.0002765709722536959 
-0.0005585691562773803 
-0.0007134817916539033 
-0.001811888182624326 
-0.002331343626431558 
-0.001202529917326196 
0 
0.001094698254373028 
0.002331343626431558 
-0.001202529917326196 
0.0007134817916539033 
-0.001811888182624326 
7.372634643044257e-05 
-0.00128820349966596 
-0.001353335689723489 
-0.001606083709184926 
0 
0.0001047014188293377 
0.001353335689723489 
-0.001606083709184926 
-7.372634643044257e-05 
-0.00128820349966596 
-0.001178212395377985 
0.0008292276680204041 
-0.001535899122022721 
0.003149548815036937 
0 
0.005771990157632914 
0.001535899122022721 
0.003149548815036937 
0.001178212395377985 
0.0008292276680204041 
0.001250484154715332 
-0.001627084336840364 
0.0006659428418515058 
-0.003561180745029185 
0 
-0.004794486135173907 
-0.0006659428418515058 
-0.003561180745029185 
-0.001250484154715332 
-0.001627084336840364 
-0.001485472971680293 
0.0003921134826834937 
-0.002391533581359224 
0.00323606462311901 
0 
0.006850766586473518 
0.002391533581359224 
0.00323606462311901 
0.001485472971680293 
0.0003921134826834937 
0.0009729213284061917 
-0.001377303677912948 
0.0007596924271726839 
-0.003107275883619593 
0 
-0.004650130821674978 
-0.0007596924271726839 
-0.003107275883619593 
-0.0009729213284061917 
-0.001377303677912948 
0.0007023231047863106 
-0.001218230813925371 
-4.538679199104312e-05 
-0.002304969314858967 
0 
-0.002541528302679777 
4.538679199104312e-05 
-0.002304969314858967 
-0.0007023231047863106 
-0.001218230813925371 
-0.001024536607463455 
-0.001264485464637976 
-0.002360220157645066 
-0.0002293432188115519 
0 
0.001813834641844923 
0.002360220157645066 
-0.0002293432188115519 
0.001024536607463455 
-0.001264485464637976 
6.524256039293827e-05 
-0.001562739133747441 
-0.001137453766611284 
-0.00192256283809556 
0 
-0.0008245111690844626 
0.001137453766611284 
-0.00192256283809556 
-6.524256039293827e-05 
-0.001562739133747441 
-0.0002995911682539487 
-0.001699647048683387 
-0.002235190251796411 
-0.001080732153730022 
0 
0.001530770424932019 
0.002235190251796411 
-0.001080732153730022 
0.0002995911682539487 
-0.001699647048683387 
-0.0008008963976585187 
-0.0006079190761345175 
-0.00129419741658851 
-0.0002753832613407726 
0 
0.000480116310528407 
0.00129419741658851 
-0.0002753832613407726 
0.0008008963976585187 
-0.0006079190761345175 
-0.0004652277456223548 
-0.0008162092976312237 
-0.0002624389251174861 
-0.00226838571480321 
0 
-0.003794821604589225 
0.0002624389251174861 
-0.00226838571480321 
0.0004652277456223548 
-0.0008162092976312237 
-9.707687550142176e-05 
-0.0004865366983874389 
-0.0003796159600204003 
-0.0007224730022944198 
0 
-0.0005433631118105458 
0.0003796159600204003 
-0.0007224730022944198 
9.707687550142176e-05 
-0.0004865366983874389 
-0.001413700724739526 
-0.00159973577128537 
-0.004014465026317984 
0.0009374815880334149 
0 
0.006011866121558262 
0.004014465026317984 
0.0009374815880334149 
0.001413700724739526 
-0.00159973577128537 
-0.001575881152476736 
0.000765043962513599 
-0.002300213352548116 
0.003397089975724305 
0 
0.007046637982666026 
0.002300213352548116 
0.003397089975724305 
0.001575881152476736 
0.000765043962513599 
3.112123866655533e-05 
-0.0004259392245069505 
-0.0002683871079831037 
-0.0006606724599140286 
0 
-0.0005249794587830467 
0.0002683871079831037 
-0.0006606724599140286 
-3.112123866655533e-05 
-0.0004259392245069505 
-0.0008885403391080612 
-0.001196357464039684 
-0.001612049210275206 
-0.0006111742509283205 
0 
0.0003847343802921058 
0.001612049210275206 
-0.0006111742509283205 
0.0008885403391080612 
-0.001196357464039684 
-0.0002456002657934581 
-0.000513554524993911 
-9.17216812520607e-05 
-0.000753033195689212 
0 
-0.001276071180393944 
9.17216812520607e-05 
-0.000753033195689212 
0.0002456002657934581 
-0.000513554524993911 
-0.0004677589478101889 
0.0004844497481407041 
-0.0004130793838301995 
0.001340206580011192 
0 
0.002147474144672893 
0.0004130793838301995 
0.001340206580011192 
0.0004677589478101889 
0.0004844497481407041 
-0.0004588934454917699 
-0.0007220198343183545 
-0.0002470243033218007 
-0.001883287308524358 
0 
-0.003089144340585649 
0.0002470243033218007 
-0.001883287308524358 
0.0004588934454917699 
-0.0007220198343183545 
-0.000998080045635919 
0.0006558191066255639 
-0.002712850238465394 
0.003161179325437542 
0 
0.008151516042854483 
0.002712850238465394 
0.003161179325437542 
0.000998080045635919 
0.0006558191066255639 
-0.0003740070271745452 
-0.002058924779603263 
-0.002107745686604304 
-0.001764332240066572 
0 
0.0003689660801409183 
0.002107745686604304 
-0.001764332240066572 
0.0003740070271745452 
-0.002058924779603263 
0.0006833982210609394 
-0.002527229684802298 
-0.0008583126071813763 
-0.003960125796529648 
0 
-0.003732137267209936 
0.0008583126071813763 
-0.003960125796529648 
-0.0006833982210609394 
-0.002527229684802298 
-0.002182796213406444 
-3.406242796482762e-05 
-0.003636961613521491 
0.003019157671729656 
0 
0.007721201564554115 
0.003636961613521491 
0.003019157671729656 
0.002182796213406444 
-3.406242796482762e-05 
0.0001000896521179287 
-0.000787477955423792 
-0.001187880007031899 
-0.0005154202945903252 
0 
0.001367484592671102 
0.001187880007031899 
-0.0005154202945903252 
-0.0001000896521179287 
-0.000787477955423792 
-0.001092862613862451 
-0.0004217972162474605 
-0.002655975646352978 
0.001634131260479715 
0 
0.005275133064031646 
0.002655975646352978 
0.001634131260479715 
0.001092862613862451 
-0.0004217972162474605 
0.0003541767431743234 
-0.002018486998310592 
-0.0002185966738144647 
-0.003151836960179918 
0 
-0.004087685012065627 
0.0002185966738144647 
-0.003151836960179918 
-0.0003541767431743234 
-0.002018486998310592 
-0.0001060907063209293 
-0.00298029596035805 
-0.0009011322025317659 
-0.005278991550375174 
0 
-0.007194759204106426 
0.0009011322025317659 
-0.005278991550375174 
0.0001060907063209293 
-0.00298029596035805 
-9.988872447064572e-05 
0.0002055331221329714 
-0.0008018240979099965 
0.0009353705131372124 
0 
0.002698622080205504 
0.0008018240979099965 
0.0009353705131372124 
9.988872447064572e-05 
0.0002055331221329714 
-0.001138516501581725 
3.908898734951199e-05 
-0.002579799312537739 
0.002252181791004349 
0 
0.006113638562258653 
0.002579799312537739 
0.002252181791004349 
0.001138516501581725 
3.908898734951199e-05 
-0.001482326738461519 
-0.0003336056208137709 
-0.003164741510103705 
0.002169043833116725 
0 
0.00649743427574005 
0.003164741510103705 
0.002169043833116725 
0.001482326738461519 
-0.0003336056208137709 
0.0007387513426471159 
-0.001160836283788542 
0.0006019993963038091 
-0.002747381745473955 
0 
-0.004084562857686835 
-0.0006019993963038091 
-0.002747381745473955 
-0.0007387513426471159 
-0.001160836283788542 
-0.001744708549479306 
0.000131985279253514 
-0.004502297768815122 
0.004359832602960785 
0 
0.01161081033368416 
0.004502297768815122 
0.004359832602960785 
0.001744708549479306 
0.000131985279253514 
-0.0007475339158912911 
-0.001545895296369706 
-0.002534206313256195 
-0.0004121019341351269 
0 
0.002394187607536309 
0.002534206313256195 
-0.0004121019341351269 
0.0007475339158912911 
-0.001545895296369706 
-0.0007066259687296767 
-0.001309619701214839 
-0.001427204386911373 
-0.001356949262825737 
0 
-0.001160422095497864 
0.001427204386911373 
-0.001356949262825737 
0.0007066259687296767 
-0.001309619701214839 
-6.936264158150758e-05 
-0.0008614619727588819 
-0.0003064587924679949 
-0.001278323544097846 
0 
-0.001691268916659369 
0.0003064587924679949 
-0.001278323544097846 
6.936264158150758e-05 
-0.0008614619727588819 
8.077435075828639e-05 
-0.0006578569935503663 
0.0002888480852184792 
-0.001543792819682335 
0 
-0.002631608024586098 
-0.0002888480852184792 
-0.001543792819682335 
-8.077435075828639e-05 
-0.0006578569935503663 
0.0009084452636632095 
-0.001597635517263504 
0.0002197310802576049 
-0.003280186458498328 
0 
-0.004129072042484679 
-0.0002197310802576049 
-0.003280186458498328 
-0.0009084452636632095 
-0.001597635517263504 
0.001029285397373303 
-0.0005544156992254996 
0.001302901042870753 
-0.00227889115183784 
0 
-0.00419889594935363 
-0.001302901042870753 
-0.00227889115183784 
-0.001029285397373303 
-0.0005544156992254996 
-0.001378027606101022 
2.383979375304091e-05 
-0.003159971331404648 
0.002857488481377981 
0 
0.007431577322122976 
0.003159971331404648 
0.002857488481377981 
0.001378027606101022 
2.383979375304091e-05 
0.0003100212205332449 
-0.00182226119713559 
-0.001498724726452143 
-0.001986833002433793 
0 
-0.000191678154785782 
0.001498724726452143 
-0.001986833002433793 
-0.0003100212205332449 
-0.00182226119713559 
-0.001290246638498018 
-0.0006572074830959801 
-0.003375380167413851 
0.001956279504267419 
0 
0.006740103683885459 
0.003375380167413851 
0.001956279504267419 
0.001290246638498018 
-0.0006572074830959801 
-6.843150737871662e-05 
-0.0003879804966319843 
-0.0002370391987877841 
-0.000422189862468916 
0 
-0.000389025199988399 
0.0002370391987877841 
-0.000422189862468916 
6.843150737871662e-05 
-0.0003879804966319843 
-0.00121189415706756 
-0.0009565051153500908 
-0.002328752107840699 
-0.0005382814624750802 
0 
0.001150462840390269 
0.002328752107840699 
-0.0005382814624750802 
0.00121189415706756 
-0.0009565051153500908 
-0.0006229990337525172 
-0.001158904792373785 
-0.002016565871464435 
3.403304873964581e-05 
0 
0.002357959072852703 
0.002016565871464435 
3.403304873964581e-05 
0.0006229990337525172 
-0.001158904792373785 
-0.0009369965157298028 
-0.001011405660929612 
-0.003608001190628512 
0.001483767191254493 
0 
0.006866418941887783 
0.003608001190628512 
0.001483767191254493 
0.0009369965157298028 
-0.001011405660929612 
-0.0005619927722934056 
-0.001180582618433714 
-0.001828725581728136 
-0.0008515577955667157 
0 
0.0008693476212286332 
0.001828725581728136 
-0.0008515577955667157 
0.0005619927722934056 
-0.001180582618433714 
0.0009983730549861117 
-0.0008740184954414117 
0.001096236145305621 
-0.002502152688419529 
0 
-0.004364740430633615 
-0.001096236145305621 
-0.002502152688419529 
-0.0009983730549861117 
-0.0008740184954414117 
-0.0002040905762109387 
-0.0003382533713904969 
-0.0006015002922373004 
-0.0009724307532800558 
0 
-0.000489728857977785 
0.0006015002922373004 
-0.0009724307532800558 
0.0002040905762109387 
-0.0003382533713904969 
0.0005944845997026655 
-0.002403005595743903 
-0.001216312078296616 
-0.003431677808157441 
0 
-0.002473918747888814 
0.001216312078296616 
-0.003431677808157441 
-0.0005944845997026655 
-0.002403005595743903 
-0.0005809033443288005 
-0.0009820816386947573 
-0.0008530935503190712 
-0.0008932675967171306 
0 
-0.001036848804062272 
0.0008530935503190712 
-0.0008932675967171306 
0.0005809033443288005 
-0.0009820816386947573 
0.002072339654742618 
-0.000892072128013701 
0.002667428190094476 
-0.003665094084390375 
0 
-0.007093581045197667 
-0.002667428190094476 
-0.003665094084390375 
-0.002072339654742618 
-0.000892072128013701 
-0.001025812277669555 
-0.0004936277307991252 
-0.002474255362104432 
0.001571434841537974 
0 
0.004861846173320658 
0.002474255362104432 
0.001571434841537974 
0.001025812277669555 
-0.0004936277307991252 
0.0005360642542706135 
-0.001683308015611821 
-0.0001151902189937573 
-0.003094888018183901 
0 
-0.003834347560777909 
0.0001151902189937573 
-0.003094888018183901 
-0.0005360642542706135 
-0.001683308015611821 
0.001428875628556124 
-0.0006825632054372285 
0.00169815649944694 
-0.00285877833094504 
0 
-0.005151541374685917 
-0.00169815649944694 
-0.00285877833094504 
-0.001428875628556124 
-0.0006825632054372285 
-0.0006922831346589493 
-0.002654881843883169 
-0.002186526620973664 
-0.002988969969095451 
0 
-0.002034485261107714 
0.002186526620973664 
-0.002988969969095451 
0.0006922831346589493 
-0.002654881843883169 
6.885318205690173e-05 
-0.002091579739730389 
-0.002255884710095207 
-0.001854973829537509 
0 
0.0009913778630192744 
0.002255884710095207 
-0.001854973829537509 
-6.885318205690173e-05 
-0.002091579739730389 
-0.001364102925431968 
0.0001194373678673222 
-0.003285786537466679 
0.003027151362915139 
0 
0.008167729879171724 
0.003285786537466679 
0.003027151362915139 
0.001364102925431968 
0.0001194373678673222 
0.0003586472067860883 
-0.0003342570414034037 
0.0002708507154653637 
-0.0008798535111635755 
0 
-0.001271598182404315 
-0.0002708507154653637 
-0.0008798535111635755 
-0.0003586472067860883 
-0.0003342570414034037 
-0.001371059839188585 
-0.0001077445537048116 
-0.00133364748916186 
0.000371136502357123 
0 
0.0005808484409857205 
0.00133364748916186 
0.000371136502357123 
0.001371059839188585 
-0.0001077445537048116 
-0.001487686038853787 
-0.001560464719612165 
-0.00395924188804263 
0.0008178415415550646 
0 
0.005651379978757183 
0.00395924188804263 
0.0008178415415550646 
0.001487686038853787 
-0.001560464719612165 
-0.001280178390309872 
-0.0009155057452819511 
-0.002788289749390908 
0.001094033083674589 
0 
0.004394673948824422 
0.002788289749390908 
0.001094033083674589 
0.001280178390309872 
-0.0009155057452819511 
-0.001248437552080983 
-0.0003458556595140802 
-0.003148304090980883 
0.00207452329741694 
0 
0.006570100546402281 
0.003148304090980883 
0.00207452329741694 
0.001248437552080983 
-0.0003458556595140802 
-3.889017280771258e-05 
-0.001630608366585841 
-0.0004185599342524209 
-0.002206598869456957 
0 
-0.003022236234711325 
0.0004185599342524209 
-0.002206598869456957 
3.889017280771258e-05 
-0.001630608366585841 
-0.0005765467023991088 
0.000349637698410462 
-0.0008978861105510726 
0.001433758960030352 
0 
0.002964788862685719 
0.0008978861105510726 
0.001433758960030352 
0.0005765467023991088 
0.000349637698410462 
-0.0008393576582138732 
-0.001490802484120605 
-0.002119924099085383 
-0.0007373323413927453 
0 
0.0009870456819529505 
0.002119924099085383 
-0.0007373323413927453 
0.0008393576582138732 
-0.001490802484120605 
-0.001380298643169646 
-0.001332885055793583 
-0.001786305485934345 
-0.0009571103117125024 
0 
-0.0006350953204748275 
0.001786305485934345 
-0.0009571103117125024 
0.001380298643169646 
-0.001332885055793583 
-0.0008829229547863678 
-0.0005862111161506426 
-0.0006827291751069406 
-6.08443734920511e-05 
0 
-0.0003146071115265765 
0.0006827291751069406 
-6.08443734920511e-05 
0.0008829229547863678 
-0.0005862111161506426 
-0.0008845839124132313 
0.0002924653313266907 
-0.00160908018122432 
0.001752142442941636 
0 
0.004211256195720037 
0.00160908018122432 
0.001752142442941636 
0.0008845839124132313 
0.0002924653313266907 
-0.0001787985932802438 
-0.001356603089159315 
-0.001094462925357631 
-0.001657258792356624 
0 
-0.001093909655940845 
0.001094462925357631 
-0.001657258792356624 
0.0001787985932802438 
-0.001356603089159315 
0.001168806797558345 
-0.0003178646246088166 
0.001250078909727774 
-0.002072573538948737 
0 
-0.003410426424575441 
-0.001250078909727774 
-0.002072573538948737 
-0.001168806797558345 
-0.0003178646246088166 
-0.0003380163438934647 
-0.0005194240552701712 
-0.001537140623513528 
0.0002277930798811018 
0 
0.002531516147508174 
0.001537140623513528 
0.0002277930798811018 
0.0003380163438934647 
-0.0005194240552701712 
0.0005800400606037803 
-0.0009384127663581069 
-0.0003722715042086123 
-0.001425045208279729 
0 
-0.0006683011329337593 
0.0003722715042086123 
-0.001425045208279729 
-0.0005800400606037803 
-0.0009384127663581069 
-0.001299799041875108 
-0.000713638261140012 
-0.003132328149720635 
0.001647694196023028 
0 
0.005616160505240927 
0.003132328149720635 
0.001647694196023028 
0.001299799041875108 
-0.000713638261140012 
-0.001032621879314499 
0.0004245980656959848 
-0.0007121851175131374 
0.001403280397307044 
0 
0.001882116156265619 
0.0007121851175131374 
0.001403280397307044 
0.001032621879314499 
0.0004245980656959848 
-0.001324278257851008 
-0.0003278614401481302 
-0.00124586846928027 
-0.0001694323702263718 
0 
-0.0003180116986461365 
0.00124586846928027 
-0.0001694323702263718 
0.001324278257851008 
-0.0003278614401481302 
-0.001284604112763884 
-0.0006376100833091755 
-0.002278612296723619 
0.0009977268883185498 
0 
0.003440592769499473 
0.002278612296723619 
0.0009977268883185498 
0.001284604112763884 
-0.0006376100833091755 
-0.001149216966946935 
-0.001160045275034963 
-0.003426922424575313 
0.001558238590077711 
0 
0.005877551505120753 
0.003426922424575313 
0.001558238590077711 
0.001149216966946935 
-0.001160045275034963 
-0.0003008952079456106 
-0.002606755909848441 
-0.002207616351829142 
-0.002728608900181086 
0 
-0.001402901252840255 
0.002207616351829142 
-0.002728608900181086 
0.0003008952079456106 
-0.002606755909848441 
0.0003801555046257451 
-0.001371679618815402 
-0.0001908420783337735 
-0.002028833905058431 
0 
-0.002280007698732226 
0.0001908420783337735 
-0.002028833905058431 
-0.0003801555046257451 
-0.001371679618815402 
-0.001039335967063632 
4.894470076028241e-05 
-0.002468712804180717 
0.002170663716494512 
0 
0.00580262733355627 
0.002468712804180717 
0.002170663716494512 
0.001039335967063632 
4.894470076028241e-05 
-0.0003652292752200374 
-0.000942000493721732 
-0.001717918362092205 
-0.0002250152760603317 
0 
0.00190730575742147 
0.001717918362092205 
-0.0002250152760603317 
0.0003652292752200374 
-0.000942000493721732 
-0.0001323443918007451 
-0.002458617161903862 
-0.001179391153044818 
-0.003984432063283733 
0 
-0.004307090551243668 
0.001179391153044818 
-0.003984432063283733 
0.0001323443918007451 
-0.002458617161903862 
0.001055161824724739 
-0.001890388590864086 
0.0007463171064930362 
-0.0041267151562145 
0 
-0.00613266170880672 
-0.0007463171064930362 
-0.0041267151562145 
-0.001055161824724739 
-0.001890388590864086 
3.956249045415939e-05 
-0.0008753566212392874 
-0.001560679601997088 
-2.925231041470021e-05 
0 
0.002507128372438371 
0.001560679601997088 
-2.925231041470021e-05 
-3.956249045415939e-05 
-0.0008753566212392874 
-0.0001978154336049404 
-0.0005597737630618241 
-0.0004846870461060947 
-0.0007773865955320009 
0 
-0.0004617724245695607 
0.0004846870461060947 
-0.0007773865955320009 
0.0001978154336049404 
-0.0005597737630618241 
-0.0004993169965513861 
-0.0003552541525554875 
-0.001602314581374074 
0.0009324882550846783 
0 
0.003299694834306753 
0.001602314581374074 
0.0009324882550846783 
0.0004993169965513861 
-0.0003552541525554875 
-0.001350951886075632 
-0.001872103339600748 
-0.004342266290145332 
0.0004218339997297218 
0 
0.005828325288457154 
0.004342266290145332 
0.0004218339997297218 
0.001350951886075632 
-0.001872103339600748 
-0.0009957448714287681 
-0.0002360107828979614 
-0.001853186053758383 
0.001473621058291838 
0 
0.00386093236062033 
0.001853186053758383 
0.001473621058291838 
0.0009957448714287681 
-0.0002360107828979614 
-0.001485755102338282 
-8.743238925592502e-05 
-0.003672489185021843 
0.0030085603943492 
0 
0.008498813468900673 
0.003672489185021843 
0.0030085603943492 
0.001485755102338282 
-8.743238925592502e-05 
0.0002349841376829664 
-0.002078765443347389 
-0.0003122294603389567 
-0.003736954075167105 
0 
-0.004941943725882815 
0.0003122294603389567 
-0.003736954075167105 
-0.0002349841376829664 
-0.002078765443347389 
-0.0001939004445930577 
-0.0007156440072322224 
-0.0003602292559466452 
-0.001496278147101824 
0 
-0.002209106052174752 
0.0003602292559466452 
-0.001496278147101824 
0.0001939004445930577 
-0.0007156440072322224 
-0.001931988580962852 
0.0005094002610622088 
-0.002818465933504791 
0.003552808535260484 
0 
0.007316888339058861 
0.002818465933504791 
0.003552808535260484 
0.001931988580962852 
0.0005094002610622088 
-0.0008513728890165925 
0.0001315375062585196 
-0.001864224629808801 
0.00152161380441649 
0 
0.004210902343211118 
0.001864224629808801 
0.00152161380441649 
0.0008513728890165925 
0.0001315375062585196 
-0.001229657573008045 
-0.0003097214704303109 
-0.002342123049909051 
0.001351775455588037 
0 
0.004057027228641454 
0.002342123049909051 
0.001351775455588037 
0.001229657573008045 
-0.0003097214704303109 
2.302436620378043e-05 
-0.001299082136191856 
-0.001386781023564033 
-0.000963696462357248 
0 
0.0007509949887799915 
0.001386781023564033 
-0.000963696462357248 
-2.302436620378043e-05 
-0.001299082136191856 
-0.001209312014677654 
-0.001071397466355221 
-0.003068792940042412 
0.0003051642612398289 
0 
0.003764506025617043 
0.003068792940042412 
0.0003051642612398289 
0.001209312014677654 
-0.001071397466355221 
-0.001168916030463967 
-0.0003116917264596645 
-0.002677690480775081 
0.001771435759511413 
0 
0.005456158522746141 
0.002677690480775081 
0.001771435759511413 
0.001168916030463967 
-0.0003116917264596645 
-0.001700870204768501 
0.0003688944415570197 
-0.002322743593080403 
0.00275929986142809 
0 
0.005767398859604635 
0.002322743593080403 
0.00275929986142809 
0.001700870204768501 
0.0003688944415570197 
0.0009327922105554365 
-0.0006379826943008159 
0.0008494732230837504 
-0.002207840928135917 
0 
-0.003485944925624622 
-0.0008494732230837504 
-0.002207840928135917 
-0.0009327922105554365 
-0.0006379826943008159 
-0.0008437700295003554 
-0.002191025481596478 
-0.003067271011468916 
-0.001374187358337841 
0 
0.001762875738581235 
0.003067271011468916 
-0.001374187358337841 
0.0008437700295003554 
-0.002191025481596478 
0.000594335576773421 
-0.001062565661805751 
-0.0006163734625834848 
-0.001519017160772909 
0 
-0.0006301815029830481 
0.0006163734625834848 
-0.001519017160772909 
-0.000594335576773421 
-0.001062565661805751 
-1.986152751762671e-05 
-0.0008724703504870479 
-0.0005543213156853598 
-0.00146179232731893 
0 
-0.001314303658401109 
0.0005543213156853598 
-0.00146179232731893 
1.986152751762671e-05 
-0.0008724703504870479 
-0.0008674867506237922 
-0.001466622653906973 
-0.002724113722810099 
-0.0004342298021815207 
0 
0.002657003858344299 
0.002724113722810099 
-0.0004342298021815207 
0.0008674867506237922 
-0.001466622653906973 
0.0001563739476660255 
-0.001231422643136611 
-0.0008124163985791037 
-0.0014306973441261 
0 
-0.000850569426361363 
0.0008124163985791037 
-0.0014306973441261 
-0.0001563739476660255 
-0.001231422643136611 
-0.001967152556972243 
-0.001408072250221948 
-0.004391927255316753 
0.00174302814184102 
0 
0.006831174191038051 
0.004391927255316753 
0.00174302814184102 
0.001967152556972243 
-0.001408072250221948 
-0.000695522259878882 
-0.000396682994823346 
-0.0008645061577702768 
0.0001260164434269915 
0 
0.0006737544748279658 
0.0008645061577702768 
0.0001260164434269915 
0.000695522259878882 
-0.000396682994823346 
-0.0009162562484297575 
0.0003295993836179544 
-0.001433854111380104 
0.001480861033222821 
0 
0.003362676535686331 
0.001433854111380104 
0.001480861033222821 
0.0009162562484297575 
0.0003295993836179544 
-0.002133161551253076 
-0.001748754213751522 
-0.004098083996686425 
0.001341547563276041 
0 
0.005529878958106226 
0.004098083996686425 
0.001341547563276041 
0.002133161551253076 
-0.001748754213751522 
-0.001457855303037889 
-0.001922638333926854 
-0.003186801555294422 
-0.0005240063582503991 
0 
0.002212317514735318 
0.003186801555294422 
-0.0005240063582503991 
0.001457855303037889 
-0.001922638333926854 
-0.0008392610494344045 
0.0006258733655709321 
-0.001266350234557424 
0.002192789045092539 
0 
0.004449609476814885 
0.001266350234557424 
0.002192789045092539 
0.0008392610494344045 
0.0006258733655709321 
0.000467572013439266 
-0.001135977356005859 
-0.0001549214468705131 
-0.002140252031314663 
0 
-0.00242012392543856 
0.0001549214468705131 
-0.002140252031314663 
-0.000467572013439266 
-0.001135977356005859 
-0.002621018157984474 
-7.318514527139959e-05 
-0.004145222831188638 
0.003464683549716322 
0 
0.008496974917949816 
0.004145222831188638 
0.003464683549716322 
0.002621018157984474 
-7.318514527139959e-05 
0.0001028196643397355 
-0.001712514243150598 
-0.001453099613662622 
-0.002147282369936232 
0 
-0.0004885198957231201 
0.001453099613662622 
-0.002147282369936232 
-0.0001028196643397355 
-0.001712514243150598 
-0.0005855520072352945 
-0.000582446320364228 
-0.0008867185613668458 
0.0003172670132328853 
0 
0.0009063008523162966 
0.0008867185613668458 
0.0003172670132328853 
0.0005855520072352945 
-0.000582446320364228 
0.001302830898860248 
-0.001727408859021289 
0.001401674763930754 
-0.004867475357100345 
0 
-0.007930933346342846 
-0.001401674763930754 
-0.004867475357100345 
-0.001302830898860248 
-0.001727408859021289 
0.0001293163439112219 
-0.001060008875117099 
-0.0009512416826654222 
-0.001339595615784936 
0 
-9.791147824046285e-05 
0.0009512416826654222 
-0.001339595615784936 
-0.0001293163439112219 
-0.001060008875117099 
0.0005861131027085766 
-0.001098556369308178 
-0.0003028939326237447 
-0.00197541218069516 
0 
-0.001587012788342898 
0.0003028939326237447 
-0.00197541218069516 
-0.0005861131027085766 
-0.001098556369308178 
0.0002054470364719889 
-0.0005420503336962508 
0.0001506410799806591 
-0.001040238060969794 
0 
-0.001537566181624955 
-0.0001506410799806591 
-0.001040238060969794 
-0.0002054470364719889 
-0.0005420503336962508 
0.0002666895910666924 
-0.001815632614297417 
-0.001155015667283647 
-0.00266534514046032 
0 
-0.001857135517630387 
0.001155015667283647 
-0.00266534514046032 
-0.0002666895910666924 
-0.001815632614297417 
0.0008253385426509956 
-0.001604796359817282 
-0.000921796051175785 
-0.002534100959613103 
0 
-0.00111227991533866 
0.000921796051175785 
-0.002534100959613103 
-0.0008253385426509956 
-0.001604796359817282 
-0.0003361741742987496 
4.445568860843935e-05 
-0.00073718136019256 
0.0003088463619896087 
0 
0.001371120590873371 
0.00073718136019256 
0.0003088463619896087 
0.0003361741742987496 
4.445568860843935e-05 
0.00093870572052812 
-0.0001179380802103086 
0.00168347094831374 
-0.001921162784622173 
0 
-0.004262904026689461 
-0.00168347094831374 
-0.001921162784622173 
-0.00093870572052812 
-0.0001179380802103086 
0.0003685676164650498 
-0.001426350640450122 
-0.0005406892417998115 
-0.002407733186379649 
0 
-0.002631283780912084 
0.0005406892417998115 
-0.002407733186379649 
-0.0003685676164650498 
-0.001426350640450122 
-6.014099453531801e-05 
-0.000488741143161073 
-0.0009744881393764588 
-0.0002576488064556489 
0 
0.001192172403260197 
0.0009744881393764588 
-0.0002576488064556489 
6.014099453531801e-05 
-0.000488741143161073 
-0.001192899745980036 
0.0006191271520966879 
-0.002409046029446249 
0.003058086394053864 
0 
0.007008929287679292 
0.002409046029446249 
0.003058086394053864 
0.001192899745980036 
0.0006191271520966879 
-0.0003060510299694474 
0.000105921603674229 
-0.002024961533420752 
0.002347410905186412 
0 
0.00618991246789405 
0.002024961533420752 
0.002347410905186412 
0.0003060510299694474 
0.000105921603674229 
0.0008686738918884429 
-0.001853356108809156 
0.0002376417825886237 
-0.00396965473250148 
0 
-0.005259909983547632 
-0.0002376417825886237 
-0.00396965473250148 
-0.0008686738918884429 
-0.001853356108809156 
-0.0007485788802272034 
-0.0008432792776334783 
-0.002189903235216195 
-6.95828559595591e-05 
0 
0.002669606457985664 
0.002189903235216195 
-6.95828559595591e-05 
0.0007485788802272034 
-0.0008432792776334783 
7.353997385382065e-05 
-0.001994098251637412 
-0.00153803259546842 
-0.00232511598272461 
0 
-0.0009356762605251324 
0.00153803259546842 
-0.00232511598272461 
-7.353997385382065e-05 
-0.001994098251637412 
0.0004726786212310764 
-0.001461620425430377 
-0.0002044350316682587 
-0.002477238301719474 
0 
-0.002873335787464378 
0.0002044350316682587 
-0.002477238301719474 
-0.0004726786212310764 
-0.001461620425430377 
0.0003131789839124852 
-0.0003963794246822284 
-9.528853425184181e-05 
-0.0009326992516500098 
0 
-0.0007340502206256065 
9.528853425184181e-05 
-0.0009326992516500098 
-0.0003131789839124852 
-0.0003963794246822284 
-0.0009516421326468929 
-0.000989029139381664 
-0.002665671629214392 
0.0004874207033722421 
0 
0.003896103782464193 
0.002665671629214392 
0.0004874207033722421 
0.0009516421326468929 
-0.000989029139381664 
0.0002027518861524474 
-0.001833499465512262 
-0.001374351032974747 
-0.002277840689259703 
0 
-0.0009315052754551657 
0.001374351032974747 
-0.002277840689259703 
-0.0002027518861524474 
-0.001833499465512262 
-0.0001411090423607593 
-0.0004181486442904598 
-0.0009996412392573064 
0.0002329254085096939 
0 
0.001773235475173565 
0.0009996412392573064 
0.0002329254085096939 
0.0001411090423607593 
-0.0004181486442904598 
0.0002773346200207964 
-0.001706573511642264 
-0.0004742853954058292 
-0.002991623407831111 
0 
-0.003366244805896323 
0.0004742853954058292 
-0.002991623407831111 
-0.0002773346200207964 
-0.001706573511642264 
-0.0001267726343083041 
-0.00130149284861991 
-0.001176774642544464 
-0.001669557371500495 
0 
-0.0006668611892141717 
0.001176774642544464 
-0.001669557371500495 
0.0001267726343083041 
-0.00130149284861991 
-0.0002989662446380584 
-0.0006206905576905884 
-0.001409694779132937 
-0.0001858465469279428 
0 
0.001746654598259522 
0.001409694779132937 
-0.0001858465469279428 
0.0002989662446380584 
-0.0006206905576905884 
0.0006459308111174624 
0.0002720608774626878 
0.001060941553070414 
-0.0008328201872890199 
0 
-0.002108264573569979 
-0.001060941553070414 
-0.0008328201872890199 
-0.0006459308111174624 
0.0002720608774626878 
-0.0002766066213751347 
-5.095505054173008e-06 
0.0001228860527564027 
-0.001004799094356998 
0 
-0.002154504598794247 
-0.0001228860527564027 
-0.001004799094356998 
0.0002766066213751347 
-5.095505054173008e-06 
-0.001146941400162094 
-1.456331323456489e-05 
-0.002384281201812131 
0.002535298176411663 
0 
0.006050601612881876 
0.002384281201812131 
0.002535298176411663 
